FANN_FLO_2.1
num_layers=4
learning_rate=0.001000
connection_rate=1.000000
network_type=0
learning_momentum=0.000000
training_algorithm=2
train_error_function=1
train_stop_function=0
cascade_output_change_fraction=0.010000
quickprop_decay=-0.000100
quickprop_mu=1.750000
rprop_increase_factor=1.200000
rprop_decrease_factor=0.500000
rprop_delta_min=0.000000
rprop_delta_max=50.000000
rprop_delta_zero=0.100000
cascade_output_stagnation_epochs=12
cascade_candidate_change_fraction=0.010000
cascade_candidate_stagnation_epochs=12
cascade_max_out_epochs=150
cascade_min_out_epochs=50
cascade_max_cand_epochs=150
cascade_min_cand_epochs=50
cascade_num_candidate_groups=2
bit_fail_limit=3.49999994039535520000e-001
cascade_candidate_limit=1.00000000000000000000e+003
cascade_weight_multiplier=4.00000005960464480000e-001
cascade_activation_functions_count=10
cascade_activation_functions=3 5 7 8 10 11 14 15 16 17 
cascade_activation_steepnesses_count=4
cascade_activation_steepnesses=2.50000000000000000000e-001 5.00000000000000000000e-001 7.50000000000000000000e-001 1.00000000000000000000e+000 
layer_sizes=7 41 41 4 
scale_included=0
neurons (num_inputs, activation_function, activation_steepness)=(0, 0, 0.00000000000000000000e+000) (0, 0, 0.00000000000000000000e+000) (0, 0, 0.00000000000000000000e+000) (0, 0, 0.00000000000000000000e+000) (0, 0, 0.00000000000000000000e+000) (0, 0, 0.00000000000000000000e+000) (0, 0, 0.00000000000000000000e+000) (7, 5, 5.00000000000000000000e-001) (7, 5, 5.00000000000000000000e-001) (7, 5, 5.00000000000000000000e-001) (7, 5, 5.00000000000000000000e-001) (7, 5, 5.00000000000000000000e-001) (7, 5, 5.00000000000000000000e-001) (7, 5, 5.00000000000000000000e-001) (7, 5, 5.00000000000000000000e-001) (7, 5, 5.00000000000000000000e-001) (7, 5, 5.00000000000000000000e-001) (7, 5, 5.00000000000000000000e-001) (7, 5, 5.00000000000000000000e-001) (7, 5, 5.00000000000000000000e-001) (7, 5, 5.00000000000000000000e-001) (7, 5, 5.00000000000000000000e-001) (7, 5, 5.00000000000000000000e-001) (7, 5, 5.00000000000000000000e-001) (7, 5, 5.00000000000000000000e-001) (7, 5, 5.00000000000000000000e-001) (7, 5, 5.00000000000000000000e-001) (7, 5, 5.00000000000000000000e-001) (7, 5, 5.00000000000000000000e-001) (7, 5, 5.00000000000000000000e-001) (7, 5, 5.00000000000000000000e-001) (7, 5, 5.00000000000000000000e-001) (7, 5, 5.00000000000000000000e-001) (7, 5, 5.00000000000000000000e-001) (7, 5, 5.00000000000000000000e-001) (7, 5, 5.00000000000000000000e-001) (7, 5, 5.00000000000000000000e-001) (7, 5, 5.00000000000000000000e-001) (7, 5, 5.00000000000000000000e-001) (7, 5, 5.00000000000000000000e-001) (7, 5, 5.00000000000000000000e-001) (7, 5, 5.00000000000000000000e-001) (7, 5, 5.00000000000000000000e-001) (7, 5, 5.00000000000000000000e-001) (7, 5, 5.00000000000000000000e-001) (7, 5, 5.00000000000000000000e-001) (7, 5, 5.00000000000000000000e-001) (0, 5, 0.00000000000000000000e+000) (41, 5, 5.00000000000000000000e-001) (41, 5, 5.00000000000000000000e-001) (41, 5, 5.00000000000000000000e-001) (41, 5, 5.00000000000000000000e-001) (41, 5, 5.00000000000000000000e-001) (41, 5, 5.00000000000000000000e-001) (41, 5, 5.00000000000000000000e-001) (41, 5, 5.00000000000000000000e-001) (41, 5, 5.00000000000000000000e-001) (41, 5, 5.00000000000000000000e-001) (41, 5, 5.00000000000000000000e-001) (41, 5, 5.00000000000000000000e-001) (41, 5, 5.00000000000000000000e-001) (41, 5, 5.00000000000000000000e-001) (41, 5, 5.00000000000000000000e-001) (41, 5, 5.00000000000000000000e-001) (41, 5, 5.00000000000000000000e-001) (41, 5, 5.00000000000000000000e-001) (41, 5, 5.00000000000000000000e-001) (41, 5, 5.00000000000000000000e-001) (41, 5, 5.00000000000000000000e-001) (41, 5, 5.00000000000000000000e-001) (41, 5, 5.00000000000000000000e-001) (41, 5, 5.00000000000000000000e-001) (41, 5, 5.00000000000000000000e-001) (41, 5, 5.00000000000000000000e-001) (41, 5, 5.00000000000000000000e-001) (41, 5, 5.00000000000000000000e-001) (41, 5, 5.00000000000000000000e-001) (41, 5, 5.00000000000000000000e-001) (41, 5, 5.00000000000000000000e-001) (41, 5, 5.00000000000000000000e-001) (41, 5, 5.00000000000000000000e-001) (41, 5, 5.00000000000000000000e-001) (41, 5, 5.00000000000000000000e-001) (41, 5, 5.00000000000000000000e-001) (41, 5, 5.00000000000000000000e-001) (41, 5, 5.00000000000000000000e-001) (41, 5, 5.00000000000000000000e-001) (41, 5, 5.00000000000000000000e-001) (0, 5, 0.00000000000000000000e+000) (41, 0, 5.00000000000000000000e-001) (41, 0, 5.00000000000000000000e-001) (41, 0, 5.00000000000000000000e-001) (0, 0, 0.00000000000000000000e+000) 
connections (connected_to_neuron, weight)=(0, -6.83678686618804930000e-002) (1, -2.98409082461148500000e-004) (2, -5.52452914416790010000e-003) (3, -8.21813270449638370000e-002) (4, 7.68653377890586850000e-002) (5, -9.21208038926124570000e-003) (6, -9.14052799344062810000e-002) (0, 4.49934393167495730000e-001) (1, 9.85966399312019350000e-002) (2, 1.39109164476394650000e-001) (3, -1.27584710717201230000e-001) (4, 2.85519421100616460000e-001) (5, 1.18105798959732060000e-001) (6, 1.91859751939773560000e-001) (0, 9.08397793769836430000e-001) (1, 9.89440008997917180000e-002) (2, 8.34073498845100400000e-002) (3, -1.29196092486381530000e-001) (4, 5.26189625263214110000e-001) (5, 2.82225042581558230000e-001) (6, 5.33693432807922360000e-001) (0, 9.13319587707519530000e-001) (1, 2.35539451241493230000e-001) (2, 1.55564531683921810000e-001) (3, -3.79579551517963410000e-002) (4, 5.52097260951995850000e-001) (5, 3.19280505180358890000e-001) (6, 5.24005949497222900000e-001) (0, 8.84675264358520510000e-001) (1, 8.43924731016159060000e-002) (2, 1.13880537450313570000e-001) (3, -1.27433180809021000000e-001) (4, 4.51827287673950200000e-001) (5, 1.82305797934532170000e-001) (6, 5.35547912120819090000e-001) (0, 9.07045066356658940000e-001) (1, 1.88673540949821470000e-001) (2, 1.96553453803062440000e-001) (3, -1.38821648433804510000e-002) (4, 4.14217382669448850000e-001) (5, 2.38292545080184940000e-001) (6, 4.07912701368331910000e-001) (0, 6.16046369075775150000e-001) (1, 1.96221888065338130000e-001) (2, 1.97511017322540280000e-001) (3, 7.31836864724755290000e-003) (4, 3.65960419178009030000e-001) (5, 2.96165257692337040000e-001) (6, 3.67661416530609130000e-001) (0, 5.66494464874267580000e-001) (1, 1.91244676709175110000e-001) (2, 1.35139778256416320000e-001) (3, 8.10628943145275120000e-003) (4, 3.87981653213500980000e-001) (5, 2.31625929474830630000e-001) (6, 4.99078452587127690000e-001) (0, 4.28520202636718750000e-001) (1, 6.33094683289527890000e-002) (2, -7.42089282721281050000e-003) (3, -1.64523534476757050000e-002) (4, 3.05617332458496090000e-001) (5, 1.23780056834220890000e-001) (6, 2.67289012670516970000e-001) (0, 1.13756209611892700000e-001) (1, 7.65127241611480710000e-002) (2, -1.09915935900062320000e-003) (3, -9.03304740786552430000e-002) (4, -9.53560881316661830000e-003) (5, 8.73989611864089970000e-002) (6, 1.19788050651550290000e-001) (0, -2.10741028189659120000e-001) (1, -2.68411473371088500000e-003) (2, -3.77498306334018710000e-002) (3, -5.42723871767520900000e-002) (4, -1.95935964584350590000e-001) (5, -7.98262208700180050000e-002) (6, -2.27122366428375240000e-001) (0, -2.67038762569427490000e-001) (1, -1.29759848117828370000e-001) (2, -9.16128084063529970000e-002) (3, 1.08830161392688750000e-001) (4, -2.51074731349945070000e-001) (5, -9.07510221004486080000e-002) (6, -2.86573380231857300000e-001) (0, 2.70038664340972900000e-001) (1, 8.75094085931777950000e-002) (2, 1.61693349480628970000e-001) (3, -7.64420777559280400000e-002) (4, 2.34562292695045470000e-001) (5, 1.07332490384578700000e-001) (6, 2.40597456693649290000e-001) (0, -6.39576137065887450000e-001) (1, 7.84485507756471630000e-003) (2, -9.90714803338050840000e-002) (3, 1.73746868968009950000e-001) (4, -3.93450647592544560000e-001) (5, -1.62043586373329160000e-001) (6, -4.17099118232727050000e-001) (0, -3.31176728010177610000e-001) (1, -1.25568294897675510000e-002) (2, -1.31460472941398620000e-001) (3, 9.99233797192573550000e-002) (4, -1.70010849833488460000e-001) (5, -4.18935194611549380000e-002) (6, -2.44587704539299010000e-001) (0, 4.78567689657211300000e-001) (1, 2.88167707622051240000e-002) (2, 1.79215461015701290000e-001) (3, -1.40378430485725400000e-001) (4, 2.36483931541442870000e-001) (5, 1.72860115766525270000e-001) (6, 2.74922043085098270000e-001) (0, -9.16341602802276610000e-001) (1, -1.40699803829193120000e-001) (2, -2.18231320381164550000e-001) (3, 1.72701776027679440000e-001) (4, -4.39240306615829470000e-001) (5, -2.61598527431488040000e-001) (6, -4.66239690780639650000e-001) (0, 6.06242537498474120000e-001) (1, 7.30627216398715970000e-003) (2, 6.68626576662063600000e-002) (3, -1.64218813180923460000e-001) (4, 2.88053452968597410000e-001) (5, 1.39301598072052000000e-001) (6, 4.07022088766098020000e-001) (0, -5.78831553459167480000e-001) (1, -1.11914366483688350000e-001) (2, -3.89406122267246250000e-002) (3, 3.36327254772186280000e-002) (4, -3.61457854509353640000e-001) (5, -2.78895378112792970000e-001) (6, -4.22895878553390500000e-001) (0, 6.67981624603271480000e-001) (1, 1.58862531185150150000e-001) (2, 1.90147235989570620000e-001) (3, -1.80840522050857540000e-001) (4, 3.03018778562545780000e-001) (5, 1.98364675045013430000e-001) (6, 3.55714768171310420000e-001) (0, 7.26819872856140140000e-001) (1, 1.88793629407882690000e-001) (2, 2.13498786091804500000e-001) (3, -1.45254700328223410000e-004) (4, 3.42081904411315920000e-001) (5, 2.66034573316574100000e-001) (6, 4.35241907835006710000e-001) (0, 2.07633405923843380000e-001) (1, 7.09794685244560240000e-002) (2, 1.72975882887840270000e-002) (3, -1.18269294500350950000e-001) (4, 1.82311356067657470000e-001) (5, 1.40341416001319890000e-001) (6, 2.25031778216362000000e-001) (0, -6.55566334724426270000e-001) (1, -8.60596820712089540000e-002) (2, -9.83321815729141240000e-002) (3, 7.66989737749099730000e-002) (4, -2.84701168537139890000e-001) (5, -1.80711284279823300000e-001) (6, -3.88260632753372190000e-001) (0, -7.05814003944396970000e-001) (1, -1.09194234013557430000e-001) (2, -5.83801120519638060000e-002) (3, 9.42285452038049700000e-003) (4, -4.12283033132553100000e-001) (5, -1.98166653513908390000e-001) (6, -3.91321629285812380000e-001) (0, -5.63834607601165770000e-001) (1, -3.07855568826198580000e-002) (2, -7.54251377657055850000e-003) (3, 6.14608936011791230000e-002) (4, -2.54290670156478880000e-001) (5, -1.64459466934204100000e-001) (6, -3.85076940059661870000e-001) (0, 1.30271688103675840000e-001) (1, 4.56694848835468290000e-002) (2, -2.94516701251268390000e-002) (3, -4.57766614854335780000e-002) (4, 1.47490836679935460000e-002) (5, -7.68972411751747130000e-002) (6, 1.09582655131816860000e-001) (0, -7.19292104244232180000e-001) (1, -1.10979758203029630000e-001) (2, -2.13763862848281860000e-001) (3, -3.96047346293926240000e-003) (4, -3.97606015205383300000e-001) (5, -2.27823153138160710000e-001) (6, -3.46995979547500610000e-001) (0, 6.94456756114959720000e-001) (1, 2.05382764339447020000e-001) (2, 2.15523272752761840000e-001) (3, -8.80431681871414180000e-002) (4, 4.65726435184478760000e-001) (5, 3.15315365791320800000e-001) (6, 4.14360880851745610000e-001) (0, 9.57850635051727290000e-001) (1, 2.05178201198577880000e-001) (2, 1.93650826811790470000e-001) (3, -1.79282680153846740000e-001) (4, 4.61670041084289550000e-001) (5, 3.13945651054382320000e-001) (6, 5.62739193439483640000e-001) (0, 1.59710552543401720000e-002) (1, -1.46594159305095670000e-002) (2, -4.36357082799077030000e-003) (3, -4.52981479465961460000e-002) (4, 1.07843399047851560000e-001) (5, 2.31302790343761440000e-002) (6, -5.98077215254306790000e-002) (0, -1.70785352587699890000e-001) (1, -5.95687031745910640000e-002) (2, -1.70724969357252120000e-002) (3, -4.91292923688888550000e-002) (4, 3.13259055837988850000e-003) (5, -6.30833357572555540000e-002) (6, -1.20788276195526120000e-001) (0, 7.14197695255279540000e-001) (1, 1.46968439221382140000e-001) (2, 2.09485650062561040000e-001) (3, -1.80896259844303130000e-002) (4, 3.41340094804763790000e-001) (5, 1.72317698597908020000e-001) (6, 4.16053235530853270000e-001) (0, -1.07122611999511720000e+000) (1, -2.40980222821235660000e-001) (2, -1.36938169598579410000e-001) (3, 3.06601207703351970000e-002) (4, -5.61683714389801030000e-001) (5, -1.89036875963211060000e-001) (6, -5.80610096454620360000e-001) (0, -2.25948348641395570000e-001) (1, -1.00764684379100800000e-001) (2, 6.85425549745559690000e-002) (3, 8.30833166837692260000e-002) (4, -7.60644748806953430000e-002) (5, -9.97538566589355470000e-002) (6, -1.71896934509277340000e-001) (0, -4.59803700447082520000e-001) (1, -9.92351397871971130000e-002) (2, -4.61619086563587190000e-002) (3, 1.52025803923606870000e-001) (4, -2.46845349669456480000e-001) (5, -8.03945064544677730000e-002) (6, -3.80009829998016360000e-001) (0, 5.52912235260009770000e-001) (1, 6.46814610809087750000e-003) (2, 5.02336584031581880000e-002) (3, 3.67707498371601100000e-002) (4, 2.69932836294174190000e-001) (5, 2.40118920803070070000e-001) (6, 2.91992783546447750000e-001) (0, 8.38919758796691890000e-001) (1, 2.41764783859252930000e-001) (2, 1.04063279926776890000e-001) (3, -2.01704099774360660000e-001) (4, 5.06882369518280030000e-001) (5, 3.21967750787734990000e-001) (6, 5.48790812492370610000e-001) (0, 9.29708421230316160000e-001) (1, 2.26964294910430910000e-001) (2, 4.27939519286155700000e-002) (3, -9.89946573972702030000e-002) (4, 4.03213113546371460000e-001) (5, 1.69578447937965390000e-001) (6, 5.15168428421020510000e-001) (0, 2.85610556602478030000e-001) (1, 8.70722532272338870000e-002) (2, 6.04324750602245330000e-002) (3, -9.66102853417396550000e-002) (4, 2.89826244115829470000e-001) (5, 1.00607827305793760000e-001) (6, 3.19414943456649780000e-001) (0, -3.08514479547739030000e-002) (1, -9.30155590176582340000e-002) (2, -7.58377611637115480000e-002) (3, 4.26025427877902980000e-002) (4, 2.71014738827943800000e-002) (5, -6.21936619281768800000e-002) (6, -3.89528833329677580000e-002) (7, 2.58010737597942350000e-002) (8, 8.39865058660507200000e-002) (9, 2.87834912538528440000e-001) (10, 3.54210406541824340000e-001) (11, 1.22899785637855530000e-001) (12, 2.86011755466461180000e-001) (13, 2.03139901161193850000e-001) (14, 1.32388457655906680000e-001) (15, 1.84699282050132750000e-001) (16, 1.06620147824287410000e-001) (17, -5.33494129776954650000e-002) (18, -1.12661100924015050000e-001) (19, 6.46226033568382260000e-002) (20, -8.91774669289588930000e-002) (21, -1.50334537029266360000e-001) (22, 2.09782689809799190000e-001) (23, -3.10501933097839360000e-001) (24, 8.77368003129959110000e-002) (25, -2.51942634582519530000e-001) (26, 1.63790285587310790000e-001) (27, 1.93375572562217710000e-001) (28, 9.97965261340141300000e-002) (29, -2.57070153951644900000e-001) (30, -2.53832995891571040000e-001) (31, -5.12757860124111180000e-002) (32, -6.64613302797079090000e-003) (33, -2.69780874252319340000e-001) (34, 1.86556488275527950000e-001) (35, 3.99521589279174800000e-001) (36, -3.29239442944526670000e-002) (37, -2.03215423971414570000e-002) (38, 2.47359052300453190000e-001) (39, -3.41457068920135500000e-001) (40, -1.66761785745620730000e-001) (41, -2.05842897295951840000e-001) (42, 1.61391273140907290000e-001) (43, 2.41010397672653200000e-001) (44, 2.25078821182250980000e-001) (45, 1.62718832492828370000e-001) (46, -3.25166508555412290000e-002) (47, 8.14145088195800780000e-001) (7, -6.88181519508361820000e-002) (8, -1.09887227416038510000e-001) (9, -2.98652499914169310000e-001) (10, -2.74365395307540890000e-001) (11, -2.86220788955688480000e-001) (12, -2.82939910888671880000e-001) (13, -2.18720883131027220000e-001) (14, -2.03448206186294560000e-001) (15, -8.68850797414779660000e-002) (16, -6.19657225906848910000e-002) (17, 3.56980748474597930000e-002) (18, 1.56040623784065250000e-001) (19, -3.59164513647556300000e-002) (20, 1.67443603277206420000e-001) (21, 1.34042441844940190000e-001) (22, -1.91186517477035520000e-001) (23, 1.52799144387245180000e-001) (24, -2.41648197174072270000e-001) (25, 1.97570800781250000000e-001) (26, -9.91168245673179630000e-002) (27, -2.36234530806541440000e-001) (28, -2.15604510158300400000e-002) (29, 2.40461304783821110000e-001) (30, 1.12949088215827940000e-001) (31, 7.52926394343376160000e-002) (32, 4.61077429354190830000e-002) (33, 1.27673909068107600000e-001) (34, -1.53670027852058410000e-001) (35, -2.59369939565658570000e-001) (36, 2.18742787837982180000e-002) (37, 9.05526652932167050000e-002) (38, -2.24707692861557010000e-001) (39, 2.47757002711296080000e-001) (40, 3.77998948097229000000e-002) (41, 9.11429822444915770000e-002) (42, -1.53380200266838070000e-001) (43, -1.94336801767349240000e-001) (44, -2.04360857605934140000e-001) (45, -1.48554667830467220000e-001) (46, -8.76171737909317020000e-002) (47, -5.45930206775665280000e-001) (7, 5.35012558102607730000e-002) (8, 5.60698993504047390000e-002) (9, 3.15824359655380250000e-001) (10, 3.00084948539733890000e-001) (11, 2.11556196212768550000e-001) (12, 2.78307348489761350000e-001) (13, 1.94956541061401370000e-001) (14, 2.12045520544052120000e-001) (15, 2.05013453960418700000e-002) (16, 6.61194846034049990000e-002) (17, -1.06487892568111420000e-001) (18, -1.25285819172859190000e-001) (19, 1.70142665505409240000e-001) (20, -2.39679098129272460000e-001) (21, -4.24207001924514770000e-002) (22, 7.40202143788337710000e-002) (23, -3.24782401323318480000e-001) (24, 2.48092651367187500000e-001) (25, -8.82378146052360530000e-002) (26, 7.81171396374702450000e-002) (27, 1.86471059918403630000e-001) (28, 4.39356938004493710000e-002) (29, -2.60556966066360470000e-001) (30, -2.12560161948204040000e-001) (31, -2.32081294059753420000e-001) (32, 9.49585959315299990000e-002) (33, -8.60092714428901670000e-002) (34, 2.59161710739135740000e-001) (35, 3.01209598779678340000e-001) (36, -6.80233817547559740000e-003) (37, -2.02786903828382490000e-002) (38, 2.36043438315391540000e-001) (39, -2.72761881351470950000e-001) (40, -9.83369052410125730000e-002) (41, -9.66174155473709110000e-002) (42, 5.76239712536334990000e-002) (43, 2.81467586755752560000e-001) (44, 2.54731208086013790000e-001) (45, 1.18293188512325290000e-001) (46, -2.99676693975925450000e-002) (47, 5.61683833599090580000e-001) (7, -7.59318703785538670000e-004) (8, 1.33976504206657410000e-001) (9, 2.82984048128128050000e-001) (10, 3.07614535093307500000e-001) (11, 1.87837123870849610000e-001) (12, 2.78919398784637450000e-001) (13, 9.62917357683181760000e-002) (14, 1.34291812777519230000e-001) (15, 6.77754729986190800000e-002) (16, 9.08155888319015500000e-002) (17, -1.49827063083648680000e-001) (18, -4.16751503944396970000e-002) (19, 6.78548812866210940000e-002) (20, -7.36363753676414490000e-002) (21, -2.97837681137025360000e-003) (22, 5.88408596813678740000e-002) (23, -2.46539220213890080000e-001) (24, 1.17239922285079960000e-001) (25, -1.17817394435405730000e-001) (26, 2.20063343644142150000e-001) (27, 1.73777848482131960000e-001) (28, 1.17599174380302430000e-001) (29, -6.91910311579704280000e-002) (30, -1.89191654324531560000e-001) (31, -1.97238370776176450000e-001) (32, -3.95625084638595580000e-002) (33, -9.62685197591781620000e-002) (34, 1.35676145553588870000e-001) (35, 2.46944099664688110000e-001) (36, 3.29042151570320130000e-002) (37, -1.03453084826469420000e-001) (38, 1.78480699658393860000e-001) (39, -2.53837674856185910000e-001) (40, -3.54674123227596280000e-002) (41, -1.70468643307685850000e-001) (42, 1.96216627955436710000e-001) (43, 2.31531128287315370000e-001) (44, 2.30224758386611940000e-001) (45, 1.84465214610099790000e-001) (46, -8.73532593250274660000e-002) (47, 4.39879804849624630000e-001) (7, -1.02635651826858520000e-001) (8, 1.59361943602561950000e-001) (9, 1.64116337895393370000e-001) (10, 2.13210999965667720000e-001) (11, 2.41448700428009030000e-001) (12, 6.36685788631439210000e-002) (13, 2.10063397884368900000e-001) (14, 1.05758056044578550000e-001) (15, 1.50834724307060240000e-001) (16, 4.05134670436382290000e-002) (17, -1.35202929377555850000e-001) (18, -1.34718613699078560000e-002) (19, 6.38595968484878540000e-002) (20, -1.54827669262886050000e-001) (21, -1.02196007966995240000e-001) (22, 1.50576308369636540000e-001) (23, -2.54686772823333740000e-001) (24, 9.80009734630584720000e-002) (25, -1.99858009815216060000e-001) (26, 1.31531119346618650000e-001) (27, 1.02523192763328550000e-001) (28, 4.50435951352119450000e-002) (29, -2.53657754510641100000e-002) (30, -1.21014714241027830000e-001) (31, -1.88038691878318790000e-001) (32, 9.19235497713088990000e-002) (33, -7.87097960710525510000e-002) (34, 9.81103107333183290000e-002) (35, 1.69292390346527100000e-001) (36, 6.65783882141113280000e-002) (37, -1.04456253349781040000e-001) (38, 2.00639575719833370000e-001) (39, -2.96726822853088380000e-001) (40, 2.54876110702753070000e-002) (41, -2.26547978818416600000e-002) (42, 2.21418589353561400000e-002) (43, 7.90004357695579530000e-002) (44, 8.92791002988815310000e-002) (45, 1.72094359993934630000e-001) (46, 3.27284820377826690000e-002) (47, 3.63251656293869020000e-001) (7, -4.39228601753711700000e-002) (8, -1.71746298670768740000e-001) (9, -1.17143288254737850000e-001) (10, -2.32103168964385990000e-001) (11, -2.36859187483787540000e-001) (12, -1.39348402619361880000e-001) (13, -1.12011887133121490000e-001) (14, -1.99010565876960750000e-001) (15, 8.06626398116350170000e-004) (16, -2.33665443956851960000e-002) (17, 1.14404290914535520000e-001) (18, 1.62252917885780330000e-001) (19, -1.46921742707490920000e-002) (20, 1.87912732362747190000e-001) (21, 1.38350620865821840000e-001) (22, -1.34800627827644350000e-001) (23, 1.28591135144233700000e-001) (24, -4.80004884302616120000e-002) (25, 1.65185898542404170000e-001) (26, -7.53971338272094730000e-002) (27, -5.07552735507488250000e-002) (28, -7.17370063066482540000e-002) (29, 8.73005092144012450000e-002) (30, 1.59642219543457030000e-001) (31, 1.06696091592311860000e-001) (32, -3.77046852372586730000e-003) (33, 1.00907988846302030000e-001) (34, -4.36834953725337980000e-002) (35, -2.11520388722419740000e-001) (36, -4.92391474545001980000e-002) (37, 5.84728382527828220000e-002) (38, -1.76093786954879760000e-001) (39, 1.40473663806915280000e-001) (40, 8.22508782148361210000e-002) (41, 3.44861522316932680000e-002) (42, -1.81125760078430180000e-001) (43, -1.90366238355636600000e-001) (44, -6.81846588850021360000e-002) (45, -1.05191975831985470000e-001) (46, -5.23849911987781520000e-002) (47, -2.62083023786544800000e-001) (7, -4.14262264966964720000e-002) (8, -1.66639238595962520000e-001) (9, -1.89018771052360530000e-001) (10, -1.72019779682159420000e-001) (11, -1.53020516037940980000e-001) (12, -2.43064686655998230000e-001) (13, -1.41859665513038640000e-001) (14, -1.26552000641822810000e-001) (15, -6.42757192254066470000e-002) (16, 5.23814633488655090000e-002) (17, 9.15824174880981450000e-002) (18, 1.51238188147544860000e-001) (19, -1.69588372111320500000e-001) (20, 1.01690463721752170000e-001) (21, 5.08960075676441190000e-002) (22, -7.51070454716682430000e-002) (23, 2.60950088500976560000e-001) (24, -1.76065996289253230000e-001) (25, 9.07289832830429080000e-002) (26, -2.25009441375732420000e-001) (27, -1.06623396277427670000e-001) (28, -2.05040797591209410000e-002) (29, 8.68633314967155460000e-002) (30, 2.22985476255416870000e-001) (31, 1.87683746218681340000e-001) (32, 4.50248792767524720000e-002) (33, 1.21486634016036990000e-001) (34, -2.47499451041221620000e-001) (35, -2.41347163915634160000e-001) (36, -5.18111810088157650000e-002) (37, 8.41750726103782650000e-002) (38, -1.88609555363655090000e-001) (39, 3.28225016593933110000e-001) (40, 1.25558376312255860000e-001) (41, 1.14005669951438900000e-001) (42, -1.16313315927982330000e-001) (43, -3.07249903678894040000e-001) (44, -1.80763259530067440000e-001) (45, -2.15388201177120210000e-002) (46, 3.95256765186786650000e-002) (47, -5.89799463748931880000e-001) (7, 4.87680174410343170000e-002) (8, -1.78228765726089480000e-001) (9, -3.31914871931076050000e-001) (10, -3.17536503076553340000e-001) (11, -2.80212908983230590000e-001) (12, -2.77715325355529790000e-001) (13, -2.25292727351188660000e-001) (14, -1.12797178328037260000e-001) (15, -1.49621456861495970000e-001) (16, 6.89340159296989440000e-002) (17, 6.57607913017272950000e-002) (18, 1.04284137487411500000e-001) (19, -1.68575957417488100000e-001) (20, 6.50056228041648860000e-002) (21, 9.36193913221359250000e-002) (22, -1.61094263195991520000e-001) (23, 2.12712049484252930000e-001) (24, -1.51340052485466000000e-001) (25, 1.83017730712890630000e-001) (26, -1.39109924435615540000e-001) (27, -2.37876266241073610000e-001) (28, -8.07644054293632510000e-002) (29, 9.62394624948501590000e-002) (30, 2.82047510147094730000e-001) (31, 6.22158013284206390000e-002) (32, 3.81416156888008120000e-002) (33, 2.62826025485992430000e-001) (34, -2.08413660526275630000e-001) (35, -2.38432377576828000000e-001) (36, -6.26103058457374570000e-002) (37, 2.46405578218400480000e-003) (38, -1.08510240912437440000e-001) (39, 3.22846710681915280000e-001) (40, 9.62705444544553760000e-003) (41, 1.69805288314819340000e-001) (42, -1.86713233590126040000e-001) (43, -3.35304558277130130000e-001) (44, -2.99081921577453610000e-001) (45, -1.98314785957336430000e-001) (46, -5.66899217665195470000e-002) (47, -7.86005616188049320000e-001) (7, -2.26470511406660080000e-002) (8, 2.55850758403539660000e-002) (9, 2.73444354534149170000e-001) (10, 1.59812390804290770000e-001) (11, 2.17740654945373540000e-001) (12, 2.58282572031021120000e-001) (13, 9.17662382125854490000e-002) (14, 2.44256347417831420000e-001) (15, 1.49019703269004820000e-001) (16, 5.31264469027519230000e-002) (17, -5.52188754081726070000e-002) (18, -7.12997000664472580000e-003) (19, -9.45746339857578280000e-003) (20, -2.16082051396369930000e-001) (21, -1.35014429688453670000e-001) (22, 3.37337516248226170000e-002) (23, -2.77780264616012570000e-001) (24, 2.08118498325347900000e-001) (25, -1.71039700508117680000e-001) (26, 1.27363547682762150000e-001) (27, 2.44278371334075930000e-001) (28, 6.14633783698081970000e-004) (29, -2.28486940264701840000e-001) (30, -1.59403249621391300000e-001) (31, -4.19959835708141330000e-002) (32, 8.05744994431734090000e-003) (33, -1.21908746659755710000e-001) (34, 2.94032245874404910000e-001) (35, 2.46089458465576170000e-001) (36, -2.45309062302112580000e-002) (37, -5.42990490794181820000e-002) (38, 2.25075215101242070000e-001) (39, -3.07481914758682250000e-001) (40, -2.89440620690584180000e-002) (41, -2.60195210576057430000e-002) (42, 1.24734416604042050000e-001) (43, 2.73600935935974120000e-001) (44, 3.01487505435943600000e-001) (45, 6.89780190587043760000e-002) (46, -8.92200991511344910000e-002) (47, 6.34323239326477050000e-001) (7, -1.78550388664007190000e-002) (8, -1.87458805739879610000e-002) (9, 2.77421586215496060000e-002) (10, 1.58341184258461000000e-001) (11, 1.14694721996784210000e-001) (12, 1.43257439136505130000e-001) (13, 1.81587427854537960000e-001) (14, -4.47631068527698520000e-003) (15, 1.38767197728157040000e-001) (16, 1.07343366835266350000e-003) (17, -2.89426688104867940000e-002) (18, -7.00499638915061950000e-002) (19, 3.47438417375087740000e-002) (20, -1.25139966607093810000e-001) (21, 5.05087859928607940000e-002) (22, 1.60169094800949100000e-001) (23, -1.20756059885025020000e-001) (24, 8.12537819147109990000e-002) (25, -1.61392912268638610000e-001) (26, 1.65646448731422420000e-001) (27, 1.00733228027820590000e-001) (28, 8.61362442374229430000e-002) (29, -4.42734500393271450000e-003) (30, -1.09123088419437410000e-001) (31, -1.33390808477997780000e-002) (32, 5.42708188295364380000e-002) (33, -5.76071254909038540000e-002) (34, 1.11437588930130000000e-001) (35, 8.85443836450576780000e-002) (36, 4.30459156632423400000e-002) (37, -1.07213012874126430000e-001) (38, 1.13743871450424190000e-001) (39, -9.34779569506645200000e-002) (40, 2.74760765023529530000e-003) (41, -1.07072629034519200000e-001) (42, 1.50530785322189330000e-001) (43, 1.99060454964637760000e-001) (44, 1.44254684448242190000e-001) (45, 8.71592536568641660000e-002) (46, -8.04739072918891910000e-002) (47, 1.67437180876731870000e-001) (7, -8.90891626477241520000e-002) (8, 4.24616746604442600000e-002) (9, 2.85617589950561520000e-001) (10, 2.86547958850860600000e-001) (11, 2.34141752123832700000e-001) (12, 1.99182480573654170000e-001) (13, 1.04194305837154390000e-001) (14, 2.36902430653572080000e-001) (15, 9.94623377919197080000e-002) (16, -2.61532552540302280000e-002) (17, -7.62839689850807190000e-002) (18, -1.68403401970863340000e-001) (19, -1.34323220700025560000e-002) (20, -1.80174812674522400000e-001) (21, 3.68562294170260430000e-004) (22, 9.36383381485939030000e-002) (23, -1.32356524467468260000e-001) (24, 1.11862666904926300000e-001) (25, -7.48605057597160340000e-002) (26, 2.35738277435302730000e-001) (27, 1.64110884070396420000e-001) (28, -1.47013543173670770000e-002) (29, -1.23451352119445800000e-001) (30, -1.31479442119598390000e-001) (31, -1.31235763430595400000e-001) (32, -4.99636568129062650000e-002) (33, -1.88193544745445250000e-001) (34, 1.81322678923606870000e-001) (35, 2.01463013887405400000e-001) (36, -5.02419285476207730000e-002) (37, -5.73443211615085600000e-002) (38, 9.45485383272171020000e-002) (39, -3.42643499374389650000e-001) (40, -5.99152632057666780000e-002) (41, -1.79760694503784180000e-001) (42, 1.86569109559059140000e-001) (43, 1.85053035616874690000e-001) (44, 1.64862528443336490000e-001) (45, 1.27847984433174130000e-001) (46, -2.95981653034687040000e-002) (47, 5.43378293514251710000e-001) (7, 7.03786537051200870000e-002) (8, -4.84478250145912170000e-002) (9, -2.18775376677513120000e-001) (10, -2.59678930044174190000e-001) (11, -1.93256050348281860000e-001) (12, -2.81625837087631230000e-001) (13, -2.26184859871864320000e-001) (14, -1.11436463892459870000e-001) (15, -1.54362916946411130000e-001) (16, -5.03643527626991270000e-002) (17, 1.10926516354084010000e-002) (18, 8.28741788864135740000e-002) (19, -1.64417058229446410000e-001) (20, 2.14650526642799380000e-001) (21, 8.57333019375801090000e-002) (22, -6.24237582087516780000e-002) (23, 3.18368673324584960000e-001) (24, -2.15318650007247920000e-001) (25, 1.37324750423431400000e-001) (26, -2.76879876852035520000e-001) (27, -2.25195646286010740000e-001) (28, -1.17133021354675290000e-001) (29, 2.20726341009140010000e-001) (30, 8.68414267897605900000e-002) (31, 1.95278570055961610000e-001) (32, -1.22869849205017090000e-001) (33, 2.23334833979606630000e-001) (34, -1.60648599267005920000e-001) (35, -2.27439820766448970000e-001) (36, 6.04104101657867430000e-002) (37, -1.60501804202795030000e-002) (38, -2.35017120838165280000e-001) (39, 2.12170824408531190000e-001) (40, 2.23802160471677780000e-002) (41, 2.14763313531875610000e-001) (42, -2.09885373711586000000e-001) (43, -2.90396451950073240000e-001) (44, -3.30157428979873660000e-001) (45, -9.45786386728286740000e-002) (46, 4.14654379710555080000e-003) (47, -6.36349797248840330000e-001) (7, -5.37971556186676030000e-002) (8, -1.30465105175971980000e-001) (9, -3.21034014225006100000e-001) (10, -2.94077217578887940000e-001) (11, -2.07636252045631410000e-001) (12, -1.91110149025917050000e-001) (13, -6.32240921258926390000e-002) (14, -2.53534793853759770000e-001) (15, -1.11047551035881040000e-001) (16, -1.10902011394500730000e-001) (17, -1.88477933406829830000e-002) (18, 1.14902146160602570000e-001) (19, -1.46776452660560610000e-001) (20, 1.24834127724170680000e-001) (21, 1.28526210784912110000e-001) (22, -1.84669598937034610000e-001) (23, 1.42200976610183720000e-001) (24, -2.10556715726852420000e-001) (25, 8.62617120146751400000e-002) (26, -2.76823848485946660000e-001) (27, -2.37587362527847290000e-001) (28, -6.27008005976676940000e-002) (29, 1.69258952140808110000e-001) (30, 1.86065346002578740000e-001) (31, 5.52402622997760770000e-002) (32, -1.09793923795223240000e-001) (33, 2.75069653987884520000e-001) (34, -1.58161744475364690000e-001) (35, -3.20068597793579100000e-001) (36, -1.57182123512029650000e-002) (37, -4.24405261874198910000e-002) (38, -2.41944953799247740000e-001) (39, 3.08788627386093140000e-001) (40, 7.96877741813659670000e-002) (41, 5.35931400954723360000e-002) (42, -1.41473755240440370000e-001) (43, -3.04090797901153560000e-001) (44, -2.34298408031463620000e-001) (45, -1.27733588218688960000e-001) (46, 5.71957826614379880000e-002) (47, -6.64052188396453860000e-001) (7, -8.58430489897727970000e-002) (8, -7.75963393971323970000e-003) (9, 2.50491201877593990000e-001) (10, 1.46482288837432860000e-001) (11, 2.02888965606689450000e-001) (12, 1.95831522345542910000e-001) (13, 1.88251599669456480000e-001) (14, 7.97374546527862550000e-002) (15, 1.28334298729896550000e-001) (16, -5.58890216052532200000e-002) (17, -8.67285579442977910000e-002) (18, 2.13419720530509950000e-002) (19, 1.14700593054294590000e-001) (20, -1.48619502782821660000e-001) (21, -1.33586928248405460000e-001) (22, 1.37370610609650610000e-002) (23, -2.45122700929641720000e-001) (24, 4.58394587039947510000e-002) (25, -1.42116948962211610000e-001) (26, 1.21723510324954990000e-001) (27, 1.55624911189079280000e-001) (28, -1.97454784065485000000e-002) (29, -2.09170088171958920000e-001) (30, -1.58169358968734740000e-001) (31, -2.16700378805398940000e-002) (32, -6.75484612584114070000e-002) (33, -1.70238301157951350000e-001) (34, 5.02152070403099060000e-002) (35, 9.89717841148376460000e-002) (36, -4.14926111698150630000e-002) (37, -1.09229996800422670000e-001) (38, 1.24147132039070130000e-001) (39, -2.71147608757019040000e-001) (40, -1.39138281345367430000e-001) (41, -6.41104206442832950000e-002) (42, 1.06397792696952820000e-001) (43, 1.59868150949478150000e-001) (44, 2.41863340139389040000e-001) (45, 1.08395986258983610000e-001) (46, 8.68936851620674130000e-002) (47, 3.16225230693817140000e-001) (7, 7.64926150441169740000e-002) (8, -1.14935033023357390000e-001) (9, -3.00119251012802120000e-001) (10, -2.93569326400756840000e-001) (11, -2.76284307241439820000e-001) (12, -2.65317469835281370000e-001) (13, -2.01430350542068480000e-001) (14, -1.97332710027694700000e-001) (15, -1.98918312788009640000e-001) (16, -7.10591599345207210000e-002) (17, 1.37257620692253110000e-001) (18, 4.77856360375881200000e-002) (19, -5.34368716180324550000e-002) (20, 1.83269277215003970000e-001) (21, 6.37300908565521240000e-002) (22, -3.13662327826023100000e-002) (23, 2.58560627698898320000e-001) (24, -1.21547520160675050000e-001) (25, 1.88800573348999020000e-001) (26, -8.90344455838203430000e-002) (27, -2.36971214413642880000e-001) (28, -1.39872908592224120000e-001) (29, 6.79549798369407650000e-002) (30, 6.84397816658020020000e-002) (31, 1.86181381344795230000e-001) (32, -9.10970643162727360000e-002) (33, 1.94615989923477170000e-001) (34, -1.68556883931159970000e-001) (35, -1.54112875461578370000e-001) (36, 2.92576337233185770000e-003) (37, 7.67107382416725160000e-002) (38, -2.37785339355468750000e-001) (39, 3.58798503875732420000e-001) (40, 7.97559767961502080000e-002) (41, 1.03884182870388030000e-001) (42, -2.81432140618562700000e-002) (43, -3.00595700740814210000e-001) (44, -2.22738444805145260000e-001) (45, -3.32505144178867340000e-002) (46, -7.40991607308387760000e-002) (47, -4.70025390386581420000e-001) (7, 4.88199368119239810000e-002) (8, 1.06557764112949370000e-001) (9, 1.99863746762275700000e-001) (10, 2.80764520168304440000e-001) (11, 1.10237792134284970000e-001) (12, 2.24101215600967410000e-001) (13, 6.65863230824470520000e-002) (14, 1.50824561715126040000e-001) (15, 1.52333509176969530000e-002) (16, 1.16161294281482700000e-001) (17, -9.53763201832771300000e-002) (18, -9.29558351635932920000e-002) (19, 1.34719774127006530000e-001) (20, -1.88967570662498470000e-001) (21, -1.73332095146179200000e-002) (22, 9.54037457704544070000e-002) (23, -2.58863478899002080000e-001) (24, 2.02849596738815310000e-001) (25, -2.03650921583175660000e-001) (26, 2.01518014073371890000e-001) (27, 9.77124050259590150000e-002) (28, 4.76222485303878780000e-002) (29, -1.84759318828582760000e-001) (30, -6.84422925114631650000e-002) (31, -1.55599460005760190000e-001) (32, 1.67282111942768100000e-002) (33, -1.52786642313003540000e-001) (34, 2.36176028847694400000e-001) (35, 2.88255274295806880000e-001) (36, -2.69276518374681470000e-002) (37, -1.13669641315937040000e-001) (38, 1.02614969015121460000e-001) (39, -1.60632207989692690000e-001) (40, -4.42749448120594020000e-002) (41, -1.76879838109016420000e-001) (42, 9.72537100315093990000e-002) (43, 9.23596918582916260000e-002) (44, 1.21616348624229430000e-001) (45, 8.47377777099609380000e-002) (46, 4.17859181761741640000e-002) (47, 2.56257057189941410000e-001) (7, -3.80746982991695400000e-002) (8, -1.66130572557449340000e-001) (9, -2.06754252314567570000e-001) (10, -3.01268577575683590000e-001) (11, -1.82677447795867920000e-001) (12, -1.69720962643623350000e-001) (13, -5.41251972317695620000e-002) (14, -1.96029528975486760000e-001) (15, -4.46316637098789220000e-002) (16, -6.28245547413825990000e-002) (17, 2.40343548357486720000e-002) (18, 1.15644216537475590000e-001) (19, -1.26033172011375430000e-001) (20, 1.64020195603370670000e-001) (21, -4.84997685998678210000e-003) (22, -1.22875981032848360000e-001) (23, 2.03785091638565060000e-001) (24, -3.63018177449703220000e-002) (25, 2.26715922355651860000e-001) (26, -1.38894453644752500000e-001) (27, -1.20769165456295010000e-001) (28, 2.72665414959192280000e-002) (29, 9.39232707023620610000e-002) (30, 9.51578170061111450000e-002) (31, 7.07772597670555110000e-002) (32, -1.15389972925186160000e-001) (33, 1.76967412233352660000e-001) (34, -2.10177138447761540000e-001) (35, -2.33332857489585880000e-001) (36, 4.45956662297248840000e-002) (37, 5.13452067971229550000e-002) (38, -1.91220819950103760000e-001) (39, 2.98468232154846190000e-001) (40, -2.56257411092519760000e-002) (41, 2.01354175806045530000e-001) (42, -9.52952578663825990000e-002) (43, -2.93333619832992550000e-001) (44, -1.49986147880554200000e-001) (45, -1.13913148641586300000e-001) (46, -5.66485561430454250000e-002) (47, -4.34777438640594480000e-001) (7, -2.12411880493164060000e-002) (8, 3.78997288644313810000e-002) (9, 1.12378127872943880000e-001) (10, 1.74356862902641300000e-001) (11, 1.18744887411594390000e-001) (12, 5.47488704323768620000e-002) (13, 1.18303589522838590000e-001) (14, 1.73419833183288570000e-001) (15, 9.32795554399490360000e-002) (16, 5.81542849540710450000e-002) (17, 1.66026949882507320000e-002) (18, 1.92633289843797680000e-002) (19, 1.00467823445796970000e-001) (20, -4.04476635158061980000e-002) (21, 2.14207414537668230000e-002) (22, 4.64012660086154940000e-002) (23, -1.66642785072326660000e-001) (24, 1.29609689116477970000e-001) (25, -2.12603509426116940000e-001) (26, 1.05727605521678920000e-001) (27, 2.19613939523696900000e-001) (28, 1.87156703323125840000e-002) (29, -7.79299885034561160000e-002) (30, -9.86512303352355960000e-002) (31, -1.26712396740913390000e-001) (32, -1.81278940290212630000e-002) (33, -3.14799062907695770000e-002) (34, 5.60088530182838440000e-002) (35, 2.23741963505744930000e-001) (36, 3.07486765086650850000e-002) (37, 9.01973340660333630000e-003) (38, 3.47059182822704320000e-002) (39, -2.45197445154190060000e-001) (40, -1.75576023757457730000e-002) (41, -8.75430777668952940000e-002) (42, 1.85022562742233280000e-001) (43, 1.72250255942344670000e-001) (44, 1.65499731898307800000e-001) (45, 3.18460501730442050000e-002) (46, -1.02468714118003850000e-001) (47, 3.40140223503112790000e-001) (7, 4.91434447467327120000e-002) (8, -8.53037685155868530000e-002) (9, -1.66200771927833560000e-001) (10, -2.15114697813987730000e-001) (11, -1.95252358913421630000e-001) (12, -7.02585652470588680000e-002) (13, -6.11517690122127530000e-002) (14, -4.72928583621978760000e-002) (15, 7.64233246445655820000e-003) (16, -9.34821441769599910000e-002) (17, 6.35832697153091430000e-002) (18, 4.73283864557743070000e-002) (19, -8.15332680940628050000e-002) (20, 1.80310919880867000000e-001) (21, 6.09242059290409090000e-002) (22, -2.85918861627578740000e-002) (23, 7.99340531229972840000e-002) (24, -2.86222212016582490000e-002) (25, 3.32802608609199520000e-002) (26, -1.78403660655021670000e-001) (27, -2.23525062203407290000e-001) (28, 2.36048493534326550000e-002) (29, 2.01973542571067810000e-001) (30, 3.83321344852447510000e-002) (31, 6.24664798378944400000e-002) (32, 6.21189400553703310000e-002) (33, 1.56868636608123780000e-001) (34, -1.49416476488113400000e-001) (35, -8.96058902144432070000e-002) (36, 7.94506818056106570000e-002) (37, -7.47152119874954220000e-002) (38, -1.17319323122501370000e-001) (39, 2.08490222692489620000e-001) (40, -5.35038448870182040000e-002) (41, 7.95007590204477310000e-003) (42, -1.86146005988121030000e-001) (43, -2.48156383633613590000e-001) (44, -1.57875359058380130000e-001) (45, -1.98694225400686260000e-002) (46, 3.45294475555419920000e-002) (47, -3.77691388130187990000e-001) (7, 2.85685863345861430000e-002) (8, -1.25377595424652100000e-001) (9, -2.72577852010726930000e-001) (10, -3.64135712385177610000e-001) (11, -2.09123939275741580000e-001) (12, -1.40275314450263980000e-001) (13, -2.65019953250885010000e-001) (14, -8.74877795577049260000e-002) (15, -5.92373646795749660000e-002) (16, 5.17781563103199010000e-002) (17, 1.61619335412979130000e-001) (18, 8.00564289093017580000e-002) (19, -8.99321138858795170000e-002) (20, 1.02395363152027130000e-001) (21, 1.81712806224823000000e-002) (22, -1.67807281017303470000e-001) (23, 2.96067029237747190000e-001) (24, -1.16374075412750240000e-001) (25, 1.91776186227798460000e-001) (26, -2.64920175075531010000e-001) (27, -2.71448820829391480000e-001) (28, -1.31266102194786070000e-001) (29, 8.70428606867790220000e-002) (30, 2.76943147182464600000e-001) (31, 2.10046216845512390000e-001) (32, -4.64859930798411370000e-003) (33, 1.38730064034461980000e-001) (34, -2.21786260604858400000e-001) (35, -2.76884973049163820000e-001) (36, -9.67093631625175480000e-002) (37, 4.84937652945518490000e-002) (38, -1.39205738902091980000e-001) (39, 2.19258606433868410000e-001) (40, -1.47155970335006710000e-002) (41, 1.31321266293525700000e-001) (42, -5.69990500807762150000e-002) (43, -3.19228768348693850000e-001) (44, -2.83811092376708980000e-001) (45, -1.63453236222267150000e-001) (46, -4.32230345904827120000e-003) (47, -7.13546872138977050000e-001) (7, 3.35880108177661900000e-002) (8, 7.17470003291964530000e-003) (9, -1.86281874775886540000e-001) (10, -1.57336056232452390000e-001) (11, -2.46969684958457950000e-001) (12, -2.26217538118362430000e-001) (13, -8.80896598100662230000e-002) (14, -1.52002319693565370000e-001) (15, -2.45752576738595960000e-002) (16, -1.11937616020441060000e-003) (17, 4.59760054945945740000e-002) (18, 9.48543921113014220000e-002) (19, -9.02208406478166580000e-003) (20, 1.74509614706039430000e-001) (21, 4.70767430961132050000e-002) (22, -1.22012816369533540000e-001) (23, 1.21649257838726040000e-001) (24, -1.25439286231994630000e-001) (25, 2.07445714622735980000e-002) (26, -1.46149963140487670000e-001) (27, -2.02940419316291810000e-001) (28, -7.35373273491859440000e-002) (29, 2.05345079302787780000e-001) (30, 1.03777974843978880000e-001) (31, 9.53765809535980220000e-002) (32, -2.58748512715101240000e-002) (33, 2.10869535803794860000e-001) (34, -1.25173717737197880000e-001) (35, -1.15127831697463990000e-001) (36, -6.25910609960556030000e-002) (37, -4.16381321847438810000e-002) (38, -2.12219566106796260000e-001) (39, 2.13946729898452760000e-001) (40, -1.44970593973994260000e-002) (41, 1.14841356873512270000e-001) (42, -1.05663746595382690000e-001) (43, -1.92421197891235350000e-001) (44, -1.71138241887092590000e-001) (45, -1.16139233112335210000e-001) (46, 5.03104291856288910000e-002) (47, -2.43288606405258180000e-001) (7, -7.63347893953323360000e-002) (8, 1.96053773164749150000e-001) (9, 1.33424282073974610000e-001) (10, 2.71616935729980470000e-001) (11, 2.68982291221618650000e-001) (12, 2.10513859987258910000e-001) (13, 1.80077135562896730000e-001) (14, 2.05928236246109010000e-001) (15, 5.96953332424163820000e-002) (16, -6.33907318115234380000e-002) (17, -6.56130835413932800000e-002) (18, -1.14594176411628720000e-001) (19, 1.78337786346673970000e-002) (20, -1.07387185096740720000e-001) (21, -1.64074540138244630000e-001) (22, 6.56867772340774540000e-002) (23, -2.82255023717880250000e-001) (24, 5.83843775093555450000e-002) (25, -1.16988152265548710000e-001) (26, 9.59155932068824770000e-002) (27, 1.70592918992042540000e-001) (28, 1.55535951256752010000e-001) (29, -7.92371034622192380000e-002) (30, -1.17000587284564970000e-001) (31, -2.03321069478988650000e-001) (32, 7.52578750252723690000e-002) (33, -6.77469149231910710000e-002) (34, 2.56236314773559570000e-001) (35, 1.49528875946998600000e-001) (36, -1.98490992188453670000e-002) (37, 7.35588967800140380000e-002) (38, 1.42883554100990300000e-001) (39, -2.88441717624664310000e-001) (40, -1.35995551943778990000e-001) (41, -1.42173856496810910000e-001) (42, 1.33166108280420300000e-002) (43, 1.61515578627586360000e-001) (44, 1.64360657334327700000e-001) (45, 8.92035756260156630000e-003) (46, 4.60769087076187130000e-002) (47, 4.39666569232940670000e-001) (7, -4.86752316355705260000e-002) (8, 9.94368805550038810000e-004) (9, -1.26211658120155330000e-001) (10, -1.06807067990303040000e-001) (11, -2.02727407217025760000e-001) (12, -1.42488330602645870000e-001) (13, -2.02522397041320800000e-001) (14, -1.70910418033599850000e-001) (15, -7.43176564574241640000e-002) (16, 6.39658346772193910000e-002) (17, 2.72894967347383500000e-002) (18, 7.06489980220794680000e-002) (19, -7.99834132194519040000e-002) (20, 1.39894112944602970000e-001) (21, 9.39715877175331120000e-002) (22, -1.30937490612268450000e-002) (23, 2.24009424448013310000e-001) (24, -1.37201532721519470000e-001) (25, 7.68209025263786320000e-002) (26, -4.40049059689044950000e-002) (27, -5.05877844989299770000e-002) (28, -1.38182997703552250000e-001) (29, 1.49923920631408690000e-001) (30, 2.20593214035034180000e-001) (31, 1.76344409584999080000e-001) (32, -3.11540272086858750000e-002) (33, 6.74362927675247190000e-002) (34, -1.89111933112144470000e-001) (35, -2.53717511892318730000e-001) (36, 1.13656464964151380000e-002) (37, -2.72985897026956080000e-003) (38, -1.21626898646354680000e-001) (39, 2.76443123817443850000e-001) (40, 6.03018188849091530000e-003) (41, 9.86867249011993410000e-002) (42, -1.67988151311874390000e-001) (43, -1.69567227363586430000e-001) (44, -1.88263505697250370000e-001) (45, -1.57093927264213560000e-001) (46, -1.24802747741341590000e-002) (47, -4.09808963537216190000e-001) (7, -1.56128667294979100000e-002) (8, 1.18390753865242000000e-001) (9, 2.31709808111190800000e-001) (10, 1.73252597451210020000e-001) (11, 1.11986413598060610000e-001) (12, 1.91565930843353270000e-001) (13, 1.00056715309619900000e-001) (14, 5.04011027514934540000e-002) (15, 9.33609679341316220000e-002) (16, 4.42924425005912780000e-002) (17, -9.82327833771705630000e-002) (18, -1.27814412117004390000e-001) (19, 1.53543576598167420000e-001) (20, -8.76703709363937380000e-002) (21, -9.86099690198898320000e-002) (22, 1.45504906773567200000e-001) (23, -2.45972976088523860000e-001) (24, 9.31040570139884950000e-002) (25, -1.56422734260559080000e-001) (26, 6.03156834840774540000e-002) (27, 6.45824670791625980000e-002) (28, 1.44370555877685550000e-001) (29, -1.98767349123954770000e-001) (30, -1.10875345766544340000e-001) (31, -1.50405868887901310000e-001) (32, -7.40664973855018620000e-002) (33, -2.34062254428863530000e-001) (34, 7.41951018571853640000e-002) (35, 2.75350272655487060000e-001) (36, 1.44491773098707200000e-002) (37, -3.49974422715604310000e-003) (38, 5.38082718849182130000e-002) (39, -2.06811785697937010000e-001) (40, -8.59560295939445500000e-002) (41, -2.60206162929534910000e-002) (42, 1.13483585417270660000e-001) (43, 2.44403630495071410000e-001) (44, 1.41603305935859680000e-001) (45, 1.45035388413816690000e-004) (46, 6.63008764386177060000e-002) (47, 3.19635599851608280000e-001) (7, -7.44891017675399780000e-002) (8, -1.39111608266830440000e-001) (9, -1.74211606383323670000e-001) (10, -2.01352670788764950000e-001) (11, -7.12591260671615600000e-002) (12, -1.99293777346611020000e-001) (13, -2.21647936850786210000e-002) (14, -1.15144424140453340000e-001) (15, 1.58387701958417890000e-002) (16, -1.02667026221752170000e-001) (17, 9.31067094206810000000e-002) (18, 7.57933259010314940000e-002) (19, -1.27941250801086430000e-001) (20, 1.32860451936721800000e-001) (21, -4.26856651902198790000e-002) (22, -1.23759590089321140000e-001) (23, 2.00682505965232850000e-001) (24, -9.76962968707084660000e-002) (25, 8.63329991698265080000e-002) (26, -1.78355529904365540000e-001) (27, -9.04992409050464630000e-003) (28, -6.40587434172630310000e-002) (29, 4.70503903925418850000e-002) (30, 1.64822772145271300000e-001) (31, 6.98998868465423580000e-002) (32, 8.17880406975746150000e-002) (33, 1.68482869863510130000e-001) (34, -2.06368029117584230000e-001) (35, -1.48808032274246220000e-001) (36, 9.18499901890754700000e-002) (37, 6.35091438889503480000e-002) (38, -1.97183400392532350000e-001) (39, 1.59863352775573730000e-001) (40, -2.59563215076923370000e-002) (41, 4.48545068502426150000e-002) (42, -5.88019900023937230000e-002) (43, -3.76353152096271510000e-002) (44, -1.08929373323917390000e-001) (45, 5.11050876230001450000e-003) (46, 5.41954338550567630000e-002) (47, -1.78831398487091060000e-001) (7, 8.64774510264396670000e-002) (8, 2.09504827857017520000e-001) (9, 2.93209820985794070000e-001) (10, 3.34128290414810180000e-001) (11, 2.42852345108985900000e-001) (12, 2.74555951356887820000e-001) (13, 2.24970474839210510000e-001) (14, 1.25073879957199100000e-001) (15, 2.03846573829650880000e-001) (16, 1.87117531895637510000e-002) (17, -1.14099778234958650000e-001) (18, -1.23074829578399660000e-001) (19, 7.28717297315597530000e-002) (20, -2.56068736314773560000e-001) (21, -8.85353684425354000000e-002) (22, 1.90179616212844850000e-001) (23, -1.47396728396415710000e-001) (24, 2.42473483085632320000e-001) (25, -1.18222557008266450000e-001) (26, 9.63976532220840450000e-002) (27, 9.49867814779281620000e-002) (28, 1.15460246801376340000e-001) (29, -1.07058532536029820000e-001) (30, -1.49517253041267400000e-001) (31, -7.86157697439193730000e-002) (32, 5.67299537360668180000e-002) (33, -1.49945005774497990000e-001) (34, 2.80861347913742070000e-001) (35, 2.86339282989501950000e-001) (36, 6.18286021053791050000e-002) (37, 6.01448491215705870000e-002) (38, 1.65433868765830990000e-001) (39, -3.35576891899108890000e-001) (40, -4.33095954358577730000e-002) (41, -1.63847789168357850000e-001) (42, 9.47585180401802060000e-002) (43, 2.86917656660079960000e-001) (44, 2.14455574750900270000e-001) (45, 1.50344707071781160000e-002) (46, -5.05152121186256410000e-002) (47, 5.99268853664398190000e-001) (7, 6.49420991539955140000e-002) (8, -9.98983904719352720000e-002) (9, -1.21880747377872470000e-001) (10, -1.65565282106399540000e-001) (11, -1.89924716949462890000e-001) (12, -1.96727722883224490000e-001) (13, -2.02974751591682430000e-001) (14, -1.90574973821640010000e-001) (15, -1.65108758956193920000e-002) (16, -3.26538458466529850000e-002) (17, 5.62506616115570070000e-002) (18, 9.44664701819419860000e-002) (19, -4.43139709532260890000e-002) (20, 1.79119646549224850000e-001) (21, 1.12034447491168980000e-001) (22, 4.09516924992203710000e-003) (23, 1.30835622549057010000e-001) (24, -4.21025557443499570000e-003) (25, 6.04332685470581050000e-002) (26, -4.50236313045024870000e-002) (27, -1.47586211562156680000e-001) (28, -9.54660847783088680000e-002) (29, 1.51216551661491390000e-001) (30, 1.39691591262817380000e-001) (31, 1.19880564510822300000e-001) (32, 3.74735519289970400000e-002) (33, 5.33278696238994600000e-002) (34, -1.30214855074882510000e-001) (35, -1.19940660893917080000e-001) (36, -3.23830265551805500000e-003) (37, 6.84594959020614620000e-002) (38, -1.51569262146949770000e-001) (39, 1.24686576426029210000e-001) (40, 2.39362008869647980000e-002) (41, 8.87628272175788880000e-002) (42, -9.01581719517707820000e-002) (43, -1.71655818819999690000e-001) (44, -8.57436805963516240000e-002) (45, -7.31260702013969420000e-002) (46, 4.84551042318344120000e-002) (47, -3.07484626770019530000e-001) (7, 4.40304987132549290000e-002) (8, 9.82176810503005980000e-002) (9, 3.05182039737701420000e-001) (10, 2.07719355821609500000e-001) (11, 2.55939751863479610000e-001) (12, 1.02796517312526700000e-001) (13, 1.00851140916347500000e-001) (14, 2.37490102648735050000e-001) (15, 1.82067692279815670000e-001) (16, -3.43387983739376070000e-002) (17, -5.89469484984874730000e-002) (18, -2.28960104286670680000e-002) (19, 5.81400096416473390000e-002) (20, -1.17794640362262730000e-001) (21, -7.61407464742660520000e-002) (22, 1.87307268381118770000e-001) (23, -1.55821189284324650000e-001) (24, 2.29334011673927310000e-001) (25, -2.15807944536209110000e-001) (26, 1.00131526589393620000e-001) (27, 2.56965190172195430000e-001) (28, -7.48026138171553610000e-003) (29, -1.31489753723144530000e-001) (30, -1.27590060234069820000e-001) (31, -1.81762009859085080000e-001) (32, 4.24824580550193790000e-002) (33, -1.57800346612930300000e-001) (34, 1.68163672089576720000e-001) (35, 2.65100508928298950000e-001) (36, -2.75988951325416560000e-002) (37, -3.67009192705154420000e-002) (38, 1.47057577967643740000e-001) (39, -3.17339897155761720000e-001) (40, 1.14831971004605290000e-002) (41, -9.61342677474021910000e-002) (42, 1.52887487784028050000e-002) (43, 2.78987377882003780000e-001) (44, 2.24011167883872990000e-001) (45, 1.94670129567384720000e-002) (46, 8.09283927083015440000e-003) (47, 4.39335793256759640000e-001) (7, -7.52030909061431880000e-002) (8, -7.89536908268928530000e-002) (9, -1.94044813513755800000e-001) (10, -2.82166570425033570000e-001) (11, -2.52165734767913820000e-001) (12, -2.94050604104995730000e-001) (13, -1.96710839867591860000e-001) (14, -1.62648677825927730000e-001) (15, -5.22606223821640010000e-002) (16, -1.33426329120993610000e-002) (17, 1.49378165602684020000e-001) (18, 1.49690359830856320000e-001) (19, -1.30110172904096540000e-004) (20, 1.53428852558135990000e-001) (21, 1.53354063630104060000e-001) (22, -1.33813217282295230000e-001) (23, 3.03119212388992310000e-001) (24, -8.38070288300514220000e-002) (25, 2.37144231796264650000e-001) (26, -1.62346899509429930000e-001) (27, -1.76534399390220640000e-001) (28, -1.66770201176404950000e-002) (29, 1.05879642069339750000e-001) (30, 2.52617359161376950000e-001) (31, 1.92113131284713750000e-001) (32, -1.02711342275142670000e-001) (33, 2.15138956904411320000e-001) (34, -2.35396564006805420000e-001) (35, -3.59865784645080570000e-001) (36, -8.85064247995615010000e-003) (37, 5.68776167929172520000e-002) (38, -1.56239420175552370000e-001) (39, 2.84903198480606080000e-001) (40, 1.17075227200984950000e-001) (41, 1.33273139595985410000e-001) (42, -7.01908171176910400000e-002) (43, -2.39523068070411680000e-001) (44, -3.14351499080657960000e-001) (45, -5.78944524750113490000e-003) (46, 8.17949324846267700000e-003) (47, -6.63933634757995610000e-001) (7, -8.16776603460311890000e-002) (8, 4.36206012964248660000e-002) (9, 2.19396814703941350000e-001) (10, 1.24773643910884860000e-001) (11, 2.25110858678817750000e-001) (12, 1.65539428591728210000e-001) (13, 2.00280487537384030000e-001) (14, 1.42087027430534360000e-001) (15, 1.70573487877845760000e-001) (16, 5.97042702138423920000e-002) (17, -2.75214639259502290000e-004) (18, -2.67023481428623200000e-002) (19, 1.13827966153621670000e-001) (20, -1.36021330952644350000e-001) (21, -1.20355561375617980000e-001) (22, 1.48522049188613890000e-001) (23, -1.75716817378997800000e-001) (24, 2.13635787367820740000e-001) (25, -1.53916627168655400000e-001) (26, 5.27365170419216160000e-002) (27, 2.15178415179252620000e-001) (28, 5.87853528559207920000e-002) (29, -9.80410203337669370000e-002) (30, -1.56278327107429500000e-001) (31, -1.79880797863006590000e-001) (32, 1.15455783903598790000e-001) (33, -1.76766321063041690000e-001) (34, 5.96652366220951080000e-002) (35, 2.76851356029510500000e-001) (36, 6.55575767159461980000e-002) (37, 3.63753549754619600000e-002) (38, 1.21096760034561160000e-001) (39, -2.63427346944808960000e-001) (40, -6.88456296920776370000e-002) (41, -4.07830849289894100000e-002) (42, 1.85405716300010680000e-001) (43, 9.39375311136245730000e-002) (44, 2.33106374740600590000e-001) (45, -1.17839938029646870000e-002) (46, -3.36959511041641240000e-002) (47, 2.68612384796142580000e-001) (7, -1.09113249927759170000e-002) (8, 9.85818728804588320000e-002) (9, 1.06763318181037900000e-001) (10, 3.45392264425754550000e-002) (11, 6.12839236855506900000e-002) (12, 9.11191403865814210000e-002) (13, 1.01033814251422880000e-001) (14, 8.83318260312080380000e-002) (15, 4.06127348542213440000e-002) (16, -8.04101005196571350000e-002) (17, 5.72790130972862240000e-002) (18, -1.73134403303265570000e-003) (19, 7.08994567394256590000e-002) (20, -1.16715102922171350000e-003) (21, 4.72200810909271240000e-002) (22, 5.91482780873775480000e-002) (23, -1.43366590142250060000e-001) (24, 4.24094796180725100000e-002) (25, -1.51018261909484860000e-001) (26, 1.13935813307762150000e-001) (27, 1.62655696272850040000e-001) (28, 5.47650381922721860000e-002) (29, -2.88797821849584580000e-002) (30, -1.35497972369194030000e-001) (31, -4.13815025240182880000e-003) (32, 1.11887240782380100000e-002) (33, -1.04152904823422430000e-002) (34, 6.94020316004753110000e-002) (35, 1.24960720539093020000e-001) (36, -2.04000342637300490000e-002) (37, -1.05590306222438810000e-001) (38, 9.55062285065650940000e-002) (39, -1.65082365274429320000e-001) (40, -3.28875444829463960000e-002) (41, -1.43774881958961490000e-001) (42, 2.31127087026834490000e-002) (43, 1.66639029979705810000e-001) (44, 1.13111317157745360000e-001) (45, 9.78290475904941560000e-003) (46, -5.90319745242595670000e-003) (47, 2.19276189804077150000e-001) (7, -5.65670505166053770000e-002) (8, -6.14512525498867030000e-002) (9, -1.58203169703483580000e-001) (10, -2.61941701173782350000e-001) (11, -2.44571551680564880000e-001) (12, -1.65498599410057070000e-001) (13, -1.24911680817604060000e-001) (14, -1.73847153782844540000e-001) (15, -9.58865955471992490000e-002) (16, 6.81455358862876890000e-002) (17, -3.18047776818275450000e-002) (18, 3.51382791996002200000e-002) (19, -4.33235941454768180000e-003) (20, 7.86371007561683650000e-002) (21, 9.05122794210910800000e-003) (22, -8.94813761115074160000e-002) (23, 2.78656870126724240000e-001) (24, -1.61449223756790160000e-001) (25, 1.43307074904441830000e-001) (26, -1.32085219025611880000e-001) (27, -2.16526463627815250000e-001) (28, -1.85594800859689710000e-002) (29, 2.07773163914680480000e-001) (30, 2.20610678195953370000e-001) (31, 1.15699402987957000000e-001) (32, -7.77537701651453970000e-003) (33, 1.46456569433212280000e-001) (34, -2.88759469985961910000e-001) (35, -2.56661057472229000000e-001) (36, -7.49200060963630680000e-002) (37, 5.38279190659523010000e-002) (38, -1.70717775821685790000e-001) (39, 3.44505637884140010000e-001) (40, 3.15746590495109560000e-002) (41, 2.00902283191680910000e-001) (42, -1.51660203933715820000e-001) (43, -1.97782397270202640000e-001) (44, -2.47421294450759890000e-001) (45, -8.24116244912147520000e-002) (46, 5.61230294406414030000e-002) (47, -5.53803205490112300000e-001) (7, 1.98538955301046370000e-002) (8, -1.34106561541557310000e-001) (9, -3.18368852138519290000e-001) (10, -2.13359236717224120000e-001) (11, -2.95575290918350220000e-001) (12, -1.88464716076850890000e-001) (13, -1.44060462713241580000e-001) (14, -2.59470403194427490000e-001) (15, -2.77649275958538060000e-002) (16, 1.62714663892984390000e-002) (17, 4.31101443246006970000e-003) (18, -1.40417339280247690000e-002) (19, -1.58378779888153080000e-002) (20, 2.26459905505180360000e-001) (21, -4.06359508633613590000e-003) (22, -1.46856799721717830000e-001) (23, 2.92473256587982180000e-001) (24, -5.82118928432464600000e-002) (25, 7.93078839778900150000e-002) (26, -2.32161879539489750000e-001) (27, -1.09274342656135560000e-001) (28, -8.44379588961601260000e-002) (29, 1.24684758484363560000e-001) (30, 2.14607030153274540000e-001) (31, 1.16798199713230130000e-001) (32, -1.05744913220405580000e-001) (33, 2.53315508365631100000e-001) (34, -1.39382213354110720000e-001) (35, -3.53616356849670410000e-001) (36, -3.61484475433826450000e-002) (37, -5.38525879383087160000e-002) (38, -1.67852640151977540000e-001) (39, 2.85029560327529910000e-001) (40, 1.18488110601902010000e-001) (41, 1.05507157742977140000e-001) (42, -7.99140781164169310000e-002) (43, -2.74382859468460080000e-001) (44, -1.78064987063407900000e-001) (45, -5.57743534445762630000e-002) (46, 8.26860144734382630000e-002) (47, -5.16975045204162600000e-001) (7, -4.62182648479938510000e-002) (8, -8.14677923917770390000e-002) (9, 4.50646020472049710000e-002) (10, -1.02825671434402470000e-001) (11, -1.02671138942241670000e-001) (12, 5.08015863597393040000e-002) (13, -5.73609536513686180000e-003) (14, -1.29485139623284340000e-002) (15, -9.66401211917400360000e-003) (16, -5.15479966998100280000e-002) (17, -1.07547231018543240000e-002) (18, -7.15304538607597350000e-002) (19, -2.71912068128585820000e-002) (20, 8.39678943157196040000e-002) (21, 2.25864630192518230000e-002) (22, -1.72690525650978090000e-002) (23, -1.29484441131353380000e-002) (24, 1.53297679498791690000e-002) (25, -5.05372211337089540000e-002) (26, 8.18420574069023130000e-002) (27, -5.96462115645408630000e-002) (28, -1.02660797536373140000e-001) (29, 1.16773210465908050000e-002) (30, 3.27753983438014980000e-002) (31, 8.89732092618942260000e-002) (32, 4.74291667342185970000e-003) (33, 5.21030351519584660000e-002) (34, 6.96725323796272280000e-002) (35, 2.36341468989849090000e-002) (36, 6.07935674488544460000e-002) (37, -1.31535541731864210000e-003) (38, 3.81863489747047420000e-002) (39, 7.82610550522804260000e-002) (40, 1.17615005001425740000e-002) (41, 4.37964685261249540000e-002) (42, -3.76172363758087160000e-002) (43, 1.99349783360958100000e-002) (44, -5.62403872609138490000e-002) (45, -1.48772886022925380000e-002) (46, 8.54993537068367000000e-002) (47, 3.57436574995517730000e-002) (7, 1.83003637939691540000e-002) (8, -1.10753746703267100000e-002) (9, -2.19278484582901000000e-001) (10, -1.97409957647323610000e-001) (11, -2.54174202680587770000e-001) (12, -9.06220450997352600000e-002) (13, -8.70310440659523010000e-002) (14, -1.71347349882125850000e-001) (15, -1.61172747611999510000e-001) (16, -1.97015423327684400000e-002) (17, 1.18761971592903140000e-001) (18, 1.03353045880794530000e-001) (19, -8.09622853994369510000e-002) (20, 1.36490821838378910000e-001) (21, 1.55167251825332640000e-001) (22, -1.70561969280242920000e-001) (23, 1.74740865826606750000e-001) (24, -1.33559674024581910000e-001) (25, 4.55175489187240600000e-002) (26, -5.45988045632839200000e-002) (27, -2.12971672415733340000e-001) (28, -6.43698647618293760000e-002) (29, 1.18545949459075930000e-001) (30, 1.83756470680236820000e-001) (31, 9.51074659824371340000e-002) (32, 1.70743409544229510000e-002) (33, 2.20108985900878910000e-001) (34, -1.93760901689529420000e-001) (35, -2.43380054831504820000e-001) (36, -5.42022474110126500000e-002) (37, -1.50367794558405880000e-002) (38, -2.03729793429374690000e-001) (39, 1.50899365544319150000e-001) (40, -2.41859145462512970000e-002) (41, 1.27396702766418460000e-001) (42, -1.32971405982971190000e-001) (43, -2.13454216718673710000e-001) (44, -2.32032299041748050000e-001) (45, -1.72014474868774410000e-001) (46, 1.04116000235080720000e-001) (47, -2.23037511110305790000e-001) (7, -7.51348063349723820000e-002) (8, 9.62619930505752560000e-002) (9, 1.49432465434074400000e-001) (10, 2.78787761926651000000e-001) (11, 1.58909037709236150000e-001) (12, 1.99351474642753600000e-001) (13, 1.20935380458831790000e-001) (14, 1.89187705516815190000e-001) (15, 6.49485588073730470000e-002) (16, 4.58574183285236360000e-002) (17, -1.82300191372632980000e-002) (18, -1.18046678602695470000e-001) (19, 1.07118949294090270000e-001) (20, -2.15444296598434450000e-001) (21, -1.42884314060211180000e-001) (22, 1.88854653388261800000e-002) (23, -1.40310600399971010000e-001) (24, 1.10999822616577150000e-001) (25, -1.48416042327880860000e-001) (26, 2.11730048060417180000e-001) (27, 1.13976418972015380000e-001) (28, 9.45596769452095030000e-002) (29, -1.97571367025375370000e-001) (30, -1.11028209328651430000e-001) (31, -6.05725981295108800000e-002) (32, -5.90396039187908170000e-002) (33, -2.23066091537475590000e-001) (34, 2.10856139659881590000e-001) (35, 2.69604682922363280000e-001) (36, -1.86169296503067020000e-002) (37, -3.94386835396289830000e-002) (38, 2.06229478120803830000e-001) (39, -2.25852534174919130000e-001) (40, -1.21792025864124300000e-001) (41, -7.23599269986152650000e-002) (42, 7.52571076154708860000e-002) (43, 1.12475603818893430000e-001) (44, 1.92181676626205440000e-001) (45, 7.98893719911575320000e-002) (46, -3.55718620121479030000e-002) (47, 4.38393056392669680000e-001) (7, -5.59973381459712980000e-002) (8, -5.24298883974552150000e-002) (9, -2.02336490154266360000e-001) (10, -2.70844101905822750000e-001) (11, -1.68875604867935180000e-001) (12, -1.80642992258071900000e-001) (13, -1.73405095934867860000e-001) (14, -1.47184208035469060000e-001) (15, -1.21823094785213470000e-001) (16, -1.24129608273506160000e-001) (17, -2.57889050990343090000e-002) (18, 7.55273401737213130000e-002) (19, -4.70930226147174840000e-002) (20, 1.14313952624797820000e-001) (21, 8.31893272697925570000e-003) (22, -2.05794543027877810000e-001) (23, 2.43028014898300170000e-001) (24, -2.18045994639396670000e-001) (25, 2.43122309446334840000e-001) (26, -2.46117189526557920000e-001) (27, -2.27596595883369450000e-001) (28, -1.50663480162620540000e-001) (29, 1.32763981819152830000e-001) (30, 2.50554084777832030000e-001) (31, 8.63271430134773250000e-002) (32, 4.29502949118614200000e-002) (33, 1.93924903869628910000e-001) (34, -2.88088947534561160000e-001) (35, -3.39198589324951170000e-001) (36, 1.21641075238585470000e-002) (37, 6.66616484522819520000e-002) (38, -1.53226569294929500000e-001) (39, 3.89488250017166140000e-001) (40, 1.09120714478194710000e-003) (41, 8.85308608412742610000e-002) (42, -6.92715048789978030000e-002) (43, -2.83851325511932370000e-001) (44, -1.93645358085632320000e-001) (45, -3.03804036229848860000e-002) (46, -6.32323548197746280000e-002) (47, -6.67221546173095700000e-001) (7, -1.14806212484836580000e-001) (8, 3.26751731336116790000e-002) (9, 3.39761793613433840000e-001) (10, 1.83905795216560360000e-001) (11, 2.95717865228652950000e-001) (12, 2.51336425542831420000e-001) (13, 1.86131298542022710000e-001) (14, 1.16840451955795290000e-001) (15, 2.05354467034339900000e-001) (16, 9.39082875847816470000e-002) (17, -7.27704167366027830000e-002) (18, -1.71193510293960570000e-001) (19, 3.44063714146614070000e-002) (20, -2.49459803104400630000e-001) (21, -1.49479255080223080000e-001) (22, 1.21039330959320070000e-001) (23, -1.77134856581687930000e-001) (24, 1.29558742046356200000e-001) (25, -1.50627702474594120000e-001) (26, 1.69611781835556030000e-001) (27, 2.30962395668029790000e-001) (28, -1.59887839108705520000e-002) (29, -1.66129902005195620000e-001) (30, -2.09001794457435610000e-001) (31, -1.46028190851211550000e-001) (32, -1.66237726807594300000e-002) (33, -1.89752057194709780000e-001) (34, 2.88207828998565670000e-001) (35, 2.69812494516372680000e-001) (36, -1.97878549806773660000e-003) (37, 2.30103787034749980000e-002) (38, 1.51609748601913450000e-001) (39, -3.06839287281036380000e-001) (40, -1.54105247929692270000e-002) (41, -1.53925389051437380000e-001) (42, 1.93879544734954830000e-001) (43, 2.57401734590530400000e-001) (44, 3.12986522912979130000e-001) (45, 6.91457167267799380000e-002) (46, 3.66016253829002380000e-002) (47, 7.37149715423583980000e-001) (7, -6.66980221867561340000e-002) (8, 1.93041414022445680000e-001) (9, 3.10515403747558590000e-001) (10, 2.64485895633697510000e-001) (11, 2.97096401453018190000e-001) (12, 2.92392402887344360000e-001) (13, 2.21480816602706910000e-001) (14, 2.28854104876518250000e-001) (15, 1.26629978418350220000e-001) (16, 7.63258114457130430000e-002) (17, 2.59294193238019940000e-002) (18, -5.77046386897563930000e-002) (19, 1.53173863887786870000e-001) (20, -2.46225923299789430000e-001) (21, -1.45130068063735960000e-001) (22, 3.86931002140045170000e-002) (23, -2.08061859011650090000e-001) (24, 1.45817562937736510000e-001) (25, -1.53236120939254760000e-001) (26, 9.28175076842308040000e-002) (27, 1.65316700935363770000e-001) (28, -1.19226733222603800000e-002) (29, -2.20046937465667720000e-001) (30, -1.14759147167205810000e-001) (31, -8.71047303080558780000e-002) (32, 9.41712483763694760000e-002) (33, -2.06367939710617070000e-001) (34, 2.61054813861846920000e-001) (35, 3.62193465232849120000e-001) (36, 2.73018493317067620000e-003) (37, -1.15960516035556790000e-001) (38, 1.21191859245300290000e-001) (39, -3.28706651926040650000e-001) (40, -1.14301830530166630000e-001) (41, -8.31812992691993710000e-002) (42, 1.57728984951972960000e-001) (43, 2.71743267774581910000e-001) (44, 2.86188006401062010000e-001) (45, 1.34863927960395810000e-001) (46, -6.73314630985260010000e-002) (47, 5.16988456249237060000e-001) (7, -1.59920565783977510000e-002) (8, -2.15106666088104250000e-001) (9, -2.67600715160369870000e-001) (10, -2.87609606981277470000e-001) (11, -2.94722080230712890000e-001) (12, -2.32657238841056820000e-001) (13, -2.34096795320510860000e-001) (14, -1.43907472491264340000e-001) (15, -1.18706598877906800000e-001) (16, 2.27559506893157960000e-002) (17, 3.65089066326618190000e-002) (18, 2.39564552903175350000e-002) (19, -5.94203025102615360000e-002) (20, 2.07875356078147890000e-001) (21, 6.17392845451831820000e-002) (22, -9.09350290894508360000e-002) (23, 2.98026442527771000000e-001) (24, -1.78113490343093870000e-001) (25, 2.06133857369422910000e-001) (26, -1.92123085260391240000e-001) (27, -2.48522773385047910000e-001) (28, -1.30591869354248050000e-001) (29, 2.00057372450828550000e-001) (30, 1.84522345662117000000e-001) (31, 1.96020454168319700000e-001) (32, -1.06884837150573730000e-001) (33, 2.53893345594406130000e-001) (34, -1.30477443337440490000e-001) (35, -2.43812695145606990000e-001) (36, 1.95430088788270950000e-002) (37, 2.72327736020088200000e-002) (38, -2.05976307392120360000e-001) (39, 3.10194611549377440000e-001) (40, 4.62881624698638920000e-002) (41, 4.83040958642959590000e-002) (42, -1.78099036216735840000e-001) (43, -2.15585187077522280000e-001) (44, -2.86723017692565920000e-001) (45, -1.70406848192214970000e-001) (46, -6.49691326543688770000e-003) (47, -7.59336352348327640000e-001) (48, 1.52376985549926760000e+000) (49, -1.13576853275299070000e+000) (50, 1.27250540256500240000e+000) (51, 9.38471674919128420000e-001) (52, 6.13561511039733890000e-001) (53, -5.36016285419464110000e-001) (54, -1.03975713253021240000e+000) (55, -1.45684576034545900000e+000) (56, 1.12491643428802490000e+000) (57, 3.42712134122848510000e-001) (58, 9.87370610237121580000e-001) (59, -1.26612126827239990000e+000) (60, -1.22740364074707030000e+000) (61, 6.54715716838836670000e-001) (62, -1.03383278846740720000e+000) (63, 7.77492821216583250000e-001) (64, -8.14516127109527590000e-001) (65, 5.29567718505859380000e-001) (66, -5.10929346084594730000e-001) (67, -1.21965777873992920000e+000) (68, -6.03513658046722410000e-001) (69, 7.53939986228942870000e-001) (70, -6.54580175876617430000e-001) (71, 7.00451850891113280000e-001) (72, -4.32823866605758670000e-001) (73, 1.11223673820495610000e+000) (74, -4.85684126615524290000e-001) (75, 9.89212095737457280000e-001) (76, -1.26831328868865970000e+000) (77, 6.93918287754058840000e-001) (78, 3.09561789035797120000e-001) (79, -9.02844905853271480000e-001) (80, -1.07331228256225590000e+000) (81, -9.16473269462585450000e-002) (82, -7.67953276634216310000e-001) (83, 8.28180313110351560000e-001) (84, -1.21680533885955810000e+000) (85, 1.27385544776916500000e+000) (86, 1.10478103160858150000e+000) (87, -1.44032764434814450000e+000) (88, 3.38503479957580570000e+000) (48, 1.53279519081115720000e+000) (49, -1.09398627281188960000e+000) (50, 1.20991504192352290000e+000) (51, 1.00891947746276860000e+000) (52, 6.90868794918060300000e-001) (53, -6.21804773807525630000e-001) (54, -9.07214045524597170000e-001) (55, -1.36386561393737790000e+000) (56, 1.14004540443420410000e+000) (57, 4.11336630582809450000e-001) (58, 8.48475456237792970000e-001) (59, -1.26454985141754150000e+000) (60, -1.24253606796264650000e+000) (61, 6.25617980957031250000e-001) (62, -1.01676809787750240000e+000) (63, 7.59459376335144040000e-001) (64, -8.94541263580322270000e-001) (65, 4.66652929782867430000e-001) (66, -5.87195634841918950000e-001) (67, -1.27484047412872310000e+000) (68, -6.32028818130493160000e-001) (69, 8.00883531570434570000e-001) (70, -7.69312500953674320000e-001) (71, 6.87361061573028560000e-001) (72, -4.84844535589218140000e-001) (73, 1.21503615379333500000e+000) (74, -5.96640169620513920000e-001) (75, 8.76978218555450440000e-001) (76, -1.33527970314025880000e+000) (77, 6.41366004943847660000e-001) (78, 3.00179511308670040000e-001) (79, -1.07067322731018070000e+000) (80, -1.07161605358123780000e+000) (81, 5.32390326261520390000e-002) (82, -6.23059391975402830000e-001) (83, 7.89521098136901860000e-001) (84, -1.14249157905578610000e+000) (85, 1.34721815586090090000e+000) (86, 1.28561091423034670000e+000) (87, -1.45415663719177250000e+000) (88, 3.37938189506530760000e+000) (48, 1.54008030891418460000e+000) (49, -1.03698146343231200000e+000) (50, 1.22823071479797360000e+000) (51, 8.57065975666046140000e-001) (52, 6.97750449180603030000e-001) (53, -5.72733759880065920000e-001) (54, -1.02820718288421630000e+000) (55, -1.48298954963684080000e+000) (56, 1.10129523277282710000e+000) (57, 4.32101041078567500000e-001) (58, 9.59861755371093750000e-001) (59, -1.25892806053161620000e+000) (60, -1.27492415904998780000e+000) (61, 6.74730062484741210000e-001) (62, -1.10089290142059330000e+000) (63, 6.13346815109252930000e-001) (64, -8.30797433853149410000e-001) (65, 5.86498260498046880000e-001) (66, -5.21790027618408200000e-001) (67, -1.33735680580139160000e+000) (68, -6.31527185440063480000e-001) (69, 8.64132344722747800000e-001) (70, -6.76528811454772950000e-001) (71, 5.96897125244140630000e-001) (72, -4.61664199829101560000e-001) (73, 1.24242687225341800000e+000) (74, -4.98465836048126220000e-001) (75, 8.85424017906188960000e-001) (76, -1.17592751979827880000e+000) (77, 7.80055284500122070000e-001) (78, 3.84234607219696040000e-001) (79, -1.02397799491882320000e+000) (80, -9.43278372287750240000e-001) (81, -9.17573496699333190000e-002) (82, -7.67890095710754390000e-001) (83, 8.12021791934967040000e-001) (84, -1.24552094936370850000e+000) (85, 1.35863065719604490000e+000) (86, 1.28395497798919680000e+000) (87, -1.26964354515075680000e+000) (88, 3.38907217979431150000e+000) 
