FANN_FLO_2.1
num_layers=5
learning_rate=0.100000
connection_rate=1.000000
network_type=0
learning_momentum=0.000000
training_algorithm=2
train_error_function=1
train_stop_function=0
cascade_output_change_fraction=0.010000
quickprop_decay=-0.000100
quickprop_mu=1.750000
rprop_increase_factor=1.200000
rprop_decrease_factor=0.500000
rprop_delta_min=0.000000
rprop_delta_max=50.000000
rprop_delta_zero=0.100000
cascade_output_stagnation_epochs=12
cascade_candidate_change_fraction=0.010000
cascade_candidate_stagnation_epochs=12
cascade_max_out_epochs=150
cascade_min_out_epochs=50
cascade_max_cand_epochs=150
cascade_min_cand_epochs=50
cascade_num_candidate_groups=2
bit_fail_limit=3.49999994039535520000e-001
cascade_candidate_limit=1.00000000000000000000e+003
cascade_weight_multiplier=4.00000005960464480000e-001
cascade_activation_functions_count=10
cascade_activation_functions=3 5 7 8 10 11 14 15 16 17 
cascade_activation_steepnesses_count=4
cascade_activation_steepnesses=2.50000000000000000000e-001 5.00000000000000000000e-001 7.50000000000000000000e-001 1.00000000000000000000e+000 
layer_sizes=4 65 65 65 3 
scale_included=0
neurons (num_inputs, activation_function, activation_steepness)=(0, 0, 0.00000000000000000000e+000) (0, 0, 0.00000000000000000000e+000) (0, 0, 0.00000000000000000000e+000) (0, 0, 0.00000000000000000000e+000) (4, 3, 5.00000000000000000000e-001) (4, 3, 5.00000000000000000000e-001) (4, 3, 5.00000000000000000000e-001) (4, 3, 5.00000000000000000000e-001) (4, 3, 5.00000000000000000000e-001) (4, 3, 5.00000000000000000000e-001) (4, 3, 5.00000000000000000000e-001) (4, 3, 5.00000000000000000000e-001) (4, 3, 5.00000000000000000000e-001) (4, 3, 5.00000000000000000000e-001) (4, 3, 5.00000000000000000000e-001) (4, 3, 5.00000000000000000000e-001) (4, 3, 5.00000000000000000000e-001) (4, 3, 5.00000000000000000000e-001) (4, 3, 5.00000000000000000000e-001) (4, 3, 5.00000000000000000000e-001) (4, 3, 5.00000000000000000000e-001) (4, 3, 5.00000000000000000000e-001) (4, 3, 5.00000000000000000000e-001) (4, 3, 5.00000000000000000000e-001) (4, 3, 5.00000000000000000000e-001) (4, 3, 5.00000000000000000000e-001) (4, 3, 5.00000000000000000000e-001) (4, 3, 5.00000000000000000000e-001) (4, 3, 5.00000000000000000000e-001) (4, 3, 5.00000000000000000000e-001) (4, 3, 5.00000000000000000000e-001) (4, 3, 5.00000000000000000000e-001) (4, 3, 5.00000000000000000000e-001) (4, 3, 5.00000000000000000000e-001) (4, 3, 5.00000000000000000000e-001) (4, 3, 5.00000000000000000000e-001) (4, 3, 5.00000000000000000000e-001) (4, 3, 5.00000000000000000000e-001) (4, 3, 5.00000000000000000000e-001) (4, 3, 5.00000000000000000000e-001) (4, 3, 5.00000000000000000000e-001) (4, 3, 5.00000000000000000000e-001) (4, 3, 5.00000000000000000000e-001) (4, 3, 5.00000000000000000000e-001) (4, 3, 5.00000000000000000000e-001) (4, 3, 5.00000000000000000000e-001) (4, 3, 5.00000000000000000000e-001) (4, 3, 5.00000000000000000000e-001) (4, 3, 5.00000000000000000000e-001) (4, 3, 5.00000000000000000000e-001) (4, 3, 5.00000000000000000000e-001) (4, 3, 5.00000000000000000000e-001) (4, 3, 5.00000000000000000000e-001) (4, 3, 5.00000000000000000000e-001) (4, 3, 5.00000000000000000000e-001) (4, 3, 5.00000000000000000000e-001) (4, 3, 5.00000000000000000000e-001) (4, 3, 5.00000000000000000000e-001) (4, 3, 5.00000000000000000000e-001) (4, 3, 5.00000000000000000000e-001) (4, 3, 5.00000000000000000000e-001) (4, 3, 5.00000000000000000000e-001) (4, 3, 5.00000000000000000000e-001) (4, 3, 5.00000000000000000000e-001) (4, 3, 5.00000000000000000000e-001) (4, 3, 5.00000000000000000000e-001) (4, 3, 5.00000000000000000000e-001) (4, 3, 5.00000000000000000000e-001) (0, 3, 0.00000000000000000000e+000) (65, 3, 5.00000000000000000000e-001) (65, 3, 5.00000000000000000000e-001) (65, 3, 5.00000000000000000000e-001) (65, 3, 5.00000000000000000000e-001) (65, 3, 5.00000000000000000000e-001) (65, 3, 5.00000000000000000000e-001) (65, 3, 5.00000000000000000000e-001) (65, 3, 5.00000000000000000000e-001) (65, 3, 5.00000000000000000000e-001) (65, 3, 5.00000000000000000000e-001) (65, 3, 5.00000000000000000000e-001) (65, 3, 5.00000000000000000000e-001) (65, 3, 5.00000000000000000000e-001) (65, 3, 5.00000000000000000000e-001) (65, 3, 5.00000000000000000000e-001) (65, 3, 5.00000000000000000000e-001) (65, 3, 5.00000000000000000000e-001) (65, 3, 5.00000000000000000000e-001) (65, 3, 5.00000000000000000000e-001) (65, 3, 5.00000000000000000000e-001) (65, 3, 5.00000000000000000000e-001) (65, 3, 5.00000000000000000000e-001) (65, 3, 5.00000000000000000000e-001) (65, 3, 5.00000000000000000000e-001) (65, 3, 5.00000000000000000000e-001) (65, 3, 5.00000000000000000000e-001) (65, 3, 5.00000000000000000000e-001) (65, 3, 5.00000000000000000000e-001) (65, 3, 5.00000000000000000000e-001) (65, 3, 5.00000000000000000000e-001) (65, 3, 5.00000000000000000000e-001) (65, 3, 5.00000000000000000000e-001) (65, 3, 5.00000000000000000000e-001) (65, 3, 5.00000000000000000000e-001) (65, 3, 5.00000000000000000000e-001) (65, 3, 5.00000000000000000000e-001) (65, 3, 5.00000000000000000000e-001) (65, 3, 5.00000000000000000000e-001) (65, 3, 5.00000000000000000000e-001) (65, 3, 5.00000000000000000000e-001) (65, 3, 5.00000000000000000000e-001) (65, 3, 5.00000000000000000000e-001) (65, 3, 5.00000000000000000000e-001) (65, 3, 5.00000000000000000000e-001) (65, 3, 5.00000000000000000000e-001) (65, 3, 5.00000000000000000000e-001) (65, 3, 5.00000000000000000000e-001) (65, 3, 5.00000000000000000000e-001) (65, 3, 5.00000000000000000000e-001) (65, 3, 5.00000000000000000000e-001) (65, 3, 5.00000000000000000000e-001) (65, 3, 5.00000000000000000000e-001) (65, 3, 5.00000000000000000000e-001) (65, 3, 5.00000000000000000000e-001) (65, 3, 5.00000000000000000000e-001) (65, 3, 5.00000000000000000000e-001) (65, 3, 5.00000000000000000000e-001) (65, 3, 5.00000000000000000000e-001) (65, 3, 5.00000000000000000000e-001) (65, 3, 5.00000000000000000000e-001) (65, 3, 5.00000000000000000000e-001) (65, 3, 5.00000000000000000000e-001) (65, 3, 5.00000000000000000000e-001) (65, 3, 5.00000000000000000000e-001) (0, 3, 0.00000000000000000000e+000) (65, 3, 5.00000000000000000000e-001) (65, 3, 5.00000000000000000000e-001) (65, 3, 5.00000000000000000000e-001) (65, 3, 5.00000000000000000000e-001) (65, 3, 5.00000000000000000000e-001) (65, 3, 5.00000000000000000000e-001) (65, 3, 5.00000000000000000000e-001) (65, 3, 5.00000000000000000000e-001) (65, 3, 5.00000000000000000000e-001) (65, 3, 5.00000000000000000000e-001) (65, 3, 5.00000000000000000000e-001) (65, 3, 5.00000000000000000000e-001) (65, 3, 5.00000000000000000000e-001) (65, 3, 5.00000000000000000000e-001) (65, 3, 5.00000000000000000000e-001) (65, 3, 5.00000000000000000000e-001) (65, 3, 5.00000000000000000000e-001) (65, 3, 5.00000000000000000000e-001) (65, 3, 5.00000000000000000000e-001) (65, 3, 5.00000000000000000000e-001) (65, 3, 5.00000000000000000000e-001) (65, 3, 5.00000000000000000000e-001) (65, 3, 5.00000000000000000000e-001) (65, 3, 5.00000000000000000000e-001) (65, 3, 5.00000000000000000000e-001) (65, 3, 5.00000000000000000000e-001) (65, 3, 5.00000000000000000000e-001) (65, 3, 5.00000000000000000000e-001) (65, 3, 5.00000000000000000000e-001) (65, 3, 5.00000000000000000000e-001) (65, 3, 5.00000000000000000000e-001) (65, 3, 5.00000000000000000000e-001) (65, 3, 5.00000000000000000000e-001) (65, 3, 5.00000000000000000000e-001) (65, 3, 5.00000000000000000000e-001) (65, 3, 5.00000000000000000000e-001) (65, 3, 5.00000000000000000000e-001) (65, 3, 5.00000000000000000000e-001) (65, 3, 5.00000000000000000000e-001) (65, 3, 5.00000000000000000000e-001) (65, 3, 5.00000000000000000000e-001) (65, 3, 5.00000000000000000000e-001) (65, 3, 5.00000000000000000000e-001) (65, 3, 5.00000000000000000000e-001) (65, 3, 5.00000000000000000000e-001) (65, 3, 5.00000000000000000000e-001) (65, 3, 5.00000000000000000000e-001) (65, 3, 5.00000000000000000000e-001) (65, 3, 5.00000000000000000000e-001) (65, 3, 5.00000000000000000000e-001) (65, 3, 5.00000000000000000000e-001) (65, 3, 5.00000000000000000000e-001) (65, 3, 5.00000000000000000000e-001) (65, 3, 5.00000000000000000000e-001) (65, 3, 5.00000000000000000000e-001) (65, 3, 5.00000000000000000000e-001) (65, 3, 5.00000000000000000000e-001) (65, 3, 5.00000000000000000000e-001) (65, 3, 5.00000000000000000000e-001) (65, 3, 5.00000000000000000000e-001) (65, 3, 5.00000000000000000000e-001) (65, 3, 5.00000000000000000000e-001) (65, 3, 5.00000000000000000000e-001) (65, 3, 5.00000000000000000000e-001) (0, 3, 0.00000000000000000000e+000) (65, 0, 5.00000000000000000000e-001) (65, 0, 5.00000000000000000000e-001) (0, 0, 0.00000000000000000000e+000) 
connections (connected_to_neuron, weight)=(0, -6.00509414062500000000e+004) (1, -4.50052468750000000000e+005) (2, -1.64299781250000000000e+005) (3, -1.97772441406250000000e+004) (0, -6.06109531250000000000e+004) (1, -4.54944812500000000000e+005) (2, -1.65578140625000000000e+005) (3, -1.99288691406250000000e+004) (0, -6.10780351562500000000e+004) (1, -4.60273875000000000000e+005) (2, -1.65956609375000000000e+005) (3, -1.99743222656250000000e+004) (0, -6.13601445312500000000e+004) (1, -4.63281562500000000000e+005) (2, -1.66370062500000000000e+005) (3, -2.00220800781250000000e+004) (0, -6.09016718750000000000e+004) (1, -4.58379125000000000000e+005) (2, -1.65739531250000000000e+005) (3, -1.99464843750000000000e+004) (0, -5.96603710937500000000e+004) (1, -4.45352781250000000000e+005) (2, -1.64045015625000000000e+005) (3, -1.97478535156250000000e+004) (0, -6.12654023437500000000e+004) (1, -4.62341281250000000000e+005) (2, -1.66219203125000000000e+005) (3, -2.00048828125000000000e+004) (0, -6.09131796875000000000e+004) (1, -4.58640500000000000000e+005) (2, -1.65717718750000000000e+005) (3, -1.99437656250000000000e+004) (0, -6.01337734375000000000e+004) (1, -4.50127125000000000000e+005) (2, -1.64739687500000000000e+005) (3, -1.98289160156250000000e+004) (0, -6.12143515625000000000e+004) (1, -4.61653500000000000000e+005) (2, -1.66223718750000000000e+005) (3, -2.00049746093750000000e+004) (0, -6.00217656250000000000e+004) (1, -4.49757593750000000000e+005) (2, -1.64138515625000000000e+005) (3, -1.97578691406250000000e+004) (0, -6.13380156250000000000e+004) (1, -4.63089125000000000000e+005) (2, -1.66325187500000000000e+005) (3, -2.00170175781250000000e+004) (0, -6.02007421875000000000e+004) (1, -4.50922718750000000000e+005) (2, -1.64824734375000000000e+005) (3, -1.98398437500000000000e+004) (0, 3.44124093750000000000e+005) (1, 1.96560400000000000000e+006) (2, 1.25736087500000000000e+006) (3, 1.40959375000000000000e+005) (0, 3.43106875000000000000e+005) (1, 1.95224050000000000000e+006) (2, 1.25627362500000000000e+006) (3, 1.40839328125000000000e+005) (0, -5.75310625000000000000e+004) (1, -4.24547937500000000000e+005) (2, -1.60313703125000000000e+005) (3, -1.93114023437500000000e+004) (0, -6.09644023437500000000e+004) (1, -4.59288812500000000000e+005) (2, -1.65720703125000000000e+005) (3, -1.99454980468750000000e+004) (0, 3.44734187500000000000e+005) (1, 1.96859387500000000000e+006) (2, 1.25894312500000000000e+006) (3, 1.41156031250000000000e+005) (0, -6.03249179687500000000e+004) (1, -4.52176625000000000000e+005) (2, -1.64973281250000000000e+005) (3, -1.98555429687500000000e+004) (0, -5.90824765625000000000e+004) (1, -4.39400531250000000000e+005) (2, -1.63107531250000000000e+005) (3, -1.96380039062500000000e+004) (0, -6.08711289062500000000e+004) (1, -4.57730500000000000000e+005) (2, -1.65957953125000000000e+005) (3, -1.99713203125000000000e+004) (0, -6.02629140625000000000e+004) (1, -4.51670500000000000000e+005) (2, -1.64795578125000000000e+005) (3, -1.98342441406250000000e+004) (0, -5.97001445312500000000e+004) (1, -4.47443062500000000000e+005) (2, -1.63303234375000000000e+005) (3, -1.96537714843750000000e+004) (0, 3.44212437500000000000e+005) (1, 1.96345812500000000000e+006) (2, 1.25806600000000000000e+006) (3, 1.41051187500000000000e+005) (0, -6.09227851562500000000e+004) (1, -4.58703656250000000000e+005) (2, -1.65683375000000000000e+005) (3, -1.99405175781250000000e+004) (0, -6.01061093750000000000e+004) (1, -4.50704625000000000000e+005) (2, -1.64282843750000000000e+005) (3, -1.97750234375000000000e+004) (0, -6.00435781250000000000e+004) (1, -4.49184437500000000000e+005) (2, -1.64617781250000000000e+005) (3, -1.98158359375000000000e+004) (0, -6.09111640625000000000e+004) (1, -4.58044875000000000000e+005) (2, -1.65983875000000000000e+005) (3, -1.99740585937500000000e+004) (0, -6.00304062500000000000e+004) (1, -4.49769562500000000000e+005) (2, -1.64205000000000000000e+005) (3, -1.97673261718750000000e+004) (0, 3.42861125000000000000e+005) (1, 1.94969037500000000000e+006) (2, 1.25589250000000000000e+006) (3, 1.40793687500000000000e+005) (0, -6.14660312500000000000e+004) (1, -4.64208531250000000000e+005) (2, -1.66582015625000000000e+005) (3, -2.00466992187500000000e+004) (0, -5.83434570312500000000e+004) (1, -4.32381875000000000000e+005) (2, -1.61772843750000000000e+005) (3, -1.94812832031250000000e+004) (0, -6.09572500000000000000e+004) (1, -4.58806281250000000000e+005) (2, -1.66004359375000000000e+005) (3, -1.99759199218750000000e+004) (0, -5.92048085937500000000e+004) (1, -4.41218437500000000000e+005) (2, -1.63036906250000000000e+005) (3, -1.96282597656250000000e+004) (0, 3.44703843750000000000e+005) (1, 1.96830200000000000000e+006) (2, 1.25888412500000000000e+006) (3, 1.41148890625000000000e+005) (0, -6.10180585937500000000e+004) (1, -4.59708656250000000000e+005) (2, -1.65831562500000000000e+005) (3, -1.99588027343750000000e+004) (0, -6.08920859375000000000e+004) (1, -4.58273906250000000000e+005) (2, -1.65698812500000000000e+005) (3, -1.99435996093750000000e+004) (0, 3.44459781250000000000e+005) (1, 1.96572287500000000000e+006) (2, 1.25859812500000000000e+006) (3, 1.41115171875000000000e+005) (0, -5.91407968750000000000e+004) (1, -4.40895562500000000000e+005) (2, -1.62752687500000000000e+005) (3, -1.95939960937500000000e+004) (0, -6.19442148437500000000e+004) (1, -4.68868062500000000000e+005) (2, -1.67471218750000000000e+005) (3, -2.01520605468750000000e+004) (0, -6.11787421875000000000e+004) (1, -4.61422218750000000000e+005) (2, -1.66077265625000000000e+005) (3, -1.99876054687500000000e+004) (0, -6.14058945312500000000e+004) (1, -4.63591593750000000000e+005) (2, -1.66529187500000000000e+005) (3, -2.00414101562500000000e+004) (0, -5.99784804687500000000e+004) (1, -4.48860875000000000000e+005) (2, -1.64294937500000000000e+005) (3, -1.97698496093750000000e+004) (0, -6.10069531250000000000e+004) (1, -4.59544937500000000000e+005) (2, -1.65829218750000000000e+005) (3, -1.99575957031250000000e+004) (0, -6.07388320312500000000e+004) (1, -4.56249937500000000000e+005) (2, -1.65812890625000000000e+005) (3, -1.99539570312500000000e+004) (0, -6.10873828125000000000e+004) (1, -4.60478500000000000000e+005) (2, -1.65935812500000000000e+005) (3, -1.99712050781250000000e+004) (0, 3.44569125000000000000e+005) (1, 1.96708675000000000000e+006) (2, 1.25870950000000000000e+006) (3, 1.41123671875000000000e+005) (0, 3.43348687500000000000e+005) (1, 1.95427887500000000000e+006) (2, 1.25682075000000000000e+006) (3, 1.40905921875000000000e+005) (0, -6.11082187500000000000e+004) (1, -4.60581937500000000000e+005) (2, -1.66055390625000000000e+005) (3, -1.99842695312500000000e+004) (0, -6.10894140625000000000e+004) (1, -4.59947125000000000000e+005) (2, -1.66199015625000000000e+005) (3, -2.00002578125000000000e+004) (0, 3.45142156250000000000e+005) (1, 1.97263725000000000000e+006) (2, 1.25957900000000000000e+006) (3, 1.41230078125000000000e+005) (0, -5.48825312500000000000e+004) (1, -3.94780312500000000000e+005) (2, -1.57046187500000000000e+005) (3, -1.89314179687500000000e+004) (0, -6.01044804687500000000e+004) (1, -4.50715062500000000000e+005) (2, -1.64320140625000000000e+005) (3, -1.97790468750000000000e+004) (0, -5.83293281250000000000e+004) (1, -4.32742875000000000000e+005) (2, -1.61403156250000000000e+005) (3, -1.94352617187500000000e+004) (0, -5.95120742187500000000e+004) (1, -4.44217750000000000000e+005) (2, -1.63507046875000000000e+005) (3, -1.96846464843750000000e+004) (0, -6.01831250000000000000e+004) (1, -4.50928437500000000000e+005) (2, -1.64731890625000000000e+005) (3, -1.98282851562500000000e+004) (0, -6.12423437500000000000e+004) (1, -4.62088250000000000000e+005) (2, -1.66194500000000000000e+005) (3, -2.00021250000000000000e+004) (0, -6.01216953125000000000e+004) (1, -4.50534875000000000000e+005) (2, -1.64505171875000000000e+005) (3, -1.98012675781250000000e+004) (0, -6.11511054687500000000e+004) (1, -4.60643312500000000000e+005) (2, -1.66401625000000000000e+005) (3, -2.00232597656250000000e+004) (0, -6.17105390625000000000e+004) (1, -4.66499343750000000000e+005) (2, -1.67163656250000000000e+005) (3, -2.01153417968750000000e+004) (0, 3.44545937500000000000e+005) (1, 1.96655712500000000000e+006) (2, 1.25874487500000000000e+006) (3, 1.41132671875000000000e+005) (0, -6.09761914062500000000e+004) (1, -4.58818687500000000000e+005) (2, -1.66019156250000000000e+005) (3, -1.99785351562500000000e+004) (0, -5.64858632812500000000e+004) (1, -4.13477750000000000000e+005) (2, -1.58743609375000000000e+005) (3, -1.91241660156250000000e+004) (0, 3.44831562500000000000e+005) (1, 1.96936150000000000000e+006) (2, 1.25919612500000000000e+006) (3, 1.41184968750000000000e+005) (4, -1.12158859252929690000e+002) (5, -1.11904830932617190000e+002) (6, -1.12173583984375000000e+002) (7, -1.12119750976562500000e+002) (8, -1.12082656860351560000e+002) (9, -1.10349594116210940000e+002) (10, -1.12059265136718750000e+002) (11, -1.12194412231445310000e+002) (12, -1.11981582641601560000e+002) (13, -1.12158218383789060000e+002) (14, -1.12067962646484370000e+002) (15, -1.12093627929687500000e+002) (16, -1.11344665527343750000e+002) (17, 1.06812927246093750000e+003) (18, 1.06999719238281250000e+003) (19, -1.11709335327148440000e+002) (20, -1.12186431884765620000e+002) (21, 1.06982971191406250000e+003) (22, -1.11356964111328120000e+002) (23, -1.10721755981445310000e+002) (24, -1.12136169433593750000e+002) (25, -1.12089172363281250000e+002) (26, -1.11725097656250000000e+002) (27, 1.06915625000000000000e+003) (28, -1.12110076904296870000e+002) (29, -1.11916519165039060000e+002) (30, -1.10666702270507810000e+002) (31, -1.11927551269531250000e+002) (32, -1.11557601928710940000e+002) (33, 1.07019189453125000000e+003) (34, -1.12164489746093750000e+002) (35, -1.10465896606445310000e+002) (36, -1.12077575683593750000e+002) (37, -1.12082519531250000000e+002) (38, 1.06979064941406250000e+003) (39, -1.12107269287109370000e+002) (40, -1.11958602905273440000e+002) (41, 1.06902880859375000000e+003) (42, -1.11998748779296870000e+002) (43, -1.12166366577148440000e+002) (44, -1.12178833007812500000e+002) (45, -1.12219345092773440000e+002) (46, -1.12014541625976560000e+002) (47, -1.11981063842773440000e+002) (48, -1.12018157958984370000e+002) (49, -1.12118942260742190000e+002) (50, 1.06920007324218750000e+003) (51, 1.06828833007812500000e+003) (52, -1.12110504150390620000e+002) (53, -1.11865646362304690000e+002) (54, 1.06864062500000000000e+003) (55, -1.10287536621093750000e+002) (56, -1.12058166503906250000e+002) (57, -1.11817108154296870000e+002) (58, -1.10186904907226560000e+002) (59, -1.11911407470703120000e+002) (60, -1.12019775390625000000e+002) (61, -1.11923614501953120000e+002) (62, -1.12248931884765620000e+002) (63, -1.12164886474609370000e+002) (64, 1.06929431152343750000e+003) (65, -1.12103057861328120000e+002) (66, -1.09987564086914060000e+002) (67, 1.06854797363281250000e+003) (68, 9.58887329101562500000e+002) (4, -1.26909698486328120000e+002) (5, -1.30057785034179690000e+002) (6, -1.27129951477050780000e+002) (7, -1.27172622680664060000e+002) (8, -1.25504264831542970000e+002) (9, -1.28315093994140620000e+002) (10, -1.27406532287597660000e+002) (11, -1.27265304565429690000e+002) (12, -1.29455856323242190000e+002) (13, -1.29111373901367190000e+002) (14, -1.25244773864746090000e+002) (15, -1.27173744201660160000e+002) (16, -1.27637184143066410000e+002) (17, 1.09697509765625000000e+003) (18, 1.11349951171875000000e+003) (19, -1.26809707641601560000e+002) (20, -1.26863655090332030000e+002) (21, 1.11473498535156250000e+003) (22, -1.30111221313476560000e+002) (23, -1.29056549072265620000e+002) (24, -1.28363845825195310000e+002) (25, -1.29053619384765620000e+002) (26, -1.27261383056640620000e+002) (27, 1.11462988281250000000e+003) (28, -1.26351737976074220000e+002) (29, -1.26685249328613280000e+002) (30, -1.29085891723632810000e+002) (31, -1.27667312622070310000e+002) (32, -1.25484931945800780000e+002) (33, 1.11334509277343750000e+003) (34, -1.27205245971679690000e+002) (35, -1.27415168762207030000e+002) (36, -1.27799713134765620000e+002) (37, -1.25297210693359380000e+002) (38, 1.11479492187500000000e+003) (39, -1.27000366210937500000e+002) (40, -1.25944557189941410000e+002) (41, 1.11470129394531250000e+003) (42, -1.26223068237304690000e+002) (43, -1.31075622558593750000e+002) (44, -1.26871681213378910000e+002) (45, -1.27250442504882810000e+002) (46, -1.27998092651367190000e+002) (47, -1.23926643371582030000e+002) (48, -1.28167282104492190000e+002) (49, -1.27336624145507810000e+002) (50, 1.11487890625000000000e+003) (51, 1.11307775878906250000e+003) (52, -1.26398368835449220000e+002) (53, -1.29655090332031250000e+002) (54, 1.11817883300781250000e+003) (55, -1.28836791992187500000e+002) (56, -1.26619033813476560000e+002) (57, -1.25568557739257810000e+002) (58, -1.29310348510742190000e+002) (59, -1.25440452575683590000e+002) (60, -1.27451805114746090000e+002) (61, -1.26831550598144530000e+002) (62, -1.28575576782226560000e+002) (63, -1.28249938964843750000e+002) (64, 1.11472082519531250000e+003) (65, -1.29488082885742190000e+002) (66, -1.27792396545410160000e+002) (67, 1.11756518554687500000e+003) (68, 9.72051147460937500000e+002) (4, -3.63230609893798830000e+000) (5, -3.89817523956298830000e+000) (6, -3.45663976669311520000e+000) (7, -3.58122396469116210000e+000) (8, -3.57054042816162110000e+000) (9, -4.08431482315063480000e+000) (10, -3.53728914260864260000e+000) (11, -3.49351930618286130000e+000) (12, -3.81767606735229490000e+000) (13, -3.55328321456909180000e+000) (14, -3.65403127670288090000e+000) (15, -3.42495489120483400000e+000) (16, -1.67861747741699220000e+000) (17, 1.90142860412597660000e+001) (18, 1.68958892822265630000e+001) (19, -3.97494077682495120000e+000) (20, -3.57333469390869140000e+000) (21, 1.89929046630859370000e+001) (22, -4.15482091903686520000e+000) (23, -4.03643417358398440000e+000) (24, -3.75810050964355470000e+000) (25, -3.67948770523071290000e+000) (26, -3.92037343978881840000e+000) (27, 1.70111274719238280000e+001) (28, -3.61735534667968750000e+000) (29, -3.75253200531005860000e+000) (30, -4.00950288772583010000e+000) (31, -3.70158433914184570000e+000) (32, -3.82384777069091800000e+000) (33, 1.69098434448242190000e+001) (34, -3.60529470443725590000e+000) (35, -3.91461086273193360000e+000) (36, -3.61441373825073240000e+000) (37, -3.67995405197143550000e+000) (38, 1.90698204040527340000e+001) (39, -3.47051239013671870000e+000) (40, -3.54618787765502930000e+000) (41, 1.69224853515625000000e+001) (42, -3.65459108352661130000e+000) (43, -3.55817699432373050000e+000) (44, -3.62438392639160160000e+000) (45, -3.50617551803588870000e+000) (46, -4.14198255538940430000e+000) (47, -3.62162399291992190000e+000) (48, -3.71642494201660160000e+000) (49, -3.47852373123168950000e+000) (50, 1.70225868225097660000e+001) (51, 1.90244369506835940000e+001) (52, -3.59471368789672850000e+000) (53, -3.79529905319213870000e+000) (54, 1.89496154785156250000e+001) (55, -4.59698057174682620000e+000) (56, -3.64998388290405270000e+000) (57, -3.68064451217651370000e+000) (58, -4.01654911041259770000e+000) (59, -3.67078590393066410000e+000) (60, -3.63057088851928710000e+000) (61, -3.74811220169067380000e+000) (62, -3.75716590881347660000e+000) (63, -3.59896993637084960000e+000) (64, 1.70552749633789060000e+001) (65, -3.68042230606079100000e+000) (66, -4.39518785476684570000e+000) (67, 1.89521789550781250000e+001) (68, 1.48587913513183590000e+001) (4, -1.24065261840820310000e+002) (5, -1.27661003112792970000e+002) (6, -1.27358024597167970000e+002) (7, -1.29155578613281250000e+002) (8, -1.24194061279296870000e+002) (9, -1.23583496093750000000e+002) (10, -1.27923645019531250000e+002) (11, -1.25323829650878910000e+002) (12, -1.26650573730468750000e+002) (13, -1.27682861328125000000e+002) (14, -1.24838775634765620000e+002) (15, -1.29236572265625000000e+002) (16, -1.27381179809570310000e+002) (17, 1.15005566406250000000e+003) (18, 1.14397656250000000000e+003) (19, -1.23836570739746090000e+002) (20, -1.28860351562500000000e+002) (21, 1.14743066406250000000e+003) (22, -1.26652603149414060000e+002) (23, -1.24549835205078120000e+002) (24, -1.25385612487792970000e+002) (25, -1.27646064758300780000e+002) (26, -1.28690093994140620000e+002) (27, 1.14594970703125000000e+003) (28, -1.26497535705566410000e+002) (29, -1.31489929199218750000e+002) (30, -1.24241050720214840000e+002) (31, -1.25610427856445310000e+002) (32, -1.24474441528320310000e+002) (33, 1.14338281250000000000e+003) (34, -1.27447196960449220000e+002) (35, -1.25170356750488280000e+002) (36, -1.24394935607910160000e+002) (37, -1.22486068725585940000e+002) (38, 1.14749145507812500000e+003) (39, -1.27212196350097660000e+002) (40, -1.24950111389160160000e+002) (41, 1.14739453125000000000e+003) (42, -1.21946632385253910000e+002) (43, -1.29287170410156250000e+002) (44, -1.28966766357421870000e+002) (45, -1.27852188110351560000e+002) (46, -1.25329315185546870000e+002) (47, -1.26944412231445310000e+002) (48, -1.24246932983398440000e+002) (49, -1.27304603576660160000e+002) (50, 1.14535791015625000000e+003) (51, 1.14180590820312500000e+003) (52, -1.25901695251464840000e+002) (53, -1.28589035034179690000e+002) (54, 1.15058593750000000000e+003) (55, -1.22322753906250000000e+002) (56, -1.23732574462890620000e+002) (57, -1.21751037597656250000e+002) (58, -1.28355270385742190000e+002) (59, -1.23743034362792970000e+002) (60, -1.27851501464843750000e+002) (61, -1.24485740661621090000e+002) (62, -1.25561904907226560000e+002) (63, -1.25904731750488280000e+002) (64, 1.14622070312500000000e+003) (65, -1.28311462402343750000e+002) (66, -1.24119964599609370000e+002) (67, 1.14832690429687500000e+003) (68, 1.02047088623046870000e+003) (4, -7.35410094261169430000e-001) (5, -8.00697326660156250000e-001) (6, -7.50748634338378910000e-001) (7, -8.40504884719848630000e-001) (8, -8.06492090225219730000e-001) (9, -8.96175980567932130000e-001) (10, -6.64467573165893550000e-001) (11, -7.22639560699462890000e-001) (12, -8.76966118812561040000e-001) (13, -8.28208565711975100000e-001) (14, -7.34730601310729980000e-001) (15, -7.61701703071594240000e-001) (16, -9.14752483367919920000e-004) (17, -9.99217450618743900000e-001) (18, -1.92672109603881840000e+000) (19, -7.76989936828613280000e-001) (20, -7.67614960670471190000e-001) (21, -1.07859086990356450000e+000) (22, -9.05628919601440430000e-001) (23, -1.00183308124542240000e+000) (24, -8.01055788993835450000e-001) (25, -8.27068209648132320000e-001) (26, -8.79860520362854000000e-001) (27, -1.89216351509094240000e+000) (28, -7.32706308364868160000e-001) (29, -8.46689820289611820000e-001) (30, -9.77411210536956790000e-001) (31, -8.55261683464050290000e-001) (32, -8.93301486968994140000e-001) (33, -1.82575273513793950000e+000) (34, -7.35347270965576170000e-001) (35, -9.56376671791076660000e-001) (36, -8.79942297935485840000e-001) (37, -7.30538129806518550000e-001) (38, -9.56488132476806640000e-001) (39, -7.71541476249694820000e-001) (40, -7.22583055496215820000e-001) (41, -1.88784360885620120000e+000) (42, -7.29950547218322750000e-001) (43, -8.43844056129455570000e-001) (44, -7.63452172279357910000e-001) (45, -6.89113855361938480000e-001) (46, -1.01144528388977050000e+000) (47, -8.80749940872192380000e-001) (48, -8.19438457489013670000e-001) (49, -8.01690459251403810000e-001) (50, -1.77133274078369140000e+000) (51, -8.69756460189819340000e-001) (52, -8.33530902862548830000e-001) (53, -8.19987416267395020000e-001) (54, -9.60355758666992190000e-001) (55, -9.85760986804962160000e-001) (56, -7.99266219139099120000e-001) (57, -7.05563783645629880000e-001) (58, -9.77251470088958740000e-001) (59, -7.46828079223632810000e-001) (60, -8.22214603424072270000e-001) (61, -8.36626052856445310000e-001) (62, -8.69454145431518550000e-001) (63, -7.12540864944458010000e-001) (64, -1.89882397651672360000e+000) (65, -7.34147071838378910000e-001) (66, -9.03872966766357420000e-001) (67, -1.06948578357696530000e+000) (68, -1.99397253990173340000e+000) (4, -1.16472915649414060000e+002) (5, -1.15083175659179690000e+002) (6, -1.16416366577148440000e+002) (7, -1.16421722412109370000e+002) (8, -1.16691688537597660000e+002) (9, -1.15606842041015620000e+002) (10, -1.16616012573242190000e+002) (11, -1.16659393310546870000e+002) (12, -1.15421783447265620000e+002) (13, -1.16913940429687500000e+002) (14, -1.16514480590820310000e+002) (15, -1.16501937866210940000e+002) (16, -1.15157577514648440000e+002) (17, 1.10091162109375000000e+003) (18, 1.09922656250000000000e+003) (19, -1.14336318969726560000e+002) (20, -1.16408599853515620000e+002) (21, 1.09907434082031250000e+003) (22, -1.15480270385742190000e+002) (23, -1.15787796020507810000e+002) (24, -1.15176956176757810000e+002) (25, -1.14752563476562500000e+002) (26, -1.14479598999023440000e+002) (27, 1.09860595703125000000e+003) (28, -1.16927085876464840000e+002) (29, -1.16313255310058590000e+002) (30, -1.15519149780273440000e+002) (31, -1.14966690063476560000e+002) (32, -1.16596450805664060000e+002) (33, 1.09917944335937500000e+003) (34, -1.16699325561523440000e+002) (35, -1.14857604980468750000e+002) (36, -1.15316848754882810000e+002) (37, -1.16240440368652340000e+002) (38, 1.09913464355468750000e+003) (39, -1.16396697998046870000e+002) (40, -1.16825973510742190000e+002) (41, 1.09886254882812500000e+003) (42, -1.16723564147949220000e+002) (43, -1.15099761962890620000e+002) (44, -1.16437133789062500000e+002) (45, -1.16598175048828120000e+002) (46, -1.15227767944335940000e+002) (47, -1.16580383300781250000e+002) (48, -1.15270751953125000000e+002) (49, -1.16751281738281250000e+002) (50, 1.09991369628906250000e+003) (51, 1.09845922851562500000e+003) (52, -1.16746406555175780000e+002) (53, -1.15198043823242190000e+002) (54, 1.09877539062500000000e+003) (55, -1.12575881958007810000e+002) (56, -1.16518371582031250000e+002) (57, -1.16421401977539060000e+002) (58, -1.15268310546875000000e+002) (59, -1.14747245788574220000e+002) (60, -1.16640319824218750000e+002) (61, -1.14730484008789060000e+002) (62, -1.15318618774414060000e+002) (63, -1.15235092163085940000e+002) (64, 1.09872424316406250000e+003) (65, -1.14756652832031250000e+002) (66, -1.13687896728515620000e+002) (67, 1.09891333007812500000e+003) (68, 9.82377197265625000000e+002) (4, -1.08642745971679690000e+002) (5, -1.08655120849609370000e+002) (6, -1.08624755859375000000e+002) (7, -1.08525939941406250000e+002) (8, -1.08540527343750000000e+002) (9, -1.08241943359375000000e+002) (10, -1.08783782958984370000e+002) (11, -1.09125732421875000000e+002) (12, -1.08701980590820310000e+002) (13, -1.08880340576171870000e+002) (14, -1.08136444091796870000e+002) (15, -1.08406936645507810000e+002) (16, -1.09217132568359380000e+002) (17, 1.02506408691406250000e+003) (18, 1.02499328613281250000e+003) (19, -1.07007324218750000000e+002) (20, -1.08281417846679690000e+002) (21, 1.02567187500000000000e+003) (22, -1.08660232543945310000e+002) (23, -1.08081573486328120000e+002) (24, -1.09456176757812500000e+002) (25, -1.07896743774414060000e+002) (26, -1.08993301391601560000e+002) (27, 1.02495202636718750000e+003) (28, -1.09161773681640620000e+002) (29, -1.07402160644531250000e+002) (30, -1.08708023071289060000e+002) (31, -1.08964782714843750000e+002) (32, -1.08285964965820310000e+002) (33, 1.02499072265625000000e+003) (34, -1.08144927978515620000e+002) (35, -1.08615417480468750000e+002) (36, -1.09374603271484370000e+002) (37, -1.08716278076171870000e+002) (38, 1.02558776855468750000e+003) (39, -1.08364212036132810000e+002) (40, -1.08933761596679690000e+002) (41, 1.02646093750000000000e+003) (42, -1.08433685302734370000e+002) (43, -1.09746826171875000000e+002) (44, -1.08369628906250000000e+002) (45, -1.08883773803710940000e+002) (46, -1.07605575561523440000e+002) (47, -1.08384063720703120000e+002) (48, -1.09226638793945310000e+002) (49, -1.08211517333984380000e+002) (50, 1.02504785156250000000e+003) (51, 1.02513854980468750000e+003) (52, -1.09215927124023440000e+002) (53, -1.08846572875976560000e+002) (54, 1.02543176269531250000e+003) (55, -1.08354431152343750000e+002) (56, -1.08580703735351560000e+002) (57, -1.07795349121093750000e+002) (58, -1.07661499023437500000e+002) (59, -1.08391891479492190000e+002) (60, -1.08773101806640620000e+002) (61, -1.08494949340820310000e+002) (62, -1.09748962402343750000e+002) (63, -1.10063003540039060000e+002) (64, 1.02648937988281250000e+003) (65, -1.08671493530273440000e+002) (66, -1.07423965454101560000e+002) (67, 1.02551940917968750000e+003) (68, 9.17934204101562500000e+002) (4, 1.88647556304931640000e+001) (5, 1.88266353607177730000e+001) (6, 1.89133148193359380000e+001) (7, 1.88388710021972660000e+001) (8, 1.87559146881103520000e+001) (9, 1.88487758636474610000e+001) (10, 1.88011150360107420000e+001) (11, 1.87894268035888670000e+001) (12, 1.86567993164062500000e+001) (13, 1.89361095428466800000e+001) (14, 1.89666900634765630000e+001) (15, 1.89471454620361330000e+001) (16, 1.82909603118896480000e+001) (17, -1.11243728637695310000e+002) (18, -1.10658981323242190000e+002) (19, 1.87503051757812500000e+001) (20, 1.88541831970214840000e+001) (21, -1.11154876708984370000e+002) (22, 1.84363632202148440000e+001) (23, 1.88760108947753910000e+001) (24, 1.87749748229980470000e+001) (25, 1.85851154327392580000e+001) (26, 1.85917644500732420000e+001) (27, -1.11376220703125000000e+002) (28, 1.87754554748535160000e+001) (29, 1.88530673980712890000e+001) (30, 1.87081031799316410000e+001) (31, 1.88250713348388670000e+001) (32, 1.87638721466064450000e+001) (33, -1.10721466064453120000e+002) (34, 1.88504848480224610000e+001) (35, 1.88844127655029300000e+001) (36, 1.87414512634277340000e+001) (37, 1.89007720947265630000e+001) (38, -1.11116134643554690000e+002) (39, 1.88963356018066410000e+001) (40, 1.87699985504150390000e+001) (41, -1.11276535034179690000e+002) (42, 1.89076843261718750000e+001) (43, 1.86895332336425780000e+001) (44, 1.89163894653320310000e+001) (45, 1.88162899017333980000e+001) (46, 1.85575942993164060000e+001) (47, 1.88111095428466800000e+001) (48, 1.85869388580322270000e+001) (49, 1.88859195709228520000e+001) (50, -1.11501571655273440000e+002) (51, -1.11068572998046870000e+002) (52, 1.88005485534667970000e+001) (53, 1.87329826354980470000e+001) (54, -1.11079574584960940000e+002) (55, 1.87481727600097660000e+001) (56, 1.89291648864746090000e+001) (57, 1.88398761749267580000e+001) (58, 1.87802047729492190000e+001) (59, 1.88418636322021480000e+001) (60, 1.88009624481201170000e+001) (61, 1.86288337707519530000e+001) (62, 1.88156242370605470000e+001) (63, 1.87197151184082030000e+001) (64, -1.11459869384765620000e+002) (65, 1.87747497558593750000e+001) (66, 1.86598815917968750000e+001) (67, -1.11172363281250000000e+002) (68, -9.29448089599609380000e+001) (4, -1.30373489379882810000e+002) (5, -1.30042556762695310000e+002) (6, -1.30878814697265620000e+002) (7, -1.31133728027343750000e+002) (8, -1.30632293701171870000e+002) (9, -1.29416717529296870000e+002) (10, -1.29701965332031250000e+002) (11, -1.30825775146484370000e+002) (12, -1.29747741699218750000e+002) (13, -1.29888748168945310000e+002) (14, -1.30389434814453120000e+002) (15, -1.30870727539062500000e+002) (16, -1.29296798706054690000e+002) (17, 1.13554589843750000000e+003) (18, 1.13602539062500000000e+003) (19, -1.23467666625976560000e+002) (20, -1.31109863281250000000e+002) (21, 1.13740563964843750000e+003) (22, -1.29307662963867190000e+002) (23, -1.25260475158691410000e+002) (24, -1.30476898193359370000e+002) (25, -1.29626129150390620000e+002) (26, -1.25942687988281250000e+002) (27, 1.13647644042968750000e+003) (28, -1.30654556274414060000e+002) (29, -1.30898101806640620000e+002) (30, -1.29115829467773440000e+002) (31, -1.29825378417968750000e+002) (32, -1.30263870239257810000e+002) (33, 1.13569274902343750000e+003) (34, -1.29776580810546870000e+002) (35, -1.24837951660156250000e+002) (36, -1.30582458496093750000e+002) (37, -1.29426101684570310000e+002) (38, 1.13735546875000000000e+003) (39, -1.30732757568359370000e+002) (40, -1.30644393920898440000e+002) (41, 1.13631237792968750000e+003) (42, -1.26060493469238280000e+002) (43, -1.30258331298828120000e+002) (44, -1.30966781616210940000e+002) (45, -1.29872970581054690000e+002) (46, -1.29367340087890620000e+002) (47, -1.31814987182617190000e+002) (48, -1.30850234985351560000e+002) (49, -1.29680053710937500000e+002) (50, 1.13703454589843750000e+003) (51, 1.13651025390625000000e+003) (52, -1.30902679443359380000e+002) (53, -1.29978729248046870000e+002) (54, 1.13721203613281250000e+003) (55, -1.17878730773925780000e+002) (56, -1.30689178466796870000e+002) (57, -1.24196159362792970000e+002) (58, -1.25323348999023440000e+002) (59, -1.31031082153320310000e+002) (60, -1.29794891357421870000e+002) (61, -1.30220840454101560000e+002) (62, -1.30507965087890620000e+002) (63, -1.31122222900390630000e+002) (64, 1.13621252441406250000e+003) (65, -1.30145629882812500000e+002) (66, -1.15860275268554690000e+002) (67, 1.13722729492187500000e+003) (68, 1.00422583007812500000e+003) (4, -1.23609619140625000000e+002) (5, -1.23554824829101560000e+002) (6, -1.30158859252929690000e+002) (7, -1.30331924438476560000e+002) (8, -1.27422851562500000000e+002) (9, -1.23847091674804690000e+002) (10, -1.30386657714843750000e+002) (11, -1.27454010009765620000e+002) (12, -1.23317901611328120000e+002) (13, -1.26341995239257810000e+002) (14, -1.23421752929687500000e+002) (15, -1.30352127075195310000e+002) (16, -1.26721923828125000000e+002) (17, 1.14104309082031250000e+003) (18, 1.13375781250000000000e+003) (19, -1.22070693969726560000e+002) (20, -1.27058593750000000000e+002) (21, 1.13645996093750000000e+003) (22, -1.26311538696289060000e+002) (23, -1.23643859863281250000e+002) (24, -1.25861206054687500000e+002) (25, -1.26178268432617190000e+002) (26, -1.24762695312500000000e+002) (27, 1.13398181152343750000e+003) (28, -1.26981750488281250000e+002) (29, -1.26655197143554690000e+002) (30, -1.26749298095703130000e+002) (31, -1.26353820800781250000e+002) (32, -1.23605850219726560000e+002) (33, 1.13362902832031250000e+003) (34, -1.30843139648437500000e+002) (35, -1.24183914184570310000e+002) (36, -1.26284622192382810000e+002) (37, -1.23352920532226560000e+002) (38, 1.13634509277343750000e+003) (39, -1.30400970458984370000e+002) (40, -1.26875900268554690000e+002) (41, 1.13422167968750000000e+003) (42, -1.23362167358398440000e+002) (43, -1.27842254638671870000e+002) (44, -1.30153930664062500000e+002) (45, -1.30747344970703120000e+002) (46, -1.26511108398437500000e+002) (47, -1.30017807006835940000e+002) (48, -1.24693069458007810000e+002) (49, -1.30286117553710940000e+002) (50, 1.13456066894531250000e+003) (51, 1.13840393066406250000e+003) (52, -1.26856307983398440000e+002) (53, -1.26723007202148440000e+002) (54, 1.13668298339843750000e+003) (55, -1.20096908569335940000e+002) (56, -1.23626052856445310000e+002) (57, -1.22723236083984370000e+002) (58, -1.25043502807617190000e+002) (59, -1.24510055541992190000e+002) (60, -1.30227813720703120000e+002) (61, -1.24482345581054690000e+002) (62, -1.26158340454101560000e+002) (63, -1.27509124755859370000e+002) (64, 1.13472131347656250000e+003) (65, -1.23384811401367190000e+002) (66, -1.22481994628906250000e+002) (67, 1.13632653808593750000e+003) (68, 1.00985186767578120000e+003) (4, -1.26499198913574220000e+002) (5, -1.24967781066894530000e+002) (6, -1.27914886474609380000e+002) (7, -1.25316490173339840000e+002) (8, -1.28069503784179690000e+002) (9, -1.23027610778808590000e+002) (10, -1.25572669982910160000e+002) (11, -1.27128501892089840000e+002) (12, -1.24535026550292970000e+002) (13, -1.24758598327636720000e+002) (14, -1.26828445434570310000e+002) (15, -1.25229957580566410000e+002) (16, -1.23606544494628910000e+002) (17, 1.14747839355468750000e+003) (18, 1.14411547851562500000e+003) (19, -1.21878074645996090000e+002) (20, -1.25027732849121090000e+002) (21, 1.14731762695312500000e+003) (22, -1.24030586242675780000e+002) (23, -1.22561256408691410000e+002) (24, -1.25615608215332030000e+002) (25, -1.24158210754394530000e+002) (26, -1.24664710998535160000e+002) (27, 1.14762841796875000000e+003) (28, -1.27491752624511720000e+002) (29, -1.22735710144042970000e+002) (30, -1.22803840637207030000e+002) (31, -1.25028511047363280000e+002) (32, -1.26824348449707030000e+002) (33, 1.14294409179687500000e+003) (34, -1.26081428527832030000e+002) (35, -1.23814384460449220000e+002) (36, -1.26156799316406250000e+002) (37, -1.24647239685058590000e+002) (38, 1.14740209960937500000e+003) (39, -1.27770011901855470000e+002) (40, -1.27277351379394530000e+002) (41, 1.14761901855468750000e+003) (42, -1.26160133361816410000e+002) (43, -1.25737495422363280000e+002) (44, -1.25019432067871090000e+002) (45, -1.25602806091308590000e+002) (46, -1.22869560241699220000e+002) (47, -1.27352302551269530000e+002) (48, -1.27312767028808590000e+002) (49, -1.25370292663574220000e+002) (50, 1.14685534667968750000e+003) (51, 1.14454296875000000000e+003) (52, -1.27786399841308590000e+002) (53, -1.24743507385253910000e+002) (54, 1.14847106933593750000e+003) (55, -1.23812507629394530000e+002) (56, -1.26719131469726560000e+002) (57, -1.22596351623535160000e+002) (58, -1.25236244201660160000e+002) (59, -1.27395591735839840000e+002) (60, -1.25584388732910160000e+002) (61, -1.24200569152832030000e+002) (62, -1.25910415649414060000e+002) (63, -1.26240463256835940000e+002) (64, 1.14752758789062500000e+003) (65, -1.25114585876464840000e+002) (66, -1.22547004699707030000e+002) (67, 1.14572314453125000000e+003) (68, 1.02761486816406250000e+003) (4, -7.78368234634399410000e-001) (5, -8.83024692535400390000e-001) (6, -8.11985373497009280000e-001) (7, -7.15226769447326660000e-001) (8, -6.53383970260620120000e-001) (9, -8.24224591255187990000e-001) (10, -7.49032497406005860000e-001) (11, -7.88112163543701170000e-001) (12, -8.39091420173645020000e-001) (13, -6.93675637245178220000e-001) (14, -7.82672584056854250000e-001) (15, -7.53158807754516600000e-001) (16, -1.13199472427368160000e-001) (17, -1.77579355239868160000e+000) (18, -2.21996855735778810000e+000) (19, -6.26822352409362790000e-001) (20, -7.32596278190612790000e-001) (21, -1.62435436248779300000e+000) (22, -6.76002621650695800000e-001) (23, -9.04951810836791990000e-001) (24, -6.66070222854614260000e-001) (25, -7.71133065223693850000e-001) (26, -7.10141658782958980000e-001) (27, -2.23644948005676270000e+000) (28, -7.46523976325988770000e-001) (29, -4.74609375000000000000e-001) (30, -9.16492223739624020000e-001) (31, -7.79305696487426760000e-001) (32, -6.80268526077270510000e-001) (33, -2.34837722778320310000e+000) (34, -7.50563502311706540000e-001) (35, -8.42093467712402340000e-001) (36, -8.10651779174804690000e-001) (37, -7.45838880538940430000e-001) (38, -1.49299478530883790000e+000) (39, -6.19897365570068360000e-001) (40, -6.60522818565368650000e-001) (41, -2.27548742294311520000e+000) (42, -6.16972565650939940000e-001) (43, -7.00999975204467770000e-001) (44, -6.19389891624450680000e-001) (45, -6.11236691474914550000e-001) (46, -7.54580020904541020000e-001) (47, -6.64781093597412110000e-001) (48, -7.28888988494873050000e-001) (49, -7.17963933944702150000e-001) (50, -2.25018239021301270000e+000) (51, -1.46502029895782470000e+000) (52, -7.97190368175506590000e-001) (53, -6.47010326385498050000e-001) (54, -1.49130928516387940000e+000) (55, -1.05705761909484860000e+000) (56, -7.02273368835449220000e-001) (57, -7.20974206924438480000e-001) (58, -8.38655591011047360000e-001) (59, -6.61890864372253420000e-001) (60, -7.28129744529724120000e-001) (61, -8.18516135215759280000e-001) (62, -8.74446988105773930000e-001) (63, -6.81321859359741210000e-001) (64, -2.47662568092346190000e+000) (65, -7.64073610305786130000e-001) (66, -9.81802523136138920000e-001) (67, -1.53781449794769290000e+000) (68, -2.38621068000793460000e+000) (4, -4.74596679210662840000e-001) (5, -3.49731624126434330000e-001) (6, -5.08071720600128170000e-001) (7, -5.40775358676910400000e-001) (8, -5.98417222499847410000e-001) (9, -4.03308272361755370000e-001) (10, -6.09686434268951420000e-001) (11, -5.02372562885284420000e-001) (12, -5.84870398044586180000e-001) (13, -3.78073096275329590000e-001) (14, -3.66993784904479980000e-001) (15, -4.49195891618728640000e-001) (16, -8.82169365882873540000e-001) (17, -2.03341531753540040000e+000) (18, -1.57853627204895020000e+000) (19, -4.05677795410156250000e-001) (20, -4.20665442943573000000e-001) (21, -2.00563716888427730000e+000) (22, -8.15819919109344480000e-001) (23, -3.73816907405853270000e-001) (24, -4.61507230997085570000e-001) (25, -2.08771347999572750000e-001) (26, -2.47187182307243350000e-001) (27, -2.13143682479858400000e+000) (28, -3.93271952867507930000e-001) (29, -5.66268026828765870000e-001) (30, -4.55492168664932250000e-001) (31, -5.56972205638885500000e-001) (32, -3.55543375015258790000e-001) (33, -1.66297745704650880000e+000) (34, -4.42500263452529910000e-001) (35, -2.49094173312187190000e-001) (36, -4.24573242664337160000e-001) (37, -4.00228977203369140000e-001) (38, -1.91277670860290530000e+000) (39, -4.00861203670501710000e-001) (40, -4.77916896343231200000e-001) (41, -2.15079355239868160000e+000) (42, -5.72676956653594970000e-001) (43, -4.85696613788604740000e-001) (44, -5.71882903575897220000e-001) (45, -3.59002172946929930000e-001) (46, -6.92571103572845460000e-001) (47, -6.14776313304901120000e-001) (48, -8.76709520816802980000e-001) (49, -4.36720997095108030000e-001) (50, -2.35318326950073240000e+000) (51, -2.16435003280639650000e+000) (52, -3.91842156648635860000e-001) (53, -5.83149731159210210000e-001) (54, -1.92384696006774900000e+000) (55, -4.99719440937042240000e-001) (56, -5.56666076183319090000e-001) (57, -5.19079387187957760000e-001) (58, -4.64670687913894650000e-001) (59, -4.25765037536621090000e-001) (60, -5.21574199199676510000e-001) (61, -5.65528929233551030000e-001) (62, -5.18556773662567140000e-001) (63, -4.84618961811065670000e-001) (64, -2.12032747268676760000e+000) (65, -5.10031640529632570000e-001) (66, -4.49755102396011350000e-001) (67, -1.91067576408386230000e+000) (68, -3.11987638473510740000e+000) (4, -7.47693777084350590000e+000) (5, -8.35840320587158200000e+000) (6, -7.85446119308471680000e+000) (7, -6.55900812149047850000e+000) (8, -9.05561065673828120000e+000) (9, -9.96597671508789060000e+000) (10, -5.04070043563842770000e+000) (11, -7.68616724014282230000e+000) (12, -8.00962162017822270000e+000) (13, -5.29076480865478520000e+000) (14, -8.81317138671875000000e+000) (15, -6.51209068298339840000e+000) (16, -5.57153654098510740000e+000) (17, 1.92937493324279790000e+000) (18, 2.96647143363952640000e+000) (19, -7.46621561050415040000e+000) (20, -6.75816869735717770000e+000) (21, 2.52148175239562990000e+000) (22, -8.17777824401855470000e+000) (23, -8.34756374359130860000e+000) (24, -8.81587696075439450000e+000) (25, -7.56361436843872070000e+000) (26, -6.55392217636108400000e+000) (27, 1.38515174388885500000e+000) (28, -5.27795600891113280000e+000) (29, -6.80069112777709960000e+000) (30, -8.55530643463134770000e+000) (31, -7.86549234390258790000e+000) (32, -8.65152454376220700000e+000) (33, 3.19096302986145020000e+000) (34, -6.76242303848266600000e+000) (35, -6.64370203018188480000e+000) (36, -5.98287916183471680000e+000) (37, -1.03255453109741210000e+001) (38, 2.41956067085266110000e+000) (39, -8.54580211639404300000e+000) (40, -5.98683929443359380000e+000) (41, 2.37663006782531740000e+000) (42, -7.59629583358764650000e+000) (43, -4.54350805282592770000e+000) (44, -6.60014152526855470000e+000) (45, -6.64313364028930660000e+000) (46, -7.90205430984497070000e+000) (47, -7.14197301864624020000e+000) (48, -9.22696971893310550000e+000) (49, -5.40488624572753910000e+000) (50, 1.15077364444732670000e+000) (51, 4.02633047103881840000e+000) (52, -5.46355962753295900000e+000) (53, -7.05588293075561520000e+000) (54, 2.58784699440002440000e+000) (55, -9.70481777191162110000e+000) (56, -7.28623723983764650000e+000) (57, -7.89170885086059570000e+000) (58, -6.43607378005981450000e+000) (59, -5.74678564071655270000e+000) (60, -5.02815008163452150000e+000) (61, -5.69855022430419920000e+000) (62, -8.07092666625976560000e+000) (63, -5.06961679458618160000e+000) (64, 1.84439086914062500000e+000) (65, -7.47228574752807620000e+000) (66, -8.32173252105712890000e+000) (67, 2.54196286201477050000e+000) (68, -8.72702503204345700000e+000) (4, -6.32410287857055660000e+000) (5, -5.12277078628540040000e+000) (6, -6.12634611129760740000e+000) (7, -6.49861860275268550000e+000) (8, -6.25729513168334960000e+000) (9, -4.16753339767456050000e+000) (10, -5.88985395431518550000e+000) (11, -6.32307767868041990000e+000) (12, -4.00640964508056640000e+000) (13, -3.60544800758361820000e+000) (14, -6.25103425979614260000e+000) (15, -6.41494607925415040000e+000) (16, -4.52268171310424800000e+000) (17, -5.50005292892456050000e+000) (18, -3.09340667724609370000e+000) (19, -5.34798860549926760000e+000) (20, -6.41887807846069340000e+000) (21, -3.81389236450195310000e+000) (22, -4.15614700317382810000e+000) (23, -4.51463985443115230000e+000) (24, -6.18243837356567380000e+000) (25, -4.72786855697631840000e+000) (26, -3.96291089057922360000e+000) (27, -3.18582105636596680000e+000) (28, -5.79503774642944340000e+000) (29, -7.32712984085083010000e+000) (30, -5.12407159805297850000e+000) (31, -5.66903829574584960000e+000) (32, -5.86558103561401370000e+000) (33, -2.26367759704589840000e+000) (34, -6.21742105484008790000e+000) (35, -3.85593914985656740000e+000) (36, -5.99820756912231450000e+000) (37, -8.44070148468017580000e+000) (38, -3.81456184387207030000e+000) (39, -6.01759862899780270000e+000) (40, -5.85054731369018550000e+000) (41, -3.20136976242065430000e+000) (42, -8.28385066986083980000e+000) (43, -4.27051067352294920000e+000) (44, -6.49146032333374020000e+000) (45, -6.42216253280639650000e+000) (46, -5.28480768203735350000e+000) (47, -7.62595224380493160000e+000) (48, -6.75861406326293950000e+000) (49, -6.04372644424438480000e+000) (50, -4.22858953475952150000e+000) (51, -3.11807250976562500000e+000) (52, -6.08747434616088870000e+000) (53, -3.90089535713195800000e+000) (54, -5.93604326248168950000e+000) (55, -5.04704236984252930000e+000) (56, -6.48713731765747070000e+000) (57, -7.21405458450317380000e+000) (58, -3.25536417961120610000e+000) (59, -5.85316228866577150000e+000) (60, -5.71181821823120120000e+000) (61, -6.47476530075073240000e+000) (62, -6.06905889511108400000e+000) (63, -6.26644659042358400000e+000) (64, -3.36043977737426760000e+000) (65, -4.80181455612182620000e+000) (66, -3.38498854637146000000e+000) (67, -5.33586835861206050000e+000) (68, -1.38182792663574220000e+001) (4, -1.73318252563476560000e+001) (5, -1.73430786132812500000e+001) (6, -1.72113533020019530000e+001) (7, -1.72181720733642580000e+001) (8, -1.74124221801757810000e+001) (9, -1.71871757507324220000e+001) (10, -1.73523139953613280000e+001) (11, -1.71990718841552730000e+001) (12, -1.73671073913574220000e+001) (13, -1.72153930664062500000e+001) (14, -1.72034130096435550000e+001) (15, -1.72779178619384770000e+001) (16, -1.76413269042968750000e+001) (17, 1.78859664916992190000e+002) (18, 1.79362472534179690000e+002) (19, -1.72080116271972660000e+001) (20, -1.73525428771972660000e+001) (21, 1.78940200805664060000e+002) (22, -1.76291007995605470000e+001) (23, -1.72067031860351560000e+001) (24, -1.73544235229492190000e+001) (25, -1.72210273742675780000e+001) (26, -1.72755069732666020000e+001) (27, 1.78591690063476560000e+002) (28, -1.72709388732910160000e+001) (29, -1.73983955383300780000e+001) (30, -1.73135261535644530000e+001) (31, -1.73021850585937500000e+001) (32, -1.71160488128662110000e+001) (33, 1.79389755249023440000e+002) (34, -1.72411842346191410000e+001) (35, -1.72679138183593750000e+001) (36, -1.73348217010498050000e+001) (37, -1.72090244293212890000e+001) (38, 1.78781814575195310000e+002) (39, -1.72078742980957030000e+001) (40, -1.72125473022460940000e+001) (41, 1.78821243286132810000e+002) (42, -1.72983932495117190000e+001) (43, -1.71832847595214840000e+001) (44, -1.73300571441650390000e+001) (45, -1.72437992095947270000e+001) (46, -1.74209499359130860000e+001) (47, -1.73898315429687500000e+001) (48, -1.75715370178222660000e+001) (49, -1.73546791076660160000e+001) (50, 1.78619644165039060000e+002) (51, 1.79005905151367190000e+002) (52, -1.71951084136962890000e+001) (53, -1.72562351226806640000e+001) (54, 1.78889816284179690000e+002) (55, -1.73447837829589840000e+001) (56, -1.72221565246582030000e+001) (57, -1.73148059844970700000e+001) (58, -1.72226543426513670000e+001) (59, -1.71908340454101560000e+001) (60, -1.71981163024902340000e+001) (61, -1.72241744995117190000e+001) (62, -1.73806648254394530000e+001) (63, -1.72982273101806640000e+001) (64, 1.78803421020507810000e+002) (65, -1.73052291870117190000e+001) (66, -1.73084564208984370000e+001) (67, 1.78967422485351560000e+002) (68, 1.61033798217773440000e+002) (4, -1.03248512268066410000e+002) (5, -1.02637100219726560000e+002) (6, -1.02791168212890620000e+002) (7, -1.02871765136718750000e+002) (8, -1.02745338439941410000e+002) (9, -1.04091194152832030000e+002) (10, -1.02824302673339840000e+002) (11, -1.03221107482910160000e+002) (12, -1.02598991394042970000e+002) (13, -1.02495780944824220000e+002) (14, -1.02301483154296870000e+002) (15, -1.02846229553222660000e+002) (16, -1.02142890930175780000e+002) (17, 1.00465582275390620000e+003) (18, 1.00138067626953120000e+003) (19, -1.04533920288085940000e+002) (20, -1.02927078247070310000e+002) (21, 1.00289141845703120000e+003) (22, -1.02186454772949220000e+002) (23, -1.04342674255371090000e+002) (24, -1.03896934509277340000e+002) (25, -1.02985580444335940000e+002) (26, -1.02863365173339840000e+002) (27, 1.00258746337890620000e+003) (28, -1.03072265625000000000e+002) (29, -1.02201866149902340000e+002) (30, -1.04693283081054690000e+002) (31, -1.03184463500976560000e+002) (32, -1.02299652099609370000e+002) (33, 1.00134674072265620000e+003) (34, -1.02738624572753910000e+002) (35, -1.04941703796386720000e+002) (36, -1.03199119567871090000e+002) (37, -1.03230720520019530000e+002) (38, 1.00283184814453120000e+003) (39, -1.02890823364257810000e+002) (40, -1.03022834777832030000e+002) (41, 1.00283551025390620000e+003) (42, -1.02357803344726560000e+002) (43, -1.03454483032226560000e+002) (44, -1.02692871093750000000e+002) (45, -1.03143554687500000000e+002) (46, -1.03007118225097660000e+002) (47, -1.02841735839843750000e+002) (48, -1.03465835571289060000e+002) (49, -1.02804939270019530000e+002) (50, 1.00246710205078120000e+003) (51, 1.00453448486328120000e+003) (52, -1.03156700134277340000e+002) (53, -1.03319091796875000000e+002) (54, 1.00273858642578120000e+003) (55, -1.07031387329101560000e+002) (56, -1.02853202819824220000e+002) (57, -1.02295761108398440000e+002) (58, -1.03326164245605470000e+002) (59, -1.04258216857910160000e+002) (60, -1.03010353088378910000e+002) (61, -1.03618659973144530000e+002) (62, -1.04317047119140620000e+002) (63, -1.03865982055664060000e+002) (64, 1.00244317626953120000e+003) (65, -1.02874443054199220000e+002) (66, -1.06128189086914060000e+002) (67, 1.00446490478515620000e+003) (68, 9.01968383789062500000e+002) (4, -2.37757415771484380000e+001) (5, -2.35693778991699220000e+001) (6, -2.36962795257568360000e+001) (7, -2.37530479431152340000e+001) (8, -2.38228950500488280000e+001) (9, -2.34689598083496090000e+001) (10, -2.36174888610839840000e+001) (11, -2.37242851257324220000e+001) (12, -2.36612892150878910000e+001) (13, -2.36575202941894530000e+001) (14, -2.36084480285644530000e+001) (15, -2.37941703796386720000e+001) (16, -2.41846218109130860000e+001) (17, 2.40568176269531250000e+002) (18, 2.41032043457031250000e+002) (19, -2.36119632720947270000e+001) (20, -2.37033939361572270000e+001) (21, 2.40597229003906250000e+002) (22, -2.39948844909667970000e+001) (23, -2.36227302551269530000e+001) (24, -2.36023597717285160000e+001) (25, -2.36091785430908200000e+001) (26, -2.37566947937011720000e+001) (27, 2.40568359375000000000e+002) (28, -2.38091125488281250000e+001) (29, -2.35983009338378910000e+001) (30, -2.36979084014892580000e+001) (31, -2.37067508697509770000e+001) (32, -2.36186122894287110000e+001) (33, 2.40977050781250000000e+002) (34, -2.38794689178466800000e+001) (35, -2.34620208740234380000e+001) (36, -2.35491008758544920000e+001) (37, -2.35376625061035160000e+001) (38, 2.40545593261718750000e+002) (39, -2.36303901672363280000e+001) (40, -2.37491645812988280000e+001) (41, 2.40620666503906250000e+002) (42, -2.35816993713378910000e+001) (43, -2.37753963470458980000e+001) (44, -2.36989707946777340000e+001) (45, -2.36797504425048830000e+001) (46, -2.39206542968750000000e+001) (47, -2.37387466430664060000e+001) (48, -2.38731689453125000000e+001) (49, -2.35800933837890630000e+001) (50, 2.40479919433593750000e+002) (51, 2.40648681640625000000e+002) (52, -2.35688896179199220000e+001) (53, -2.37990989685058590000e+001) (54, 2.40523132324218750000e+002) (55, -2.36932449340820310000e+001) (56, -2.36102294921875000000e+001) (57, -2.35688858032226560000e+001) (58, -2.35827369689941410000e+001) (59, -2.35370121002197270000e+001) (60, -2.37559070587158200000e+001) (61, -2.36795883178710940000e+001) (62, -2.35654029846191410000e+001) (63, -2.38282947540283200000e+001) (64, 2.40624389648437500000e+002) (65, -2.37355728149414060000e+001) (66, -2.36683101654052730000e+001) (67, 2.40460205078125000000e+002) (68, 2.16567276000976560000e+002) (4, -2.54227638244628910000e-001) (5, 3.30732369422912600000e+000) (6, -1.08112561702728270000e+000) (7, -6.34712517261505130000e-001) (8, -8.69702994823455810000e-001) (9, 2.56666970252990720000e+000) (10, -9.74408924579620360000e-001) (11, -1.37664422392845150000e-001) (12, 3.04780220985412600000e+000) (13, -1.73437893390655520000e+000) (14, -1.16295802593231200000e+000) (15, -7.61755585670471190000e-001) (16, 3.57615065574646000000e+000) (17, -2.07545433044433590000e+001) (18, -1.57944498062133790000e+001) (19, -1.76596415042877200000e+000) (20, -6.36054337024688720000e-001) (21, -1.77752227783203130000e+001) (22, 3.07276797294616700000e+000) (23, 2.36662745475769040000e+000) (24, 3.94159629940986630000e-002) (25, -4.20800566673278810000e-001) (26, -2.47857117652893070000e+000) (27, -1.69232482910156250000e+001) (28, -1.66222298145294190000e+000) (29, -1.02594065666198730000e+000) (30, 2.50049924850463870000e+000) (31, -4.63377594947814940000e-001) (32, -6.47189199924468990000e-001) (33, -1.56130113601684570000e+001) (34, -1.11962080001831050000e+000) (35, 3.16088223457336430000e+000) (36, 3.75231593847274780000e-001) (37, -1.17606151103973390000e+000) (38, -1.79445991516113280000e+001) (39, -6.45417273044586180000e-001) (40, -2.09013247489929200000e+000) (41, -1.60675983428955080000e+001) (42, -7.10765421390533450000e-001) (43, 4.26508262753486630000e-002) (44, -5.02602458000183110000e-001) (45, -7.16490328311920170000e-001) (46, 6.74669563770294190000e-001) (47, -7.72966265678405760000e-001) (48, -2.02244544029235840000e+000) (49, -1.02355074882507320000e+000) (50, -1.71721839904785160000e+001) (51, -1.64676017761230470000e+001) (52, -1.88075363636016850000e+000) (53, 3.80980706214904790000e+000) (54, -1.84034614562988280000e+001) (55, 8.22815835475921630000e-001) (56, -2.67416596412658690000e-001) (57, -9.16884720325469970000e-001) (58, 3.68999171257019040000e+000) (59, -2.44098410010337830000e-001) (60, -1.32148981094360350000e+000) (61, -5.45169234275817870000e-001) (62, 1.63480415940284730000e-001) (63, 3.49894791841506960000e-001) (64, -1.63013019561767580000e+001) (65, -5.46078562736511230000e-001) (66, 1.28098571300506590000e+000) (67, -1.79236946105957030000e+001) (68, -2.05905113220214840000e+001) (4, 4.30412406921386720000e+001) (5, 3.96781692504882810000e+001) (6, 4.06730003356933590000e+001) (7, 4.05304603576660160000e+001) (8, 4.33220252990722660000e+001) (9, 4.23650588989257810000e+001) (10, 4.04538841247558590000e+001) (11, 4.29637832641601560000e+001) (12, 4.00060043334960940000e+001) (13, 4.13161392211914060000e+001) (14, 4.35216827392578130000e+001) (15, 4.04269981384277340000e+001) (16, 4.03978195190429690000e+001) (17, -3.73898376464843750000e+002) (18, -3.79092407226562500000e+002) (19, 4.03366661071777340000e+001) (20, 4.08149528503417970000e+001) (21, -3.77034515380859370000e+002) (22, 3.95798950195312500000e+001) (23, 4.23156623840332030000e+001) (24, 4.09956359863281250000e+001) (25, 3.99189720153808590000e+001) (26, 2.91103763580322270000e+001) (27, -3.76879852294921870000e+002) (28, 4.24630088806152340000e+001) (29, 4.14098091125488280000e+001) (30, 4.36045913696289060000e+001) (31, 4.27450065612792970000e+001) (32, 4.32532615661621090000e+001) (33, -3.79394561767578120000e+002) (34, 4.09538269042968750000e+001) (35, 4.04285469055175780000e+001) (36, 4.14796485900878910000e+001) (37, 4.36153526306152340000e+001) (38, -3.77033782958984370000e+002) (39, 4.08706970214843750000e+001) (40, 4.28150024414062500000e+001) (41, -3.76776336669921870000e+002) (42, 4.44902610778808590000e+001) (43, 3.88395690917968750000e+001) (44, 4.08530082702636720000e+001) (45, 4.06859855651855470000e+001) (46, 4.28831787109375000000e+001) (47, 4.40249938964843750000e+001) (48, 4.10910911560058590000e+001) (49, 4.10274162292480470000e+001) (50, -3.77851287841796870000e+002) (51, -3.79899627685546870000e+002) (52, 4.21970481872558590000e+001) (53, 3.87709770202636720000e+001) (54, -3.73245941162109370000e+002) (55, 3.16463489532470700000e+001) (56, 4.34180564880371090000e+001) (57, 4.54523239135742190000e+001) (58, 3.93738136291503910000e+001) (59, 4.19442100524902340000e+001) (60, 4.05334930419921880000e+001) (61, 4.23642120361328130000e+001) (62, 4.09276237487792970000e+001) (63, 4.15217514038085940000e+001) (64, -3.76538879394531250000e+002) (65, 4.00416603088378910000e+001) (66, 4.15591621398925780000e+001) (67, -3.75537628173828120000e+002) (68, -3.29232604980468750000e+002) (4, -4.47483491897583010000e+000) (5, -1.76735699176788330000e+000) (6, -2.11348128318786620000e+000) (7, -1.70507347583770750000e+000) (8, -5.23967313766479490000e+000) (9, -1.93952202796936040000e+000) (10, -1.74487650394439700000e+000) (11, -4.28563070297241210000e+000) (12, -1.37560212612152100000e+000) (13, -2.22576737403869630000e+000) (14, -5.34628629684448240000e+000) (15, -1.63403570652008060000e+000) (16, -3.73887628316879270000e-001) (17, -2.59927120208740230000e+001) (18, -2.37482681274414060000e+001) (19, -4.65991449356079100000e+000) (20, -1.47972309589385990000e+000) (21, -2.61861171722412110000e+001) (22, -1.68515026569366460000e+000) (23, -2.30050921440124510000e+000) (24, -4.42321825027465820000e+000) (25, -2.00593543052673340000e+000) (26, -2.56853222846984860000e+000) (27, -2.44202136993408200000e+001) (28, -2.72388720512390140000e+000) (29, -5.20811033248901370000e+000) (30, -2.40086817741394040000e+000) (31, -4.38165998458862300000e+000) (32, -5.44137525558471680000e+000) (33, -2.37041378021240230000e+001) (34, -2.24221777915954590000e+000) (35, -2.55292248725891110000e+000) (36, -4.00616884231567380000e+000) (37, -4.72966432571411130000e+000) (38, -2.60124244689941410000e+001) (39, -1.35432326793670650000e+000) (40, -2.66387724876403810000e+000) (41, -2.41331520080566410000e+001) (42, -5.02953863143920900000e+000) (43, 7.56448730826377870000e-002) (44, -2.04911351203918460000e+000) (45, -1.44477105140686040000e+000) (46, -2.54953503608703610000e+000) (47, -4.83327531814575200000e+000) (48, -6.69031763076782230000e+000) (49, -1.83654701709747310000e+000) (50, -2.47787590026855470000e+001) (51, -2.42999229431152340000e+001) (52, -2.90754914283752440000e+000) (53, -2.60145962238311770000e-001) (54, -2.69204635620117190000e+001) (55, -2.11332678794860840000e+000) (56, -4.42128419876098630000e+000) (57, -5.52798414230346680000e+000) (58, -1.66420423984527590000e+000) (59, -4.65557813644409180000e+000) (60, -2.14769005775451660000e+000) (61, -4.98380994796752930000e+000) (62, -4.02301263809204100000e+000) (63, -3.60379266738891600000e+000) (64, -2.51867237091064450000e+001) (65, -4.82791376113891600000e+000) (66, -2.58545899391174320000e+000) (67, -2.64957141876220700000e+001) (68, -3.30242805480957030000e+001) (4, -1.25394638061523440000e+002) (5, -1.26124511718750000000e+002) (6, -1.25737106323242190000e+002) (7, -1.25743118286132810000e+002) (8, -1.27188491821289060000e+002) (9, -1.23978118896484370000e+002) (10, -1.25917297363281250000e+002) (11, -1.26037597656250000000e+002) (12, -1.24905853271484370000e+002) (13, -1.26676269531250000000e+002) (14, -1.26096832275390620000e+002) (15, -1.25822036743164060000e+002) (16, -1.25032836914062500000e+002) (17, 1.14083959960937500000e+003) (18, 1.13861352539062500000e+003) (19, -1.23504898071289060000e+002) (20, -1.25754959106445310000e+002) (21, 1.14113403320312500000e+003) (22, -1.24338150024414060000e+002) (23, -1.23416488647460940000e+002) (24, -1.24543838500976560000e+002) (25, -1.25215530395507810000e+002) (26, -1.26700439453125000000e+002) (27, 1.14006481933593750000e+003) (28, -1.26091186523437500000e+002) (29, -1.26003356933593750000e+002) (30, -1.24500228881835940000e+002) (31, -1.25840682983398440000e+002) (32, -1.26338485717773440000e+002) (33, 1.13835754394531250000e+003) (34, -1.27137145996093750000e+002) (35, -1.22571502685546870000e+002) (36, -1.24829666137695310000e+002) (37, -1.25009735107421870000e+002) (38, 1.14093310546875000000e+003) (39, -1.25790893554687500000e+002) (40, -1.26345489501953120000e+002) (41, 1.14052612304687500000e+003) (42, -1.25504547119140620000e+002) (43, -1.27130279541015620000e+002) (44, -1.25636123657226560000e+002) (45, -1.26394424438476560000e+002) (46, -1.25620803833007810000e+002) (47, -1.25754547119140630000e+002) (48, -1.24968933105468750000e+002) (49, -1.25982513427734380000e+002) (50, 1.14056750488281250000e+003) (51, 1.13458666992187500000e+003) (52, -1.26548645019531250000e+002) (53, -1.25633895874023440000e+002) (54, 1.13932946777343750000e+003) (55, -1.18662078857421870000e+002) (56, -1.25656860351562500000e+002) (57, -1.24872116088867190000e+002) (58, -1.24563720703125000000e+002) (59, -1.25336334228515620000e+002) (60, -1.26051986694335940000e+002) (61, -1.25270553588867190000e+002) (62, -1.24547607421875000000e+002) (63, -1.26515518188476560000e+002) (64, 1.14098388671875000000e+003) (65, -1.26176315307617190000e+002) (66, -1.20908615112304690000e+002) (67, 1.13936572265625000000e+003) (68, 1.01667773437500000000e+003) (4, -1.16314563751220700000e+001) (5, -1.33983058929443360000e+001) (6, -1.15784587860107420000e+001) (7, -1.12327423095703130000e+001) (8, -1.17626190185546880000e+001) (9, -1.37859840393066410000e+001) (10, -1.08890190124511720000e+001) (11, -1.16494007110595700000e+001) (12, -1.27897834777832030000e+001) (13, -1.14462356567382810000e+001) (14, -1.19812164306640630000e+001) (15, -1.12483921051025390000e+001) (16, -1.13886890411376950000e+001) (17, -3.81345901489257810000e+001) (18, -3.92487182617187500000e+001) (19, -1.45487747192382810000e+001) (20, -1.14381237030029300000e+001) (21, -3.89169158935546880000e+001) (22, -1.27614574432373050000e+001) (23, -1.36843261718750000000e+001) (24, -1.26370010375976560000e+001) (25, -1.24991893768310550000e+001) (26, -1.35303516387939450000e+001) (27, -4.03670730590820310000e+001) (28, -1.09276428222656250000e+001) (29, -1.10254745483398440000e+001) (30, -1.34857769012451170000e+001) (31, -1.20304336547851560000e+001) (32, -1.19467525482177730000e+001) (33, -3.91300506591796880000e+001) (34, -1.07459068298339840000e+001) (35, -1.25505161285400390000e+001) (36, -1.18527679443359370000e+001) (37, -1.30678024291992190000e+001) (38, -3.89897994995117190000e+001) (39, -1.16511478424072270000e+001) (40, -1.10660228729248050000e+001) (41, -3.97881469726562500000e+001) (42, -1.17754802703857420000e+001) (43, -1.10096149444580080000e+001) (44, -1.14507026672363280000e+001) (45, -1.09379119873046880000e+001) (46, -1.22136230468750000000e+001) (47, -1.15939540863037110000e+001) (48, -1.21552429199218750000e+001) (49, -1.10752563476562500000e+001) (50, -4.02992935180664060000e+001) (51, -3.68908500671386720000e+001) (52, -1.08899440765380860000e+001) (53, -1.21714477539062500000e+001) (54, -3.87589645385742190000e+001) (55, -1.62837848663330080000e+001) (56, -1.16016693115234380000e+001) (57, -1.20104618072509770000e+001) (58, -1.21627044677734380000e+001) (59, -1.14216613769531250000e+001) (60, -1.08366737365722660000e+001) (61, -1.23218479156494140000e+001) (62, -1.22734031677246090000e+001) (63, -1.16967411041259770000e+001) (64, -4.00857391357421880000e+001) (65, -1.23275489807128910000e+001) (66, -1.37866954803466800000e+001) (67, -3.89026031494140630000e+001) (68, -5.22018051147460940000e+001) (4, -1.15889419555664060000e+002) (5, -1.21516159057617190000e+002) (6, -1.15549911499023440000e+002) (7, -1.15627395629882810000e+002) (8, -1.15604751586914060000e+002) (9, -1.20126968383789060000e+002) (10, -1.16051986694335940000e+002) (11, -1.16322082519531250000e+002) (12, -1.16651794433593750000e+002) (13, -1.15735931396484370000e+002) (14, -1.15204803466796870000e+002) (15, -1.15577575683593750000e+002) (16, -1.21574935913085940000e+002) (17, 1.08429772949218750000e+003) (18, 1.07723095703125000000e+003) (19, -1.13711822509765620000e+002) (20, -1.15576339721679690000e+002) (21, 1.07875109863281250000e+003) (22, -1.16323928833007810000e+002) (23, -1.20423339843750000000e+002) (24, -1.16836410522460940000e+002) (25, -1.15337554931640620000e+002) (26, -1.18988967895507810000e+002) (27, 1.07782226562500000000e+003) (28, -1.15906646728515620000e+002) (29, -1.15515533447265620000e+002) (30, -1.21096206665039060000e+002) (31, -1.16402023315429690000e+002) (32, -1.15446762084960940000e+002) (33, 1.07731652832031250000e+003) (34, -1.15614486694335940000e+002) (35, -1.19023834228515620000e+002) (36, -1.16712860107421870000e+002) (37, -1.16064376831054690000e+002) (38, 1.07868713378906250000e+003) (39, -1.15618026733398440000e+002) (40, -1.15670394897460940000e+002) (41, 1.07817419433593750000e+003) (42, -1.15505599975585940000e+002) (43, -1.17120956420898440000e+002) (44, -1.15663681030273440000e+002) (45, -1.16209640502929690000e+002) (46, -1.15792129516601560000e+002) (47, -1.15792572021484370000e+002) (48, -1.16272750854492190000e+002) (49, -1.15944961547851560000e+002) (50, 1.07743164062500000000e+003) (51, 1.08303063964843750000e+003) (52, -1.15893966674804690000e+002) (53, -1.16997451782226560000e+002) (54, 1.08402416992187500000e+003) (55, -1.20440872192382810000e+002) (56, -1.15807373046875000000e+002) (57, -1.14851394653320310000e+002) (58, -1.20088973999023440000e+002) (59, -1.15518692016601560000e+002) (60, -1.15835586547851560000e+002) (61, -1.15806579589843750000e+002) (62, -1.17099288940429690000e+002) (63, -1.17352081298828120000e+002) (64, 1.07864416503906250000e+003) (65, -1.16293075561523440000e+002) (66, -1.16412643432617190000e+002) (67, 1.08368847656250000000e+003) (68, 9.64375183105468750000e+002) (4, 3.29270172119140630000e+001) (5, 3.37429885864257810000e+001) (6, 3.30649642944335940000e+001) (7, 3.27691612243652340000e+001) (8, 3.36223602294921880000e+001) (9, 3.13252067565917970000e+001) (10, 3.27413177490234380000e+001) (11, 3.21683425903320310000e+001) (12, 3.13382301330566410000e+001) (13, 3.08648395538330080000e+001) (14, 3.09397201538085940000e+001) (15, 3.28250236511230470000e+001) (16, 3.42276916503906250000e+001) (17, -2.67876892089843750000e+002) (18, -2.71671020507812500000e+002) (19, 3.79493484497070310000e+001) (20, 3.28669242858886720000e+001) (21, -2.68743896484375000000e+002) (22, 3.13236579895019530000e+001) (23, 3.13763599395751950000e+001) (24, 3.34755477905273440000e+001) (25, 3.24695663452148440000e+001) (26, -8.48032474517822270000e-001) (27, -2.71191497802734370000e+002) (28, 3.05741748809814450000e+001) (29, 3.36854972839355470000e+001) (30, 3.09241447448730470000e+001) (31, 3.14571647644042970000e+001) (32, 3.08690853118896480000e+001) (33, -2.71743988037109370000e+002) (34, 3.31728591918945310000e+001) (35, 3.51346969604492190000e+001) (36, 3.34360809326171880000e+001) (37, 3.33403930664062500000e+001) (38, -2.68727935791015620000e+002) (39, 3.27487220764160160000e+001) (40, 3.09010181427001950000e+001) (41, -2.71013427734375000000e+002) (42, 3.35068016052246090000e+001) (43, 3.02035274505615230000e+001) (44, 3.29568557739257810000e+001) (45, 3.23517913818359370000e+001) (46, 3.15528793334960940000e+001) (47, 3.04094257354736330000e+001) (48, 3.51606369018554690000e+001) (49, 3.27446556091308590000e+001) (50, -2.71126312255859380000e+002) (51, -2.69550659179687500000e+002) (52, 3.31046066284179690000e+001) (53, 3.06326065063476560000e+001) (54, -2.68081695556640620000e+002) (55, 6.48338794708251950000e-001) (56, 3.30610198974609380000e+001) (57, 3.16674156188964840000e+001) (58, 3.20592803955078130000e+001) (59, 3.50011520385742190000e+001) (60, 3.29592552185058590000e+001) (61, 3.49240379333496090000e+001) (62, 3.30165252685546880000e+001) (63, 3.27586059570312500000e+001) (64, -2.70805358886718750000e+002) (65, 3.16235046386718750000e+001) (66, 3.45160675048828130000e+001) (67, -2.68447753906250000000e+002) (68, -2.34350051879882810000e+002) (4, -3.37779116630554200000e+000) (5, -3.82588458061218260000e+000) (6, -3.23962140083312990000e+000) (7, -3.15583014488220210000e+000) (8, -3.07466769218444820000e+000) (9, -2.40136003494262700000e+000) (10, -3.33360552787780760000e+000) (11, -3.35493159294128420000e+000) (12, -3.63973307609558110000e+000) (13, -3.11471772193908690000e+000) (14, -3.24729561805725100000e+000) (15, -3.17256760597229000000e+000) (16, -4.65227079391479490000e+000) (17, -1.04011936187744140000e+001) (18, -9.28860950469970700000e+000) (19, -4.50557470321655270000e+000) (20, -3.11539149284362790000e+000) (21, -9.86300754547119140000e+000) (22, -3.98447608947753910000e+000) (23, -3.09218001365661620000e+000) (24, -2.79806113243103030000e+000) (25, -3.89411973953247070000e+000) (26, -4.56159448623657230000e+000) (27, -9.99421405792236330000e+000) (28, -3.18858218193054200000e+000) (29, -9.27888453006744380000e-002) (30, -3.57922863960266110000e+000) (31, -3.63729453086853030000e+000) (32, -2.67932987213134770000e+000) (33, -9.00817108154296870000e+000) (34, -3.45881104469299320000e+000) (35, -3.06553149223327640000e+000) (36, -2.38353514671325680000e+000) (37, -3.32061219215393070000e+000) (38, -9.82200050354003910000e+000) (39, -3.46718859672546390000e+000) (40, -3.08227181434631350000e+000) (41, -9.84387207031250000000e+000) (42, -3.22555041313171390000e+000) (43, -3.58970904350280760000e+000) (44, -3.03648161888122560000e+000) (45, -4.06131124496459960000e+000) (46, -4.07263469696044920000e+000) (47, -3.32883810997009280000e+000) (48, -2.94597411155700680000e+000) (49, -3.19977688789367680000e+000) (50, -1.02221431732177730000e+001) (51, -9.76992988586425780000e+000) (52, -2.92070889472961430000e+000) (53, -4.00693178176879880000e+000) (54, -9.31714534759521480000e+000) (55, -3.12118077278137210000e+000) (56, -3.31217122077941890000e+000) (57, -2.78700828552246090000e+000) (58, -3.51735186576843260000e+000) (59, -3.23076224327087400000e+000) (60, -3.43470835685729980000e+000) (61, -3.63692498207092290000e+000) (62, -2.50899624824523930000e+000) (63, -3.18513178825378420000e+000) (64, -9.96262264251708980000e+000) (65, -3.22378611564636230000e+000) (66, -1.00849950313568120000e+000) (67, -9.79775714874267580000e+000) (68, -9.46735954284667970000e+000) (4, -1.29043457031250000000e+002) (5, -1.28896957397460940000e+002) (6, -1.29256027221679690000e+002) (7, -1.29203384399414060000e+002) (8, -1.31468200683593750000e+002) (9, -1.29881988525390620000e+002) (10, -1.29604995727539060000e+002) (11, -1.29341995239257810000e+002) (12, -1.28888839721679690000e+002) (13, -1.29245727539062500000e+002) (14, -1.28529174804687500000e+002) (15, -1.29276473999023440000e+002) (16, -1.28976654052734380000e+002) (17, 1.15071850585937500000e+003) (18, 1.15698400878906250000e+003) (19, -1.26378936767578130000e+002) (20, -1.28906265258789060000e+002) (21, 1.15866735839843750000e+003) (22, -1.28911254882812500000e+002) (23, -1.27867271423339840000e+002) (24, -1.31717453002929690000e+002) (25, -1.28198364257812500000e+002) (26, -1.26727294921875000000e+002) (27, 1.15886608886718750000e+003) (28, -1.29582534790039060000e+002) (29, -1.27985404968261720000e+002) (30, -1.27643463134765620000e+002) (31, -1.31166885375976560000e+002) (32, -1.28750839233398440000e+002) (33, 1.15807897949218750000e+003) (34, -1.32264907836914060000e+002) (35, -1.26586563110351560000e+002) (36, -1.31961044311523440000e+002) (37, -1.28719268798828120000e+002) (38, 1.15862524414062500000e+003) (39, -1.29060089111328120000e+002) (40, -1.29137649536132810000e+002) (41, 1.15918151855468750000e+003) (42, -1.26960876464843750000e+002) (43, -1.30257308959960940000e+002) (44, -1.29117843627929690000e+002) (45, -1.29457336425781250000e+002) (46, -1.30182907104492190000e+002) (47, -1.28799011230468750000e+002) (48, -1.31844390869140620000e+002) (49, -1.29398056030273440000e+002) (50, 1.15965063476562500000e+003) (51, 1.15580114746093750000e+003) (52, -1.29843582153320310000e+002) (53, -1.29147964477539060000e+002) (54, 1.15694775390625000000e+003) (55, -1.27940986633300780000e+002) (56, -1.28901184082031250000e+002) (57, -1.26320487976074220000e+002) (58, -1.27321884155273440000e+002) (59, -1.31246414184570310000e+002) (60, -1.29539657592773440000e+002) (61, -1.28592681884765620000e+002) (62, -1.32096694946289060000e+002) (63, -1.30240097045898440000e+002) (64, 1.15902465820312500000e+003) (65, -1.31167160034179690000e+002) (66, -1.24461097717285160000e+002) (67, 1.15895715332031250000e+003) (68, 1.02692309570312500000e+003) (4, -1.26662063598632810000e+002) (5, -1.23215263366699220000e+002) (6, -1.26947410583496090000e+002) (7, -1.26847099304199220000e+002) (8, -1.26285629272460940000e+002) (9, -1.23611648559570310000e+002) (10, -1.27063201904296870000e+002) (11, -1.26953910827636720000e+002) (12, -1.23030570983886720000e+002) (13, -1.26858413696289060000e+002) (14, -1.26515464782714840000e+002) (15, -1.26912376403808590000e+002) (16, -1.23223503112792970000e+002) (17, 1.12534704589843750000e+003) (18, 1.14048559570312500000e+003) (19, -1.24450653076171870000e+002) (20, -1.26729942321777340000e+002) (21, 1.13792590332031250000e+003) (22, -1.26542739868164060000e+002) (23, -1.23279693603515620000e+002) (24, -1.26915267944335940000e+002) (25, -1.26183258056640620000e+002) (26, -1.26124015808105470000e+002) (27, 1.14097546386718750000e+003) (28, -1.27065376281738280000e+002) (29, -1.26387481689453120000e+002) (30, -1.23341400146484370000e+002) (31, -1.26712318420410160000e+002) (32, -1.26581886291503910000e+002) (33, 1.14050695800781250000e+003) (34, -1.26769744873046870000e+002) (35, -1.20646591186523440000e+002) (36, -1.27199493408203130000e+002) (37, -1.26377830505371090000e+002) (38, 1.13786828613281250000e+003) (39, -1.26874458312988280000e+002) (40, -1.26803794860839840000e+002) (41, 1.14106713867187500000e+003) (42, -1.26428695678710940000e+002) (43, -1.27614036560058590000e+002) (44, -1.26858528137207030000e+002) (45, -1.27153709411621090000e+002) (46, -1.23015144348144530000e+002) (47, -1.26627342224121090000e+002) (48, -1.27070510864257810000e+002) (49, -1.26903182983398440000e+002) (50, 1.14139672851562500000e+003) (51, 1.13750695800781250000e+003) (52, -1.27205924987792970000e+002) (53, -1.27023193359375000000e+002) (54, 1.13842016601562500000e+003) (55, -1.23855346679687500000e+002) (56, -1.26561866760253910000e+002) (57, -1.25917709350585940000e+002) (58, -1.23236473083496090000e+002) (59, -1.26595832824707030000e+002) (60, -1.27039047241210940000e+002) (61, -1.26466217041015620000e+002) (62, -1.27165641784667970000e+002) (63, -1.27584190368652340000e+002) (64, 1.14135144042968750000e+003) (65, -1.26881042480468750000e+002) (66, -1.20119949340820310000e+002) (67, 1.13805786132812500000e+003) (68, 1.00339916992187500000e+003) (4, -1.44308593750000000000e+002) (5, -1.42115737915039060000e+002) (6, -1.45655715942382810000e+002) (7, -1.45917160034179690000e+002) (8, -1.45831665039062500000e+002) (9, -1.42560821533203120000e+002) (10, -1.45826309204101560000e+002) (11, -1.46135955810546870000e+002) (12, -1.42771530151367190000e+002) (13, -1.46080032348632810000e+002) (14, -1.44273086547851560000e+002) (15, -1.45679946899414060000e+002) (16, -1.44046966552734370000e+002) (17, 1.16095886230468750000e+003) (18, 1.15755468750000000000e+003) (19, -1.42023513793945310000e+002) (20, -1.44674804687500000000e+002) (21, 1.15769335937500000000e+003) (22, -1.45167877197265620000e+002) (23, -1.42543563842773440000e+002) (24, -1.45868148803710940000e+002) (25, -1.43361022949218750000e+002) (26, -1.44725280761718750000e+002) (27, 1.15767126464843750000e+003) (28, -1.45887832641601560000e+002) (29, -1.42543197631835940000e+002) (30, -1.43484786987304690000e+002) (31, -1.45584320068359370000e+002) (32, -1.44110427856445310000e+002) (33, 1.15738012695312500000e+003) (34, -1.45996353149414060000e+002) (35, -1.42988632202148440000e+002) (36, -1.46104263305664060000e+002) (37, -1.43753311157226560000e+002) (38, 1.15772631835937500000e+003) (39, -1.45726806640625000000e+002) (40, -1.45801986694335940000e+002) (41, 1.15756250000000000000e+003) (42, -1.44204055786132810000e+002) (43, -1.46681701660156250000e+002) (44, -1.45739349365234370000e+002) (45, -1.45770339965820310000e+002) (46, -1.42822616577148440000e+002) (47, -1.45657730102539060000e+002) (48, -1.45786346435546870000e+002) (49, -1.45758895874023440000e+002) (50, 1.15810461425781250000e+003) (51, 1.15836328125000000000e+003) (52, -1.46159561157226560000e+002) (53, -1.45773498535156250000e+002) (54, 1.15805358886718750000e+003) (55, -1.42821533203125000000e+002) (56, -1.44691772460937500000e+002) (57, -1.43553543090820310000e+002) (58, -1.43085128784179690000e+002) (59, -1.44272033691406250000e+002) (60, -1.45739654541015620000e+002) (61, -1.45019302368164060000e+002) (62, -1.46078033447265620000e+002) (63, -1.46722335815429690000e+002) (64, 1.15797692871093750000e+003) (65, -1.44181274414062500000e+002) (66, -1.41457138061523440000e+002) (67, 1.15802624511718750000e+003) (68, 1.01755871582031250000e+003) (4, -1.25160324096679690000e+002) (5, -1.25108398437500000000e+002) (6, -1.23292205810546870000e+002) (7, -1.23325790405273440000e+002) (8, -1.25163635253906250000e+002) (9, -1.24963531494140620000e+002) (10, -1.23575057983398440000e+002) (11, -1.25743179321289060000e+002) (12, -1.25222290039062500000e+002) (13, -1.25718399047851560000e+002) (14, -1.24929138183593750000e+002) (15, -1.23335052490234370000e+002) (16, -1.23304412841796870000e+002) (17, 1.13179541015625000000e+003) (18, 1.13024145507812500000e+003) (19, -1.17905227661132810000e+002) (20, -1.23237350463867190000e+002) (21, 1.13063745117187500000e+003) (22, -1.24934616088867190000e+002) (23, -1.21331985473632810000e+002) (24, -1.26016525268554690000e+002) (25, -1.24448760986328120000e+002) (26, -1.20731552124023440000e+002) (27, 1.13007543945312500000e+003) (28, -1.25808563232421870000e+002) (29, -1.21928863525390620000e+002) (30, -1.24995468139648440000e+002) (31, -1.25262954711914060000e+002) (32, -1.24990295410156250000e+002) (33, 1.13006689453125000000e+003) (34, -1.23421218872070310000e+002) (35, -1.18458267211914060000e+002) (36, -1.25950653076171870000e+002) (37, -1.25047363281250000000e+002) (38, 1.13048608398437500000e+003) (39, -1.23309417724609370000e+002) (40, -1.25643783569335940000e+002) (41, 1.13083422851562500000e+003) (42, -1.21686431884765620000e+002) (43, -1.26153854370117190000e+002) (44, -1.23217056274414060000e+002) (45, -1.23613784790039060000e+002) (46, -1.24571640014648440000e+002) (47, -1.23197631835937500000e+002) (48, -1.25697814941406250000e+002) (49, -1.23427505493164060000e+002) (50, 1.13068530273437500000e+003) (51, 1.12978808593750000000e+003) (52, -1.25995513916015620000e+002) (53, -1.24138504028320310000e+002) (54, 1.13050659179687500000e+003) (55, -1.17826736450195310000e+002) (56, -1.25166595458984380000e+002) (57, -1.20820648193359370000e+002) (58, -1.19012268066406250000e+002) (59, -1.22903488159179690000e+002) (60, -1.23570297241210940000e+002) (61, -1.25030258178710940000e+002) (62, -1.26205535888671880000e+002) (63, -1.26399841308593750000e+002) (64, 1.13095190429687500000e+003) (65, -1.25262954711914060000e+002) (66, -1.17450637817382810000e+002) (67, 1.13043823242187500000e+003) (68, 1.00880664062500000000e+003) (4, 2.42946791648864750000e+000) (5, -1.23316872119903560000e+000) (6, 1.03753495216369630000e+000) (7, 1.61698675155639650000e+000) (8, -1.23212349414825440000e+000) (9, -2.44514942169189450000e-002) (10, -8.94995331764221190000e-001) (11, -4.39742326736450200000e-001) (12, -9.87975716590881350000e-001) (13, -8.20693612098693850000e-001) (14, 2.86751842498779300000e+000) (15, 1.57723951339721680000e+000) (16, -2.04920196533203130000e+000) (17, -9.38532943725585940000e+001) (18, -9.33413162231445310000e+001) (19, -3.11321687698364260000e+000) (20, 1.49141645431518550000e+000) (21, -9.43343429565429690000e+001) (22, -1.05086719989776610000e+000) (23, -1.12951099872589110000e+000) (24, 1.02749586105346680000e-001) (25, -1.30049240589141850000e+000) (26, -1.21998894214630130000e+000) (27, -9.42630233764648440000e+001) (28, -7.84639000892639160000e-001) (29, 4.22676515579223630000e+000) (30, -1.75966465473175050000e+000) (31, -7.44209885597229000000e-001) (32, 3.29995012283325200000e+000) (33, -9.31812820434570310000e+001) (34, -2.19928598403930660000e+000) (35, -3.26479387283325200000e+000) (36, 1.12785935401916500000e+000) (37, 2.42582869529724120000e+000) (38, -9.41933517456054690000e+001) (39, 1.40669965744018550000e+000) (40, -2.74594545364379880000e-001) (41, -9.42840347290039060000e+001) (42, 2.61036825180053710000e+000) (43, -5.32967329025268550000e-001) (44, 1.47624826431274410000e+000) (45, -1.60196793079376220000e+000) (46, -2.34872865676879880000e+000) (47, -4.24774408340454100000e-001) (48, -1.46801233291625980000e-001) (49, -1.77030766010284420000e+000) (50, -9.47792282104492190000e+001) (51, -9.38859481811523440000e+001) (52, -5.42400121688842770000e-001) (53, -1.40378105640411380000e+000) (54, -9.37975387573242190000e+001) (55, -3.94513034820556640000e+000) (56, 2.76388025283813480000e+000) (57, 2.47757792472839360000e+000) (58, -1.35855400562286380000e+000) (59, -1.15517055988311770000e+000) (60, -6.67427778244018550000e-001) (61, -1.26179039478302000000e+000) (62, 3.28318357467651370000e-001) (63, -4.45076227188110350000e-001) (64, -9.40189895629882810000e+001) (65, -9.50027108192443850000e-001) (66, -1.96610271930694580000e+000) (67, -9.42048568725585940000e+001) (68, -8.88894653320312500000e+001) (4, -1.72735095024108890000e-001) (5, -3.60527411103248600000e-002) (6, -2.96445116400718690000e-002) (7, -4.77742627263069150000e-002) (8, -6.68973848223686220000e-002) (9, 1.77037846297025680000e-002) (10, -1.74491047859191890000e-001) (11, -1.24286748468875890000e-001) (12, 4.34963330626487730000e-002) (13, 1.20699264109134670000e-001) (14, 1.02920364588499070000e-002) (15, -1.36029601097106930000e-001) (16, -6.84261083602905270000e-001) (17, -1.92887687683105470000e+000) (18, -1.14643442630767820000e+000) (19, -3.75246033072471620000e-002) (20, -4.29483428597450260000e-002) (21, -1.87411367893218990000e+000) (22, -2.85726636648178100000e-001) (23, 1.72213643789291380000e-001) (24, 2.20750086009502410000e-003) (25, 1.32272183895111080000e-001) (26, 1.34005814790725710000e-001) (27, -2.10808777809143070000e+000) (28, -4.37557473778724670000e-002) (29, -2.21985548734664920000e-001) (30, -2.34765037894248960000e-002) (31, -3.98333445191383360000e-002) (32, 8.27791988849639890000e-002) (33, -1.04052686691284180000e+000) (34, 6.12430088222026820000e-003) (35, 1.13141544163227080000e-001) (36, -6.14024326205253600000e-002) (37, 2.70420145243406300000e-002) (38, -1.80570375919342040000e+000) (39, 4.68540117144584660000e-002) (40, 9.25497524440288540000e-003) (41, -1.83954298496246340000e+000) (42, -6.78737089037895200000e-002) (43, 7.47220516204833980000e-002) (44, -9.29291769862174990000e-002) (45, -3.30022200942039490000e-002) (46, -1.20838932693004610000e-001) (47, -1.55124902725219730000e-001) (48, 1.38288866728544240000e-002) (49, -4.58152964711189270000e-002) (50, -1.91372179985046390000e+000) (51, -1.96526241302490230000e+000) (52, -1.36158093810081480000e-002) (53, 1.03905722498893740000e-001) (54, -2.02546310424804690000e+000) (55, 1.30687654018402100000e-001) (56, -1.22647993266582490000e-001) (57, -1.11141853034496310000e-001) (58, 8.70805084705352780000e-002) (59, -1.43806636333465580000e-003) (60, -4.38428446650505070000e-002) (61, -4.35695424675941470000e-002) (62, -5.69787546992301940000e-002) (63, -3.60584631562232970000e-002) (64, -2.03464126586914060000e+000) (65, -1.37411355972290040000e-001) (66, -5.58917447924613950000e-002) (67, -1.87119829654693600000e+000) (68, -3.05177164077758790000e+000) (4, 2.32440710067749020000e+000) (5, 1.12378108501434330000e+000) (6, 2.40880155563354490000e+000) (7, 2.38623380661010740000e+000) (8, 2.44159412384033200000e+000) (9, 1.46426916122436520000e+000) (10, 2.34921407699584960000e+000) (11, 1.97335386276245120000e+000) (12, -4.10417437553405760000e-001) (13, 2.30425786972045900000e+000) (14, 3.14825367927551270000e+000) (15, 2.25835752487182620000e+000) (16, 6.31039977073669430000e-001) (17, -1.24355941772460940000e+002) (18, -1.24835571289062500000e+002) (19, 9.16791796684265140000e-001) (20, 2.64298915863037110000e+000) (21, -1.24428512573242190000e+002) (22, 5.59220671653747560000e-001) (23, 1.04957759380340580000e+000) (24, 1.47565031051635740000e+000) (25, 7.25037932395935060000e-001) (26, -1.14568591117858890000e-001) (27, -1.24318527221679690000e+002) (28, 2.01817274093627930000e+000) (29, 3.27094006538391110000e+000) (30, -1.08589148521423340000e+000) (31, 2.00330114364624020000e+000) (32, 3.08995556831359860000e+000) (33, -1.24851119995117190000e+002) (34, 2.38531827926635740000e+000) (35, -8.93460988998413090000e-001) (36, 2.09771108627319340000e+000) (37, 2.55256557464599610000e+000) (38, -1.24476867675781250000e+002) (39, 2.34817266464233400000e+000) (40, 2.29822301864624020000e+000) (41, -1.23962326049804690000e+002) (42, 2.97981572151184080000e+000) (43, 1.88871908187866210000e+000) (44, 2.39545202255249020000e+000) (45, 2.15620756149291990000e+000) (46, 2.20314741134643550000e+000) (47, 2.67810153961181640000e+000) (48, 1.43082189559936520000e+000) (49, 2.45091152191162110000e+000) (50, -1.24222045898437500000e+002) (51, -1.24309707641601560000e+002) (52, 2.22703123092651370000e+000) (53, 1.57296705245971680000e+000) (54, -1.23699035644531250000e+002) (55, -3.94515156745910640000e+000) (56, 2.75676250457763670000e+000) (57, 3.31436085700988770000e+000) (58, 5.70615172386169430000e-001) (59, 1.06195628643035890000e+000) (60, 2.35903120040893550000e+000) (61, 1.60301923751831050000e+000) (62, 1.29783940315246580000e+000) (63, 1.67962408065795900000e+000) (64, -1.23947402954101560000e+002) (65, 2.59437847137451170000e+000) (66, 5.06661772727966310000e-001) (67, -1.24210922241210940000e+002) (68, -1.18636405944824220000e+002) (4, -1.85212880373001100000e-001) (5, -2.28349477052688600000e-001) (6, -2.71420001983642580000e-001) (7, -2.75922417640686040000e-001) (8, -3.37644696235656740000e-001) (9, -3.37786316871643070000e-001) (10, -3.17475438117980960000e-001) (11, -2.18359023332595830000e-001) (12, -3.66923600435256960000e-001) (13, -1.95524126291275020000e-001) (14, -2.95380473136901860000e-001) (15, -3.47158551216125490000e-001) (16, -6.49484217166900630000e-001) (17, -3.25220274925231930000e+000) (18, -2.73751521110534670000e+000) (19, -1.44863873720169070000e-001) (20, -3.22980105876922610000e-001) (21, -3.19548106193542480000e+000) (22, -5.72111546993255620000e-001) (23, -2.47191995382308960000e-001) (24, -2.05373972654342650000e-001) (25, -8.83734896779060360000e-002) (26, -9.31978300213813780000e-002) (27, -3.41445755958557130000e+000) (28, -2.54532039165496830000e-001) (29, -3.25589597225189210000e-001) (30, -3.26567530632019040000e-001) (31, -1.82101219892501830000e-001) (32, -3.56018841266632080000e-001) (33, -2.83313488960266110000e+000) (34, -2.99483656883239750000e-001) (35, -1.36574655771255490000e-001) (36, -2.83217489719390870000e-001) (37, -2.99053728580474850000e-001) (38, -3.14086365699768070000e+000) (39, -2.98633754253387450000e-001) (40, -2.86783754825592040000e-001) (41, -3.29374909400939940000e+000) (42, -3.01096439361572270000e-001) (43, -2.58978605270385740000e-001) (44, -3.44740390777587890000e-001) (45, -2.48930543661117550000e-001) (46, -4.55485284328460690000e-001) (47, -4.33680951595306400000e-001) (48, -6.31934702396392820000e-001) (49, -3.12789142131805420000e-001) (50, -3.52324891090393070000e+000) (51, -3.18288540840148930000e+000) (52, -2.74789810180664060000e-001) (53, -3.85199099779129030000e-001) (54, -3.13175225257873540000e+000) (55, -4.64890778064727780000e-001) (56, -3.10742557048797610000e-001) (57, -3.87283354997634890000e-001) (58, -3.22318494319915770000e-001) (59, -3.36368381977081300000e-001) (60, -2.54025161266326900000e-001) (61, -1.88966244459152220000e-001) (62, -1.97909563779830930000e-001) (63, -3.24331343173980710000e-001) (64, -3.36777901649475100000e+000) (65, -2.04282253980636600000e-001) (66, -3.91356199979782100000e-001) (67, -3.04314541816711430000e+000) (68, -4.21023797988891600000e+000) (4, -1.16651710510253910000e+002) (5, -1.17527091979980470000e+002) (6, -1.16452583312988280000e+002) (7, -1.16238594055175780000e+002) (8, -1.16663352966308590000e+002) (9, -1.17537788391113280000e+002) (10, -1.16493522644042970000e+002) (11, -1.17114021301269530000e+002) (12, -1.17719871520996090000e+002) (13, -1.17591789245605470000e+002) (14, -1.16155433654785160000e+002) (15, -1.16199531555175780000e+002) (16, -1.16398841857910160000e+002) (17, 1.10382238769531250000e+003) (18, 1.10049511718750000000e+003) (19, -1.12574607849121090000e+002) (20, -1.16195976257324220000e+002) (21, 1.10230920410156250000e+003) (22, -1.17131156921386720000e+002) (23, -1.15701713562011720000e+002) (24, -1.17706474304199220000e+002) (25, -1.17650825500488280000e+002) (26, -1.15459068298339840000e+002) (27, 1.10085327148437500000e+003) (28, -1.17083564758300780000e+002) (29, -1.15282249450683590000e+002) (30, -1.18746345520019530000e+002) (31, -1.18030036926269530000e+002) (32, -1.16686149597167970000e+002) (33, 1.09981628417968750000e+003) (34, -1.16249015808105470000e+002) (35, -1.13717918395996090000e+002) (36, -1.17737022399902340000e+002) (37, -1.16214271545410160000e+002) (38, 1.10215332031250000000e+003) (39, -1.16194786071777340000e+002) (40, -1.17539009094238280000e+002) (41, 1.10088574218750000000e+003) (42, -1.14485740661621090000e+002) (43, -1.18954307556152340000e+002) (44, -1.16125419616699220000e+002) (45, -1.16557441711425780000e+002) (46, -1.16624931335449220000e+002) (47, -1.16202583312988280000e+002) (48, -1.17319664001464840000e+002) (49, -1.16306602478027340000e+002) (50, 1.10146582031250000000e+003) (51, 1.10199707031250000000e+003) (52, -1.17267845153808590000e+002) (53, -1.17899299621582030000e+002) (54, 1.10223303222656250000e+003) (55, -1.14810920715332030000e+002) (56, -1.16652214050292970000e+002) (57, -1.13198081970214840000e+002) (58, -1.13272804260253910000e+002) (59, -1.15151191711425780000e+002) (60, -1.16490409851074220000e+002) (61, -1.17153602600097660000e+002) (62, -1.17994773864746090000e+002) (63, -1.18635551452636720000e+002) (64, 1.10056933593750000000e+003) (65, -1.17780479431152340000e+002) (66, -1.13438957214355470000e+002) (67, 1.10229846191406250000e+003) (68, 9.87181762695312500000e+002) (4, -2.37633371353149410000e+000) (5, -1.27968251705169680000e+000) (6, -1.94982528686523440000e+000) (7, -2.19031238555908200000e+000) (8, -1.87728118896484370000e+000) (9, -1.25973105430603030000e+000) (10, -1.79545485973358150000e+000) (11, -2.34354639053344730000e+000) (12, -1.85389423370361330000e+000) (13, -1.24531102180480960000e+000) (14, -1.83236789703369140000e+000) (15, -2.34891557693481450000e+000) (16, -2.03062391281127930000e+000) (17, -1.65793972015380860000e+001) (18, -1.49974994659423830000e+001) (19, -3.77074098587036130000e+000) (20, -2.20483827590942380000e+000) (21, -1.60000705718994140000e+001) (22, -2.01987743377685550000e+000) (23, -3.40701580047607420000e+000) (24, -1.01170623302459720000e+000) (25, -1.13648569583892820000e+000) (26, -2.50568246841430660000e+000) (27, -1.55470085144042970000e+001) (28, -1.68890023231506350000e+000) (29, 1.69767737388610840000e-002) (30, -2.98746967315673830000e+000) (31, -1.23082375526428220000e+000) (32, -1.93349552154541020000e+000) (33, -1.48703289031982420000e+001) (34, -2.34684133529663090000e+000) (35, -2.90041136741638180000e+000) (36, 2.03056216239929200000e-001) (37, -1.58078873157501220000e+000) (38, -1.59434432983398440000e+001) (39, -1.99164867401123050000e+000) (40, -1.58565819263458250000e+000) (41, -1.54333934783935550000e+001) (42, -1.73001611232757570000e+000) (43, -9.13968265056610110000e-001) (44, -2.05529642105102540000e+000) (45, -1.88244247436523440000e+000) (46, -1.68748307228088380000e+000) (47, -2.36037302017211910000e+000) (48, -1.60120987892150880000e+000) (49, -1.45772111415863040000e+000) (50, -1.56767883300781250000e+001) (51, -1.67863636016845700000e+001) (52, -1.58917248249053960000e+000) (53, -1.11750721931457520000e+000) (54, -1.58178157806396480000e+001) (55, -2.30853748321533200000e+000) (56, -2.19444417953491210000e+000) (57, -1.77173268795013430000e+000) (58, -1.25239014625549320000e+000) (59, -9.89109218120574950000e-001) (60, -1.77027738094329830000e+000) (61, -1.21267390251159670000e+000) (62, -1.91072702407836910000e-001) (63, -1.01223695278167720000e+000) (64, -1.52931385040283200000e+001) (65, -1.34826266765594480000e+000) (66, -1.23968672752380370000e+000) (67, -1.59703559875488280000e+001) (68, -1.48611488342285160000e+001) (4, -8.85357666015625000000e+001) (5, -9.02905578613281250000e+001) (6, -8.84924468994140630000e+001) (7, -8.85066986083984380000e+001) (8, -8.82094421386718750000e+001) (9, -8.92680358886718750000e+001) (10, -8.83223571777343750000e+001) (11, -8.89553375244140630000e+001) (12, -9.00875396728515620000e+001) (13, -8.93137359619140630000e+001) (14, -8.77195587158203130000e+001) (15, -8.85210723876953130000e+001) (16, -8.79350433349609380000e+001) (17, 8.90623718261718750000e+002) (18, 8.91220886230468750000e+002) (19, -8.83708801269531250000e+001) (20, -8.82524108886718750000e+001) (21, 8.93626892089843750000e+002) (22, -8.88825225830078130000e+001) (23, -8.99151763916015630000e+001) (24, -8.90808258056640620000e+001) (25, -8.94624786376953120000e+001) (26, -8.89308013916015620000e+001) (27, 8.92427062988281250000e+002) (28, -8.87483520507812500000e+001) (29, -8.74626617431640630000e+001) (30, -9.08830261230468750000e+001) (31, -8.99719390869140620000e+001) (32, -8.90758819580078120000e+001) (33, 8.91297424316406250000e+002) (34, -8.84248199462890630000e+001) (35, -8.78684082031250000000e+001) (36, -8.85934295654296880000e+001) (37, -8.78788757324218750000e+001) (38, 8.93595153808593750000e+002) (39, -8.85794982910156250000e+001) (40, -8.99110260009765630000e+001) (41, 8.92794738769531250000e+002) (42, -8.73668365478515630000e+001) (43, -9.00645751953125000000e+001) (44, -8.83156738281250000000e+001) (45, -8.87265777587890630000e+001) (46, -8.84650115966796880000e+001) (47, -8.84181518554687500000e+001) (48, 