FANN_FLO_2.1
num_layers=4
learning_rate=0.001000
connection_rate=1.000000
network_type=0
learning_momentum=0.000000
training_algorithm=2
train_error_function=1
train_stop_function=0
cascade_output_change_fraction=0.010000
quickprop_decay=-0.000100
quickprop_mu=1.750000
rprop_increase_factor=1.200000
rprop_decrease_factor=0.500000
rprop_delta_min=0.000000
rprop_delta_max=50.000000
rprop_delta_zero=0.100000
cascade_output_stagnation_epochs=12
cascade_candidate_change_fraction=0.010000
cascade_candidate_stagnation_epochs=12
cascade_max_out_epochs=150
cascade_min_out_epochs=50
cascade_max_cand_epochs=150
cascade_min_cand_epochs=50
cascade_num_candidate_groups=2
bit_fail_limit=3.49999994039535520000e-001
cascade_candidate_limit=1.00000000000000000000e+003
cascade_weight_multiplier=4.00000005960464480000e-001
cascade_activation_functions_count=10
cascade_activation_functions=3 5 7 8 10 11 14 15 16 17 
cascade_activation_steepnesses_count=4
cascade_activation_steepnesses=2.50000000000000000000e-001 5.00000000000000000000e-001 7.50000000000000000000e-001 1.00000000000000000000e+000 
layer_sizes=3 21 16 3 
scale_included=0
neurons (num_inputs, activation_function, activation_steepness)=(0, 0, 0.00000000000000000000e+000) (0, 0, 0.00000000000000000000e+000) (0, 0, 0.00000000000000000000e+000) (3, 5, 5.00000000000000000000e-001) (3, 5, 5.00000000000000000000e-001) (3, 5, 5.00000000000000000000e-001) (3, 5, 5.00000000000000000000e-001) (3, 5, 5.00000000000000000000e-001) (3, 5, 5.00000000000000000000e-001) (3, 5, 5.00000000000000000000e-001) (3, 5, 5.00000000000000000000e-001) (3, 5, 5.00000000000000000000e-001) (3, 5, 5.00000000000000000000e-001) (3, 5, 5.00000000000000000000e-001) (3, 5, 5.00000000000000000000e-001) (3, 5, 5.00000000000000000000e-001) (3, 5, 5.00000000000000000000e-001) (3, 5, 5.00000000000000000000e-001) (3, 5, 5.00000000000000000000e-001) (3, 5, 5.00000000000000000000e-001) (3, 5, 5.00000000000000000000e-001) (3, 5, 5.00000000000000000000e-001) (3, 5, 5.00000000000000000000e-001) (0, 5, 0.00000000000000000000e+000) (21, 5, 5.00000000000000000000e-001) (21, 5, 5.00000000000000000000e-001) (21, 5, 5.00000000000000000000e-001) (21, 5, 5.00000000000000000000e-001) (21, 5, 5.00000000000000000000e-001) (21, 5, 5.00000000000000000000e-001) (21, 5, 5.00000000000000000000e-001) (21, 5, 5.00000000000000000000e-001) (21, 5, 5.00000000000000000000e-001) (21, 5, 5.00000000000000000000e-001) (21, 5, 5.00000000000000000000e-001) (21, 5, 5.00000000000000000000e-001) (21, 5, 5.00000000000000000000e-001) (21, 5, 5.00000000000000000000e-001) (21, 5, 5.00000000000000000000e-001) (0, 5, 0.00000000000000000000e+000) (16, 5, 5.00000000000000000000e-001) (16, 5, 5.00000000000000000000e-001) (0, 5, 0.00000000000000000000e+000) 
connections (connected_to_neuron, weight)=(0, 7.34176393598318100000e-003) (1, -2.89044566452503200000e-002) (2, 8.93156006932258610000e-002) (0, 3.11709158122539520000e-002) (1, 5.57562708854675290000e-002) (2, -8.16829279065132140000e-002) (0, -4.71990369260311130000e-002) (1, -1.85206793248653410000e-002) (2, -2.24386923946440220000e-003) (0, 5.01916445791721340000e-002) (1, 7.28898644447326660000e-002) (2, -8.01816359162330630000e-002) (0, -3.57604809105396270000e-002) (1, -2.79192179441452030000e-002) (2, -6.75148814916610720000e-002) (0, -1.40306474640965460000e-002) (1, 6.72301724553108220000e-002) (2, 6.33025094866752620000e-002) (0, -4.28623035550117490000e-002) (1, -7.98750296235084530000e-002) (2, -6.84566199779510500000e-002) (0, -5.11331076268106700000e-004) (1, -3.54736223816871640000e-002) (2, 3.56853008270263670000e-002) (0, 1.33908418938517570000e-002) (1, -6.90290257334709170000e-002) (2, 5.34716062247753140000e-002) (0, 8.41862112283706670000e-002) (1, 2.39598769694566730000e-002) (2, -7.37740993499755860000e-002) (0, -9.59404185414314270000e-002) (1, 7.11444094777107240000e-002) (2, -9.43543836474418640000e-002) (0, -2.14858446270227430000e-002) (1, -2.19644680619239810000e-002) (2, -1.60648692399263380000e-002) (0, 7.75786340236663820000e-002) (1, -1.09050674363970760000e-002) (2, -2.35892273485660550000e-003) (0, 8.05614739656448360000e-002) (1, -1.00002558901906010000e-002) (2, 2.90880259126424790000e-002) (0, -1.71719323843717580000e-002) (1, -9.71652641892433170000e-002) (2, -8.25233459472656250000e-002) (0, 8.64850133657455440000e-002) (1, 3.10789793729782100000e-002) (2, 6.12089075148105620000e-002) (0, 1.75078697502613070000e-002) (1, 1.29726566374301910000e-002) (2, -8.11895951628685000000e-002) (0, -4.33899238705635070000e-002) (1, -2.98067787662148480000e-003) (2, 5.61892315745353700000e-002) (0, -9.66081917285919190000e-002) (1, 9.50109139084815980000e-002) (2, -6.14019460044801240000e-004) (0, -8.96757021546363830000e-002) (1, 1.77356377243995670000e-002) (2, -6.24651573598384860000e-002) (3, 6.60908967256546020000e-002) (4, 7.09950625896453860000e-002) (5, 2.17338297516107560000e-002) (6, -3.66330184042453770000e-002) (7, -1.66046135127544400000e-002) (8, 9.77945607155561450000e-003) (9, -9.32944342494010930000e-002) (10, 8.38350430130958560000e-002) (11, 6.05627857148647310000e-002) (12, -2.93388776481151580000e-002) (13, -7.31946602463722230000e-002) (14, 7.37761855125427250000e-002) (15, 6.02469108998775480000e-002) (16, -9.99805629253387450000e-002) (17, 3.97592075169086460000e-002) (18, -2.61510480195283890000e-002) (19, 2.01165881007909770000e-002) (20, -9.09692943096160890000e-002) (21, -6.06620162725448610000e-002) (22, -8.17757919430732730000e-002) (23, -7.30162952095270160000e-003) (3, -1.83545742183923720000e-002) (4, -4.04980070888996120000e-002) (5, -5.33231794834136960000e-002) (6, 2.94882003217935560000e-002) (7, -6.95983916521072390000e-002) (8, 3.23383510112762450000e-002) (9, 5.58125711977481840000e-002) (10, 6.35434314608573910000e-002) (11, -9.40275713801383970000e-002) (12, -1.83082707226276400000e-002) (13, 4.57148849964141850000e-002) (14, -1.64129808545112610000e-002) (15, 7.09771439433097840000e-002) (16, -7.01312646269798280000e-002) (17, 1.92330442368984220000e-002) (18, -3.35100553929805760000e-002) (19, -6.19652867317199710000e-002) (20, -9.41953584551811220000e-002) (21, 8.84166732430458070000e-002) (22, -1.91121213138103490000e-002) (23, -1.73046272248029710000e-002) (3, 2.85402704030275340000e-002) (4, -5.32520115375518800000e-002) (5, 9.78257358074188230000e-002) (6, 4.42538820207118990000e-002) (7, -4.93070371448993680000e-002) (8, 6.12916201353073120000e-002) (9, -6.15555085241794590000e-002) (10, 9.16313230991363530000e-002) (11, -5.42285367846488950000e-002) (12, -5.98167739808559420000e-002) (13, 9.19141694903373720000e-002) (14, -9.19628515839576720000e-002) (15, -8.66152793169021610000e-002) (16, 3.83303761482238770000e-002) (17, 3.34807522594928740000e-002) (18, 5.83328641951084140000e-002) (19, 9.23162773251533510000e-002) (20, -5.41058890521526340000e-002) (21, -2.63595897704362870000e-002) (22, 6.47578760981559750000e-002) (23, -4.20568585395812990000e-002) (3, 2.72201858460903170000e-002) (4, -2.96068415045738220000e-002) (5, -5.15471072867512700000e-003) (6, 7.08366110920906070000e-002) (7, -3.88801246881484990000e-002) (8, -6.33238703012466430000e-002) (9, -3.25439162552356720000e-002) (10, 1.23363910242915150000e-002) (11, -6.28908500075340270000e-002) (12, 7.14715197682380680000e-002) (13, -1.87130216509103780000e-002) (14, 9.63142290711402890000e-002) (15, -3.15985269844532010000e-002) (16, -5.13044558465480800000e-002) (17, -2.56186183542013170000e-002) (18, 2.92168110609054570000e-002) (19, 7.43861719965934750000e-002) (20, -6.27733254805207250000e-003) (21, -8.05623233318328860000e-002) (22, 4.59473133087158200000e-002) (23, -9.56855900585651400000e-003) (3, -2.09130067378282550000e-002) (4, 6.20864443480968480000e-002) (5, 2.06775013357400890000e-002) (6, -3.84784042835235600000e-002) (7, 7.01331496238708500000e-002) (8, -9.20244157314300540000e-002) (9, -6.92832544445991520000e-002) (10, 7.35496506094932560000e-002) (11, 5.34076057374477390000e-002) (12, 6.41133263707160950000e-002) (13, -4.39965017139911650000e-002) (14, 8.21718201041221620000e-002) (15, 7.62168616056442260000e-002) (16, -5.67506030201911930000e-002) (17, -6.66194222867488860000e-003) (18, -6.86913263052701950000e-003) (19, -6.78117349743843080000e-002) (20, 3.39193679392337800000e-002) (21, 6.94088190793991090000e-002) (22, -4.99113723635673520000e-002) (23, 2.17878744006156920000e-002) (3, -5.46741969883441930000e-002) (4, 3.09135243296623230000e-002) (5, 8.74143913388252260000e-002) (6, 1.52285574004054070000e-002) (7, -6.68118670582771300000e-002) (8, -4.99349599704146390000e-003) (9, -9.59589928388595580000e-002) (10, -3.59609462320804600000e-002) (11, -9.13190618157386780000e-002) (12, -5.78726120293140410000e-002) (13, 1.32960900664329530000e-002) (14, 6.91791623830795290000e-002) (15, 4.52173426747322080000e-002) (16, -7.26161301136016850000e-002) (17, 2.72098183631896970000e-002) (18, 5.65162524580955510000e-002) (19, -2.20469161868095400000e-002) (20, -9.95229408144950870000e-002) (21, 2.88459844887256620000e-002) (22, -1.66078582406044010000e-002) (23, -8.84590297937393190000e-002) (3, 6.22319662943482400000e-003) (4, -8.24331212788820270000e-003) (5, 7.27686053141951560000e-003) (6, 4.77128811180591580000e-002) (7, -4.76541966199874880000e-002) (8, 5.83383778575807810000e-004) (9, -5.24856187403202060000e-002) (10, 4.14669560268521310000e-003) (11, -7.34027773141860960000e-002) (12, 2.87055242806673050000e-002) (13, -2.51535791903734210000e-002) (14, 9.10689756274223330000e-002) (15, 3.82102802395820620000e-002) (16, -6.55140057206153870000e-002) (17, 5.53994588553905490000e-002) (18, 9.52672809362411500000e-002) (19, -2.58708316832780840000e-002) (20, 2.20962762832641600000e-002) (21, 8.38394239544868470000e-002) (22, 6.98537053540349010000e-003) (23, 4.39945273101329800000e-002) (3, 3.43029201030731200000e-002) (4, -6.51228353381156920000e-002) (5, -1.04919783771038060000e-002) (6, 8.63718912005424500000e-002) (7, -7.24040493369102480000e-002) (8, -3.44068109989166260000e-002) (9, -1.82871869765222070000e-003) (10, 6.14143908023834230000e-002) (11, 8.30126106739044190000e-002) (12, 4.30991000030189750000e-004) (13, -4.74344193935394290000e-002) (14, -6.49881437420845030000e-002) (15, -8.10299664735794070000e-002) (16, -7.43439421057701110000e-002) (17, 7.17432349920272830000e-002) (18, -9.09754484891891480000e-002) (19, -5.01976460218429570000e-002) (20, -6.69627487659454350000e-002) (21, 7.61412754654884340000e-002) (22, 3.92563901841640470000e-002) (23, 5.48563301563262940000e-002) (3, -6.58016502857208250000e-002) (4, 6.40725791454315190000e-002) (5, 3.16235236823558810000e-002) (6, 2.15124879032373430000e-002) (7, -1.55556034296751020000e-002) (8, -3.31280939280986790000e-002) (9, 9.91521775722503660000e-002) (10, 8.15008878707885740000e-002) (11, 4.31851744651794430000e-002) (12, -7.53384036943316460000e-003) (13, 5.96802271902561190000e-002) (14, -3.89524176716804500000e-002) (15, -9.54155772924423220000e-002) (16, -4.08575125038623810000e-002) (17, -4.39840368926525120000e-002) (18, -6.40068203210830690000e-002) (19, 2.72897426038980480000e-002) (20, -6.96278214454650880000e-002) (21, -2.05586422234773640000e-002) (22, -1.14678964018821720000e-002) (23, 9.59265157580375670000e-002) (3, 5.33012785017490390000e-002) (4, -2.19960846006870270000e-002) (5, 7.13729998096823690000e-003) (6, 5.02815209329128270000e-002) (7, 8.78325290977954860000e-003) (8, -6.91988170146942140000e-002) (9, 8.83553624153137210000e-002) (10, -4.06469637528061870000e-003) (11, -2.05801818519830700000e-002) (12, 6.98284655809402470000e-002) (13, 9.70394089818000790000e-002) (14, -4.29990664124488830000e-002) (15, -5.88089302182197570000e-002) (16, 2.97840293496847150000e-002) (17, -5.87546229362487790000e-002) (18, 7.30782747268676760000e-002) (19, -1.49641595780849460000e-002) (20, -9.18159335851669310000e-002) (21, -8.29432681202888490000e-002) (22, -1.08351269736886020000e-002) (23, 7.47635513544082640000e-002) (3, 1.63023713976144790000e-002) (4, -1.86457056552171710000e-002) (5, 6.36905282735824580000e-002) (6, -5.13909682631492610000e-002) (7, 1.86225748620927330000e-003) (8, -9.25921127200126650000e-002) (9, -7.29429572820663450000e-002) (10, -3.28528396785259250000e-002) (11, -7.33414962887763980000e-002) (12, -2.13392674922943120000e-002) (13, 2.18151658773422240000e-002) (14, 1.84482671320438390000e-002) (15, -2.32780016958713530000e-002) (16, -1.85650121420621870000e-002) (17, 5.58168254792690280000e-002) (18, 8.46151188015937810000e-002) (19, -8.72871093451976780000e-003) (20, -5.44994845986366270000e-002) (21, -8.34019621834158900000e-004) (22, -2.54975892603397370000e-002) (23, 8.77115875482559200000e-002) (3, -4.10723825916647910000e-003) (4, -4.31905984878540040000e-002) (5, 3.08957751840353010000e-002) (6, -4.21669855713844300000e-002) (7, -3.18949408829212190000e-002) (8, -5.14139793813228610000e-002) (9, -8.19216743111610410000e-002) (10, -5.37504516541957860000e-002) (11, -5.56543394923210140000e-002) (12, -7.55070373415946960000e-002) (13, 9.57368388772010800000e-002) (14, 3.82224582135677340000e-002) (15, -3.47597002983093260000e-002) (16, 5.32871708273887630000e-002) (17, 8.46326127648353580000e-002) (18, 9.50838923454284670000e-002) (19, 7.75596946477890010000e-002) (20, 7.22152739763259890000e-003) (21, -6.78425282239913940000e-002) (22, 8.11603814363479610000e-002) (23, -2.96805817633867260000e-002) (3, 8.10755714774131770000e-002) (4, -1.81483607739210130000e-002) (5, -2.07190364599227910000e-002) (6, -5.18182553350925450000e-002) (7, 7.33452662825584410000e-002) (8, -4.39841486513614650000e-002) (9, -2.94154640287160870000e-002) (10, -6.87667354941368100000e-002) (11, -3.78806889057159420000e-002) (12, 5.31052164733409880000e-002) (13, -3.69049236178398130000e-002) (14, -2.05600485205650330000e-002) (15, -9.57817360758781430000e-002) (16, 7.25604370236396790000e-002) (17, 4.76304739713668820000e-002) (18, 5.77241778373718260000e-002) (19, -5.83702465519309040000e-003) (20, 6.58943653106689450000e-002) (21, -3.57922054827213290000e-002) (22, -3.99415083229541780000e-002) (23, -9.00642722845077510000e-002) (3, -7.28830322623252870000e-002) (4, -4.12341989576816560000e-002) (5, 6.33359253406524660000e-002) (6, 7.09853023290634160000e-002) (7, 2.44636628776788710000e-002) (8, -8.67758467793464660000e-002) (9, 6.40832856297492980000e-002) (10, 6.57618641853332520000e-002) (11, 8.06581079959869380000e-002) (12, -7.20527395606040950000e-002) (13, -4.53463532030582430000e-002) (14, -6.43305703997612000000e-002) (15, 9.10393055528402330000e-003) (16, 3.95528003573417660000e-002) (17, -4.91741299629211430000e-003) (18, 9.04320776462554930000e-002) (19, -8.93069356679916380000e-002) (20, 5.47203607857227330000e-002) (21, -6.29541352391242980000e-002) (22, 6.04029148817062380000e-002) (23, -6.14017434418201450000e-002) (3, -1.90666168928146360000e-002) (4, 5.59903867542743680000e-002) (5, 2.52368245273828510000e-002) (6, 3.72477620840072630000e-002) (7, 3.67005430161952970000e-002) (8, 4.66414913535118100000e-002) (9, -5.01287654042243960000e-002) (10, 5.90001493692398070000e-002) (11, -8.07362794876098630000e-002) (12, -5.71535192430019380000e-002) (13, 5.70301972329616550000e-002) (14, 7.25712105631828310000e-002) (15, -8.28262269496917720000e-002) (16, -9.22721549868583680000e-002) (17, 7.05180168151855470000e-002) (18, -4.32057008147239690000e-002) (19, -5.96219673752784730000e-002) (20, 6.50099664926528930000e-002) (21, -4.26174774765968320000e-002) (22, 9.90305691957473750000e-002) (23, 5.49190640449523930000e-002) (24, 1.36908572167158130000e-002) (25, 3.49195930175483230000e-003) (26, 9.57916229963302610000e-002) (27, 1.76827795803546910000e-002) (28, -8.94459336996078490000e-003) (29, -5.10796792805194850000e-002) (30, 6.85778707265853880000e-002) (31, -6.27185478806495670000e-002) (32, -6.28023743629455570000e-002) (33, 2.69122105091810230000e-002) (34, 8.65940675139427190000e-002) (35, 2.65966691076755520000e-002) (36, 1.25664360821247100000e-002) (37, 2.08424474112689500000e-003) (38, -7.26885497570037840000e-002) (39, 2.25952957407571380000e-004) (24, 5.29648773372173310000e-002) (25, -8.88061821460723880000e-002) (26, 5.93565292656421660000e-002) (27, -2.50266194343566890000e-002) (28, 5.16722127795219420000e-002) (29, -6.03632144629955290000e-002) (30, 6.75831809639930730000e-002) (31, -3.99931594729423520000e-002) (32, 1.32478512823581700000e-002) (33, -3.72681990265846250000e-002) (34, 2.91747995652258400000e-003) (35, 6.55051544308662410000e-002) (36, 5.88969737291336060000e-002) (37, -7.88424909114837650000e-003) (38, -9.38366726040840150000e-002) (39, 1.69774517416954040000e-003) 
