FANN_FLO_2.1
num_layers=4
learning_rate=0.001000
connection_rate=1.000000
network_type=0
learning_momentum=0.000000
training_algorithm=2
train_error_function=1
train_stop_function=0
cascade_output_change_fraction=0.010000
quickprop_decay=-0.000100
quickprop_mu=1.750000
rprop_increase_factor=1.200000
rprop_decrease_factor=0.500000
rprop_delta_min=0.000000
rprop_delta_max=50.000000
rprop_delta_zero=0.100000
cascade_output_stagnation_epochs=12
cascade_candidate_change_fraction=0.010000
cascade_candidate_stagnation_epochs=12
cascade_max_out_epochs=150
cascade_min_out_epochs=50
cascade_max_cand_epochs=150
cascade_min_cand_epochs=50
cascade_num_candidate_groups=2
bit_fail_limit=3.49999994039535520000e-001
cascade_candidate_limit=1.00000000000000000000e+003
cascade_weight_multiplier=4.00000005960464480000e-001
cascade_activation_functions_count=10
cascade_activation_functions=3 5 7 8 10 11 14 15 16 17 
cascade_activation_steepnesses_count=4
cascade_activation_steepnesses=2.50000000000000000000e-001 5.00000000000000000000e-001 7.50000000000000000000e-001 1.00000000000000000000e+000 
layer_sizes=2 33 33 3 
scale_included=0
neurons (num_inputs, activation_function, activation_steepness)=(0, 0, 0.00000000000000000000e+000) (0, 0, 0.00000000000000000000e+000) (2, 5, 5.00000000000000000000e-001) (2, 5, 5.00000000000000000000e-001) (2, 5, 5.00000000000000000000e-001) (2, 5, 5.00000000000000000000e-001) (2, 5, 5.00000000000000000000e-001) (2, 5, 5.00000000000000000000e-001) (2, 5, 5.00000000000000000000e-001) (2, 5, 5.00000000000000000000e-001) (2, 5, 5.00000000000000000000e-001) (2, 5, 5.00000000000000000000e-001) (2, 5, 5.00000000000000000000e-001) (2, 5, 5.00000000000000000000e-001) (2, 5, 5.00000000000000000000e-001) (2, 5, 5.00000000000000000000e-001) (2, 5, 5.00000000000000000000e-001) (2, 5, 5.00000000000000000000e-001) (2, 5, 5.00000000000000000000e-001) (2, 5, 5.00000000000000000000e-001) (2, 5, 5.00000000000000000000e-001) (2, 5, 5.00000000000000000000e-001) (2, 5, 5.00000000000000000000e-001) (2, 5, 5.00000000000000000000e-001) (2, 5, 5.00000000000000000000e-001) (2, 5, 5.00000000000000000000e-001) (2, 5, 5.00000000000000000000e-001) (2, 5, 5.00000000000000000000e-001) (2, 5, 5.00000000000000000000e-001) (2, 5, 5.00000000000000000000e-001) (2, 5, 5.00000000000000000000e-001) (2, 5, 5.00000000000000000000e-001) (2, 5, 5.00000000000000000000e-001) (2, 5, 5.00000000000000000000e-001) (0, 5, 0.00000000000000000000e+000) (33, 5, 5.00000000000000000000e-001) (33, 5, 5.00000000000000000000e-001) (33, 5, 5.00000000000000000000e-001) (33, 5, 5.00000000000000000000e-001) (33, 5, 5.00000000000000000000e-001) (33, 5, 5.00000000000000000000e-001) (33, 5, 5.00000000000000000000e-001) (33, 5, 5.00000000000000000000e-001) (33, 5, 5.00000000000000000000e-001) (33, 5, 5.00000000000000000000e-001) (33, 5, 5.00000000000000000000e-001) (33, 5, 5.00000000000000000000e-001) (33, 5, 5.00000000000000000000e-001) (33, 5, 5.00000000000000000000e-001) (33, 5, 5.00000000000000000000e-001) (33, 5, 5.00000000000000000000e-001) (33, 5, 5.00000000000000000000e-001) (33, 5, 5.00000000000000000000e-001) (33, 5, 5.00000000000000000000e-001) (33, 5, 5.00000000000000000000e-001) (33, 5, 5.00000000000000000000e-001) (33, 5, 5.00000000000000000000e-001) (33, 5, 5.00000000000000000000e-001) (33, 5, 5.00000000000000000000e-001) (33, 5, 5.00000000000000000000e-001) (33, 5, 5.00000000000000000000e-001) (33, 5, 5.00000000000000000000e-001) (33, 5, 5.00000000000000000000e-001) (33, 5, 5.00000000000000000000e-001) (33, 5, 5.00000000000000000000e-001) (33, 5, 5.00000000000000000000e-001) (33, 5, 5.00000000000000000000e-001) (0, 5, 0.00000000000000000000e+000) (33, 3, 5.00000000000000000000e-001) (33, 3, 5.00000000000000000000e-001) (0, 3, 0.00000000000000000000e+000) 
connections (connected_to_neuron, weight)=(0, -9.95048210024833680000e-002) (1, -8.91501456499099730000e-002) (0, 4.15304899215698240000e-002) (1, -6.31245151162147520000e-002) (0, -4.83599118888378140000e-002) (1, -8.54212883859872820000e-003) (0, 3.48031260073184970000e-002) (1, -7.40780532360076900000e-002) (0, -1.77566669881343840000e-002) (1, -6.27632439136505130000e-002) (0, -2.52220174297690390000e-003) (1, 4.87736165523529050000e-002) (0, 7.87963494658470150000e-002) (1, -8.74342024326324460000e-002) (0, -7.13576525449752810000e-002) (1, 7.02028488740324970000e-003) (0, 1.36931985616683960000e-002) (1, 4.45634834468364720000e-002) (0, -8.64191204309463500000e-002) (1, -1.30021246150135990000e-002) (0, -1.67161989957094190000e-002) (1, 4.75371666252613070000e-002) (0, -6.69344365596771240000e-002) (1, 1.53035251423716550000e-002) (0, -6.67376890778541560000e-002) (1, 2.30969451367855070000e-002) (0, 5.71475997567176820000e-002) (1, 4.62962612509727480000e-002) (0, -1.53058050200343130000e-002) (1, 5.71054257452487950000e-002) (0, 8.28708410263061520000e-002) (1, 2.12318599224090580000e-002) (0, -1.01668201386928560000e-002) (1, -6.49975985288620000000e-002) (0, 2.61014141142368320000e-002) (1, -8.98756310343742370000e-002) (0, -4.95855100452899930000e-002) (1, -5.17042540013790130000e-002) (0, 8.51760879158973690000e-002) (1, -9.48855802416801450000e-002) (0, -6.55581951141357420000e-002) (1, -4.70104366540908810000e-002) (0, -3.12577523291110990000e-002) (1, 2.21847686916589740000e-002) (0, -5.60888927429914470000e-003) (1, 4.14434820413589480000e-003) (0, -5.94608113169670100000e-002) (1, 8.29528793692588810000e-002) (0, 1.89936682581901550000e-002) (1, -3.05015537887811660000e-002) (0, 5.51614798605442050000e-002) (1, 8.09147208929061890000e-002) (0, 1.86293739825487140000e-002) (1, 3.99126112461090090000e-002) (0, 4.76688472554087640000e-003) (1, -2.65024136751890180000e-002) (0, 3.79404649138450620000e-002) (1, -9.78360176086425780000e-002) (0, 6.18869848549366000000e-002) (1, 5.43458387255668640000e-002) (0, 1.21500790119171140000e-002) (1, -3.33915725350379940000e-002) (0, 2.62322016060352330000e-002) (1, -2.85729784518480300000e-002) (2, -2.74347383528947830000e-002) (3, -7.25306421518325810000e-002) (4, -6.19905702769756320000e-002) (5, -7.07560852169990540000e-002) (6, 3.86170372366905210000e-002) (7, -9.44485217332839970000e-002) (8, 9.05134677886962890000e-002) (9, -4.31389436125755310000e-002) (10, 5.98414614796638490000e-002) (11, 4.89413961768150330000e-002) (12, 5.98813705146312710000e-002) (13, -2.43817605078220370000e-002) (14, 3.14513482153415680000e-002) (15, 6.59544719383120540000e-003) (16, 9.91107374429702760000e-002) (17, -6.87462091445922850000e-002) (18, -8.33060592412948610000e-002) (19, -1.27755394205451010000e-002) (20, -8.69291741400957110000e-003) (21, -5.00037632882595060000e-002) (22, 6.93443557247519490000e-003) (23, -1.38718867674469950000e-003) (24, -5.11883832514286040000e-002) (25, -3.14276143908500670000e-002) (26, 5.47683686017990110000e-002) (27, -1.27236535772681240000e-002) (28, 3.52448746562004090000e-002) (29, 4.76055266335606580000e-003) (30, -9.82918888330459590000e-002) (31, 6.79105296730995180000e-002) (32, 8.74665528535842900000e-002) (33, -9.70194116234779360000e-002) (34, 3.28205041587352750000e-002) (2, -3.58262360095977780000e-002) (3, 2.34122108668088910000e-002) (4, -5.90563043951988220000e-002) (5, 4.17239256203174590000e-002) (6, 5.79645857214927670000e-002) (7, -8.30513834953308110000e-002) (8, -6.98565468192100520000e-002) (9, 7.05935359001159670000e-002) (10, -4.15653437376022340000e-002) (11, -7.83267170190811160000e-002) (12, -2.72327959537506100000e-002) (13, 3.41509915888309480000e-002) (14, -6.12632231786847110000e-003) (15, 1.67443733662366870000e-002) (16, -5.74171803891658780000e-002) (17, -2.04239003360271450000e-002) (18, -6.81336447596549990000e-002) (19, 7.08157792687416080000e-002) (20, 2.47134659439325330000e-002) (21, 8.47930833697319030000e-002) (22, -6.30245134234428410000e-002) (23, -1.12989079207181930000e-002) (24, -1.09671195968985560000e-002) (25, 6.43433332443237300000e-002) (26, 7.41970241069793700000e-002) (27, 4.01403270661830900000e-002) (28, -5.17816767096519470000e-002) (29, -6.57247006893157960000e-002) (30, -4.40117456018924710000e-002) (31, -6.82053565979003910000e-002) (32, 5.07103055715560910000e-002) (33, -5.69525510072708130000e-002) (34, 3.79548557102680210000e-002) (2, -7.96852633357048030000e-002) (3, 7.01129734516143800000e-002) (4, 3.16934064030647280000e-002) (5, 2.94240675866603850000e-002) (6, -6.08238726854324340000e-002) (7, -4.77945283055305480000e-002) (8, 2.75504030287265780000e-002) (9, -5.85032626986503600000e-002) (10, 2.55875289440155030000e-002) (11, 5.99655471742153170000e-002) (12, -7.94123932719230650000e-002) (13, 7.54676982760429380000e-002) (14, 2.09776163101196290000e-002) (15, -7.22843548282980920000e-003) (16, 3.59292812645435330000e-002) (17, -2.76763085275888440000e-002) (18, 3.46943587064743040000e-002) (19, -7.78111666440963750000e-002) (20, 5.75195327401161190000e-002) (21, 9.38852578401565550000e-002) (22, 5.06596900522708890000e-002) (23, -9.60501432418823240000e-002) (24, -8.83113294839859010000e-002) (25, 8.86088088154792790000e-002) (26, -5.10569065809249880000e-002) (27, -7.77798220515251160000e-002) (28, 5.35721480846405030000e-002) (29, 5.25783933699131010000e-002) (30, -6.00658357143402100000e-002) (31, -7.08281844854354860000e-002) (32, -1.42735615372657780000e-002) (33, -9.19030383229255680000e-002) (34, 8.23046416044235230000e-002) (2, 2.42615230381488800000e-002) (3, -6.04841895401477810000e-002) (4, 7.88524895906448360000e-002) (5, 3.58941629528999330000e-002) (6, 3.43747735023498540000e-002) (7, -4.84756343066692350000e-002) (8, -1.21117411181330680000e-002) (9, 4.66023869812488560000e-002) (10, 6.24598115682601930000e-002) (11, 6.08394220471382140000e-002) (12, -1.01780379191040990000e-002) (13, -5.71110434830188750000e-002) (14, 3.73926572501659390000e-002) (15, 6.79954066872596740000e-002) (16, 9.65529028326272960000e-003) (17, 3.48143242299556730000e-002) (18, 4.02435027062892910000e-002) (19, -1.48084061220288280000e-002) (20, -5.58969788253307340000e-002) (21, -3.39099690318107600000e-002) (22, 6.44584149122238160000e-002) (23, -6.84852851554751400000e-003) (24, 8.73932912945747380000e-002) (25, 3.96519228816032410000e-002) (26, -5.67753724753856660000e-002) (27, 5.74468560516834260000e-002) (28, 1.44269056618213650000e-002) (29, -3.00207617692649360000e-003) (30, -6.54443651437759400000e-002) (31, 3.02326865494251250000e-002) (32, 1.49967661127448080000e-002) (33, -5.20068965852260590000e-002) (34, 9.21657085418701170000e-002) (2, -4.54707704484462740000e-002) (3, 9.16908755898475650000e-002) (4, -5.28429262340068820000e-003) (5, 6.78989663720130920000e-002) (6, 1.64628028869628910000e-002) (7, 2.42297649383544920000e-002) (8, 6.35273158550262450000e-002) (9, -1.04636987671256070000e-002) (10, 7.98481181263923650000e-002) (11, -9.16933938860893250000e-002) (12, -8.05351883172988890000e-002) (13, -8.83878841996192930000e-002) (14, 1.74874924123287200000e-002) (15, 7.27822929620742800000e-002) (16, 2.96575594693422320000e-002) (17, -4.42183092236518860000e-002) (18, -1.57978069037199020000e-002) (19, -1.15980543196201320000e-002) (20, 7.77475163340568540000e-002) (21, -9.85299870371818540000e-002) (22, 6.23404234647750850000e-002) (23, 6.03823214769363400000e-002) (24, -6.06799125671386720000e-003) (25, 1.07323722913861270000e-002) (26, 1.21783034410327670000e-003) (27, -7.27381184697151180000e-002) (28, 9.30088087916374210000e-002) (29, -5.45649826526641850000e-002) (30, 9.49879735708236690000e-002) (31, -3.67239005863666530000e-002) (32, -6.16703229025006290000e-003) (33, -6.75496459007263180000e-002) (34, -8.31731334328651430000e-002) (2, -1.15316929295659070000e-002) (3, -9.36870202422142030000e-002) (4, 2.55026053637266160000e-002) (5, -4.51800711452960970000e-002) (6, -9.81203839182853700000e-002) (7, -3.40153798460960390000e-002) (8, 2.92204692959785460000e-002) (9, 6.21708706021308900000e-002) (10, 3.25783416628837590000e-002) (11, -4.25134971737861630000e-003) (12, -6.52986615896224980000e-002) (13, -2.19190791249275210000e-002) (14, -7.46361911296844480000e-002) (15, -1.88940148800611500000e-002) (16, 2.93839275836944580000e-002) (17, 2.52014901489019390000e-002) (18, -3.68996448814868930000e-002) (19, 2.75959223508834840000e-002) (20, -6.99165388941764830000e-002) (21, 2.94544585049152370000e-002) (22, -7.33977332711219790000e-002) (23, -9.60552990436553960000e-002) (24, -9.67370420694351200000e-002) (25, -5.07592689245939250000e-003) (26, -9.08098965883255000000e-002) (27, -7.41466432809829710000e-002) (28, -8.08844864368438720000e-002) (29, -4.67984750866889950000e-002) (30, 8.10172557830810550000e-002) (31, 8.09310600161552430000e-002) (32, 7.11442716419696810000e-003) (33, -6.98911249637603760000e-002) (34, -7.48869106173515320000e-002) (2, -2.96436306089162830000e-002) (3, -3.84773351252079010000e-002) (4, 5.49839846789836880000e-002) (5, 7.98393879085779190000e-003) (6, 4.55768220126628880000e-002) (7, -4.76090051233768460000e-002) (8, -5.33184781670570370000e-002) (9, -3.93938738852739330000e-003) (10, -7.75202959775924680000e-002) (11, -9.41781252622604370000e-002) (12, 3.58467688784003260000e-003) (13, 6.03544302284717560000e-002) (14, 5.86980991065502170000e-002) (15, 6.17121346294879910000e-004) (16, -6.43593668937683110000e-002) (17, 3.43695022165775300000e-002) (18, -3.06091122329235080000e-002) (19, -5.53877539932727810000e-002) (20, -3.90018932521343230000e-002) (21, -6.12643510103225710000e-002) (22, 6.55585974454879760000e-002) (23, -1.74759346991777420000e-002) (24, 5.77771523967385290000e-003) (25, -9.16380956768989560000e-002) (26, 9.76471081376075740000e-002) (27, 9.54562947154045100000e-002) (28, -6.45834580063819890000e-002) (29, 2.69825942814350130000e-002) (30, 8.14848989248275760000e-002) (31, -5.68547323346138000000e-002) (32, -5.21159991621971130000e-002) (33, 6.79942220449447630000e-002) (34, 8.90690982341766360000e-002) (2, 9.90074500441551210000e-003) (3, -3.91400530934333800000e-002) (4, 5.83871789276599880000e-002) (5, 1.73495395574718710000e-003) (6, -8.95148441195487980000e-002) (7, -7.23212584853172300000e-002) (8, 6.31244033575057980000e-002) (9, -4.47382070124149320000e-002) (10, -9.42063927650451660000e-002) (11, -9.82307270169258120000e-002) (12, -9.74443778395652770000e-002) (13, 3.96742038428783420000e-002) (14, -7.89179466664791110000e-003) (15, 1.18826737161725760000e-003) (16, -7.87111872341483830000e-004) (17, -3.94869036972522740000e-002) (18, 1.95300932973623280000e-002) (19, 7.89130106568336490000e-002) (20, 7.73245394229888920000e-002) (21, -1.93390417844057080000e-002) (22, -9.54098533838987350000e-003) (23, 5.72200492024421690000e-002) (24, -9.44028496742248540000e-002) (25, -8.04888680577278140000e-002) (26, -3.89172299765050410000e-003) (27, -7.13101476430892940000e-002) (28, -8.45253560692071910000e-003) (29, 7.51286074519157410000e-002) (30, -4.73770610988140110000e-002) (31, -1.65559947490692140000e-002) (32, 4.41078059375286100000e-002) (33, 8.09310451149940490000e-002) (34, -4.00690856622532010000e-004) (2, 7.33755826950073240000e-002) (3, -9.79407355189323430000e-002) (4, -5.88496811687946320000e-002) (5, 3.72178405523300170000e-002) (6, 5.63560388982295990000e-002) (7, -6.93833008408546450000e-002) (8, 5.73041476309299470000e-002) (9, 9.50715839862823490000e-002) (10, 3.76295447349548340000e-002) (11, 6.57220091670751570000e-003) (12, -9.45515930652618410000e-002) (13, -9.38464999198913570000e-002) (14, -3.93311753869056700000e-002) (15, 8.59623327851295470000e-002) (16, -3.47434133291244510000e-002) (17, -8.58414545655250550000e-002) (18, -3.67268845438957210000e-002) (19, 5.78272454440593720000e-002) (20, -4.06802296638488770000e-002) (21, 5.15626929700374600000e-002) (22, 2.79761571437120440000e-002) (23, -8.84039700031280520000e-002) (24, 5.74511010199785230000e-003) (25, 2.33564469963312150000e-002) (26, -2.53984536975622180000e-002) (27, 9.62132886052131650000e-002) (28, -5.20481988787651060000e-002) (29, 3.08767333626747130000e-002) (30, -9.51900035142898560000e-002) (31, 9.41557511687278750000e-002) (32, 5.64804933965206150000e-002) (33, -4.88964095711708070000e-003) (34, -4.75456491112709050000e-002) (2, -8.16995948553085330000e-002) (3, -2.44369190186262130000e-002) (4, 4.56169992685317990000e-002) (5, 4.17274311184883120000e-002) (6, -7.55391195416450500000e-002) (7, 9.64227765798568730000e-002) (8, -8.12063440680503850000e-002) (9, -6.81735724210739140000e-002) (10, 6.16809464991092680000e-002) (11, 4.54169511795043950000e-002) (12, 2.85480059683322910000e-002) (13, 1.28626953810453410000e-002) (14, -4.57124337553977970000e-002) (15, 5.41189014911651610000e-002) (16, 6.39077797532081600000e-002) (17, -5.24037070572376250000e-002) (18, -7.55946859717369080000e-002) (19, -8.34926292300224300000e-002) (20, 6.90808147192001340000e-002) (21, 5.56595362722873690000e-002) (22, -2.98698060214519500000e-002) (23, 7.98057243227958680000e-002) (24, 6.11913092434406280000e-002) (25, 7.31032714247703550000e-002) (26, -6.78217690438032150000e-003) (27, -1.00242150947451590000e-002) (28, -4.88447062671184540000e-002) (29, 3.73274758458137510000e-002) (30, 9.20197367668151860000e-002) (31, 4.07890155911445620000e-002) (32, 7.42354104295372960000e-003) (33, -9.64073464274406430000e-002) (34, 6.60866405814886090000e-003) (2, 2.21721064299345020000e-002) (3, 3.09995766729116440000e-002) (4, 4.62638475000858310000e-002) (5, 2.29167728684842590000e-003) (6, 4.95237819850444790000e-002) (7, 9.94405373930931090000e-002) (8, 6.12161830067634580000e-002) (9, 8.52897837758064270000e-002) (10, 5.30568920075893400000e-002) (11, 2.41793468594551090000e-002) (12, 8.97353421896696090000e-003) (13, 9.57321152091026310000e-002) (14, 4.98328916728496550000e-003) (15, -9.06748231500387190000e-003) (16, -7.54744186997413640000e-002) (17, 5.27064129710197450000e-002) (18, -2.80878432095050810000e-002) (19, -7.09355100989341740000e-002) (20, -6.95795565843582150000e-002) (21, -4.69295531511306760000e-002) (22, -3.04969139397144320000e-002) (23, 7.39414989948272710000e-002) (24, -2.01225802302360530000e-002) (25, 6.75043612718582150000e-002) (26, -9.85966399312019350000e-002) (27, 7.11695402860641480000e-002) (28, -3.80388647317886350000e-002) (29, -5.51276840269565580000e-002) (30, -3.46247069537639620000e-002) (31, 8.62626284360885620000e-002) (32, 2.68608308397233490000e-003) (33, 3.91050055623054500000e-002) (34, 9.27490368485450740000e-003) (2, 7.13258460164070130000e-002) (3, 9.12532359361648560000e-002) (4, -4.49351482093334200000e-002) (5, -2.35565518960356710000e-003) (6, 4.34447489678859710000e-002) (7, 5.99332191050052640000e-002) (8, 2.70793810486793520000e-002) (9, -6.95790126919746400000e-002) (10, -6.03498592972755430000e-002) (11, 5.90634196996688840000e-002) (12, 3.23192812502384190000e-002) (13, 9.95644256472587590000e-002) (14, 9.47020277380943300000e-002) (15, -6.00294880568981170000e-002) (16, -4.91496846079826350000e-002) (17, 5.45456074178218840000e-002) (18, -9.96558442711830140000e-002) (19, -9.80042144656181340000e-002) (20, -3.21890674531459810000e-002) (21, 1.00210737437009810000e-002) (22, -9.18126031756401060000e-002) (23, 5.78612973913550380000e-003) (24, 3.37762609124183650000e-002) (25, -1.57157592475414280000e-002) (26, -7.25144743919372560000e-002) (27, -8.43722969293594360000e-002) (28, -8.94709210842847820000e-003) (29, 6.54688850045204160000e-002) (30, -2.64879129827022550000e-002) (31, 7.32819512486457820000e-002) (32, -3.98007892072200780000e-002) (33, 5.88339306414127350000e-002) (34, 1.23911472037434580000e-002) (2, 5.16511313617229460000e-002) (3, 2.67709698528051380000e-003) (4, -7.26812556385993960000e-002) (5, 3.67230735719203950000e-002) (6, -8.23272243142127990000e-002) (7, -3.27384769916534420000e-002) (8, 8.46747234463691710000e-002) (9, 3.73308849520981310000e-003) (10, -7.17395842075347900000e-002) (11, -8.20942819118499760000e-002) (12, -7.23042637109756470000e-002) (13, 5.75768649578094480000e-002) (14, -1.02295668330043550000e-003) (15, 5.83203099668025970000e-002) (16, 9.82263013720512390000e-002) (17, 2.98936814069747920000e-002) (18, 7.32484236359596250000e-002) (19, -5.10671436786651610000e-002) (20, 4.07144539058208470000e-002) (21, 9.07352492213249210000e-002) (22, 1.88055299222469330000e-002) (23, -6.11657164990901950000e-002) (24, -4.95020113885402680000e-002) (25, 3.89705970883369450000e-002) (26, -6.59095356240868570000e-003) (27, 2.50859302468597890000e-004) (28, 8.33048447966575620000e-002) (29, 9.06491652131080630000e-002) (30, 9.81600359082221980000e-002) (31, 8.33215340971946720000e-002) (32, -8.39978680014610290000e-002) (33, -7.50663056969642640000e-002) (34, 6.39063790440559390000e-002) (2, -3.18242399953305720000e-003) (3, -6.56669884920120240000e-002) (4, 4.78435829281806950000e-002) (5, -1.97378378361463550000e-002) (6, -8.11439901590347290000e-002) (7, -7.12224468588829040000e-002) (8, 2.61973571032285690000e-002) (9, 3.81439551711082460000e-002) (10, -6.23555965721607210000e-002) (11, -1.53911663219332700000e-002) (12, 4.33366857469081880000e-002) (13, 6.09954036772251130000e-002) (14, -5.67283928394317630000e-002) (15, 4.27938513457775120000e-002) (16, -5.24123795330524440000e-002) (17, 6.88462518155574800000e-003) (18, 6.50420933961868290000e-002) (19, 1.06395119801163670000e-002) (20, 3.02339475601911540000e-002) (21, 4.39221858978271480000e-002) (22, -3.97170931100845340000e-002) (23, -8.43961760401725770000e-002) (24, -9.36532318592071530000e-002) (25, -5.66266514360904690000e-002) (26, -2.84382496029138570000e-002) (27, 6.79671168327331540000e-002) (28, -5.70263080298900600000e-002) (29, 1.43324630334973340000e-002) (30, 4.38970290124416350000e-002) (31, -7.82792344689369200000e-002) (32, -1.23650522436946630000e-003) (33, -8.96125882863998410000e-002) (34, 2.23563946783542630000e-002) (2, 1.70975830405950550000e-002) (3, -7.38411620259284970000e-002) (4, -5.06307557225227360000e-002) (5, 2.48319953680038450000e-002) (6, 8.27709361910820010000e-002) (7, -3.41694988310337070000e-003) (8, 6.71658515930175780000e-002) (9, -9.32930260896682740000e-002) (10, 7.32939243316650390000e-002) (11, 9.60201844573020940000e-002) (12, 4.29742559790611270000e-002) (13, -9.12216603755950930000e-002) (14, 3.42057012021541600000e-002) (15, 6.54432475566864010000e-002) (16, -8.13995748758316040000e-002) (17, -8.50066095590591430000e-002) (18, -2.85033173859119420000e-002) (19, 1.70707013458013530000e-002) (20, 5.94677515327930450000e-002) (21, 7.18064419925212860000e-003) (22, 2.90640839375555520000e-003) (23, 1.05372983962297440000e-002) (24, -2.71047875285148620000e-002) (25, -6.20623119175434110000e-002) (26, -2.62288190424442290000e-002) (27, -8.45700055360794070000e-002) (28, -8.31401720643043520000e-002) (29, 8.85837431997060780000e-003) (30, 2.41172015666961670000e-002) (31, 4.58206273615360260000e-002) (32, 4.12952229380607600000e-002) (33, -8.31817556172609330000e-003) (34, 9.51395481824874880000e-002) (2, 3.04305762983858590000e-003) (3, 8.37809592485427860000e-002) (4, -3.89331318438053130000e-002) (5, -2.67687067389488220000e-002) (6, 8.71919393539428710000e-002) (7, -4.98806796967983250000e-002) (8, 7.23053365945816040000e-002) (9, -9.94984954595565800000e-002) (10, -5.83393462002277370000e-002) (11, 1.65221840143203740000e-002) (12, -1.38274496421217920000e-002) (13, 2.57277619093656540000e-002) (14, -2.51599401235580440000e-002) (15, 8.15296694636344910000e-002) (16, -7.14335665106773380000e-002) (17, 8.40432718396186830000e-002) (18, 2.30332016944885250000e-002) (19, 3.87657922692596910000e-003) (20, -7.90958032011985780000e-002) (21, -5.85276558995246890000e-002) (22, 1.41365164890885350000e-002) (23, -5.62691390514373780000e-002) (24, -3.90888191759586330000e-002) (25, 6.33158162236213680000e-002) (26, 7.32868313789367680000e-002) (27, 5.54878488183021550000e-002) (28, 7.68164023756980900000e-002) (29, -1.88107378780841830000e-002) (30, 4.78495955467224120000e-002) (31, -4.30821403861045840000e-002) (32, 5.19885234534740450000e-002) (33, -5.34034222364425660000e-002) (34, 8.95000249147415160000e-002) (2, -1.85430597048252820000e-003) (3, -6.78771659731864930000e-002) (4, 3.17188575863838200000e-002) (5, 5.20834028720855710000e-002) (6, 7.61850848793983460000e-002) (7, -8.56379792094230650000e-002) (8, 8.13787952065467830000e-002) (9, -1.33195193484425540000e-002) (10, 1.00991958752274510000e-002) (11, -6.14207535982131960000e-002) (12, -2.50582490116357800000e-002) (13, 4.82931248843669890000e-002) (14, 2.60063875466585160000e-002) (15, -3.24891433119773860000e-002) (16, 1.39505770057439800000e-002) (17, 9.99011993408203130000e-002) (18, -3.04748602211475370000e-002) (19, 7.14661106467247010000e-002) (20, 6.73169121146202090000e-002) (21, -3.85985523462295530000e-002) (22, -2.62129735201597210000e-002) (23, -6.44205957651138310000e-002) (24, -9.78543162345886230000e-002) (25, -3.49187701940536500000e-002) (26, 3.86961326003074650000e-002) (27, 7.70256519317626950000e-002) (28, -4.67503033578395840000e-002) (29, -2.92239673435688020000e-002) (30, 1.57801844179630280000e-002) (31, -1.97256021201610570000e-002) (32, -7.54902362823486330000e-002) (33, 7.61967152357101440000e-002) (34, 5.86697161197662350000e-002) (2, 7.48384967446327210000e-002) (3, 9.79580655694007870000e-002) (4, 2.39563249051570890000e-002) (5, 9.30299162864685060000e-002) (6, -5.80774508416652680000e-002) (7, -6.56750127673149110000e-002) (8, -7.81828910112380980000e-002) (9, 9.63380839675664900000e-003) (10, 6.33000805974006650000e-002) (11, 4.87143024802207950000e-002) (12, 4.31412160396575930000e-002) (13, -6.15236535668373110000e-002) (14, -7.66291245818138120000e-002) (15, -6.67463764548301700000e-002) (16, -2.04780008643865590000e-002) (17, 4.90227388218045230000e-003) (18, -3.83231714367866520000e-002) (19, -7.78942555189132690000e-002) (20, 7.52352774143218990000e-002) (21, 4.03303168714046480000e-002) (22, -1.19288302958011630000e-002) (23, -3.47720570862293240000e-002) (24, 2.12460104376077650000e-002) (25, 2.74746883660554890000e-002) (26, -3.06054390966892240000e-002) (27, -9.15445014834403990000e-002) (28, -4.16592173278331760000e-002) (29, 2.93028298765420910000e-002) (30, -1.60866435617208480000e-002) (31, 4.19096611440181730000e-002) (32, -5.94659410417079930000e-002) (33, 8.64002574235200880000e-003) (34, 5.01570850610733030000e-002) (2, 1.41139300540089610000e-002) (3, -7.97972455620765690000e-002) (4, -9.76844131946563720000e-002) (5, 9.53522995114326480000e-002) (6, 8.90595465898513790000e-002) (7, -8.66774767637252810000e-002) (8, -4.34164144098758700000e-002) (9, -1.56167130917310710000e-002) (10, 1.75531767308712010000e-002) (11, 9.32946354150772090000e-002) (12, 5.98134547472000120000e-002) (13, -7.86229893565177920000e-002) (14, -8.01509842276573180000e-002) (15, 7.99680054187774660000e-002) (16, -8.42630937695503230000e-002) (17, 2.64469087123870850000e-002) (18, 5.19241653382778170000e-002) (19, -3.57147455215454100000e-002) (20, -2.90045924484729770000e-002) (21, 7.39894285798072810000e-002) (22, 3.20108570158481600000e-002) (23, -5.02136796712875370000e-002) (24, -5.64589351415634160000e-002) (25, 4.60253395140171050000e-002) (26, 2.23002228885889050000e-002) (27, -6.14273473620414730000e-002) (28, 6.96918144822120670000e-002) (29, -9.77124795317649840000e-002) (30, 3.14563028514385220000e-002) (31, -6.25461563467979430000e-002) (32, -8.59089419245719910000e-002) (33, 8.27362090349197390000e-002) (34, 3.84409688413143160000e-002) (2, 3.76956425607204440000e-002) (3, 6.49951174855232240000e-002) (4, -5.19030541181564330000e-002) (5, 7.76847824454307560000e-002) (6, 1.41907706856727600000e-002) (7, -5.26733398437500000000e-002) (8, 6.03177174925804140000e-002) (9, 5.90027868747711180000e-002) (10, -8.29946100711822510000e-002) (11, 8.89387205243110660000e-002) (12, -8.35401415824890140000e-002) (13, -4.05099838972091670000e-002) (14, 9.51576083898544310000e-002) (15, 6.30627349019050600000e-002) (16, 3.00023723393678670000e-002) (17, 1.24572152271866800000e-002) (18, 1.58817898482084270000e-002) (19, 5.62999248504638670000e-002) (20, -1.82804185897111890000e-002) (21, -1.07151530683040620000e-002) (22, -5.63634485006332400000e-002) (23, 6.10716529190540310000e-002) (24, -6.94505944848060610000e-002) (25, 7.46890231966972350000e-002) (26, 1.75936557352542880000e-002) (27, 6.19953423738479610000e-002) (28, 7.00416509062051770000e-003) (29, -6.96063265204429630000e-002) (30, 2.76012392714619640000e-003) (31, 2.05630678683519360000e-002) (32, 7.82122835516929630000e-002) (33, 1.40629876405000690000e-002) (34, 4.65024821460247040000e-002) (2, -4.21904446557164190000e-003) (3, -9.74610969424247740000e-002) (4, -6.08925856649875640000e-002) (5, -4.46612425148487090000e-002) (6, 3.67273911833763120000e-002) (7, -2.03662700951099400000e-002) (8, -4.38488535583019260000e-002) (9, 1.24952718615531920000e-002) (10, -2.09919717162847520000e-002) (11, 9.46160927414894100000e-002) (12, -5.86221329867839810000e-002) (13, 2.98718828707933430000e-003) (14, -3.37446667253971100000e-002) (15, 7.00300782918930050000e-002) (16, -3.51831987500190730000e-002) (17, -2.35569640062749390000e-003) (18, 3.79537045955657960000e-002) (19, -7.04272985458374020000e-002) (20, 2.91171893477439880000e-002) (21, 7.35599771142005920000e-002) (22, 1.21542839333415030000e-002) (23, -2.31218077242374420000e-002) (24, 5.26426471769809720000e-002) (25, 8.60316380858421330000e-002) (26, -9.09718312323093410000e-003) (27, 1.38271017931401730000e-004) (28, 8.26192572712898250000e-002) (29, -4.47187349200248720000e-002) (30, -7.46966227889060970000e-002) (31, -9.29086431860923770000e-002) (32, 1.71998087316751480000e-002) (33, 2.60903555899858470000e-002) (34, -3.35640422999858860000e-002) (2, -5.89494127780199050000e-003) (3, 1.87242105603218080000e-002) (4, -4.90336194634437560000e-002) (5, 3.38898189365863800000e-002) (6, -3.83178927004337310000e-002) (7, -9.92893427610397340000e-002) (8, 5.86456507444381710000e-002) (9, -5.76330088078975680000e-002) (10, 7.34632685780525210000e-002) (11, 6.36605694890022280000e-002) (12, 6.25583529472351070000e-002) (13, 9.76458415389060970000e-002) (14, -2.60723568499088290000e-002) (15, 7.43841677904129030000e-002) (16, 6.10153339803218840000e-002) (17, -8.33103358745574950000e-002) (18, -3.10118049383163450000e-002) (19, 4.93948943912982940000e-002) (20, 9.52978506684303280000e-002) (21, -1.53444502502679820000e-002) (22, 7.02925920486450200000e-002) (23, -5.03309555351734160000e-002) (24, 1.34807825088500980000e-002) (25, 9.39102545380592350000e-002) (26, 1.43588809296488760000e-002) (27, -6.09541237354278560000e-002) (28, 9.43289771676063540000e-002) (29, -2.09376029670238490000e-002) (30, -3.73632647097110750000e-002) (31, -8.61652493476867680000e-002) (32, -1.37380382511764760000e-003) (33, -9.58234816789627080000e-002) (34, 9.87751707434654240000e-002) (2, -3.02962269634008410000e-002) (3, 9.52045172452926640000e-002) (4, -9.36203375458717350000e-002) (5, -4.13844920694828030000e-002) (6, 8.76631140708923340000e-002) (7, -8.20972919464111330000e-002) (8, 4.51897382736206050000e-002) (9, -9.79508757591247560000e-002) (10, 2.98719592392444610000e-002) (11, 1.36397453024983410000e-002) (12, 8.84730070829391480000e-002) (13, -9.91373658180236820000e-002) (14, -8.57454538345336910000e-002) (15, -6.43079057335853580000e-002) (16, -5.19560500979423520000e-002) (17, -1.84907671064138410000e-002) (18, 5.65930455923080440000e-002) (19, 4.37952093780040740000e-002) (20, -7.56761208176612850000e-002) (21, 2.81403493136167530000e-002) (22, -3.46901975572109220000e-002) (23, 5.20086437463760380000e-002) (24, 6.57501667737960820000e-002) (25, 1.48937916383147240000e-002) (26, 5.46610653400421140000e-002) (27, -5.53238205611705780000e-004) (28, 9.08282473683357240000e-002) (29, -2.96182408928871150000e-002) (30, -2.12028194218873980000e-002) (31, -8.12453404068946840000e-003) (32, -5.57042099535465240000e-003) (33, 8.55009257793426510000e-002) (34, -5.13006299734115600000e-002) (2, -3.46171855926513670000e-002) (3, -2.52554900944232940000e-002) (4, 5.30615970492362980000e-002) (5, -8.00491794943809510000e-002) (6, 3.16260904073715210000e-002) (7, 1.19806751608848570000e-002) (8, 5.92626929283142090000e-002) (9, 4.99162413179874420000e-002) (10, 7.62898027896881100000e-002) (11, -7.44247436523437500000e-002) (12, -5.97573742270469670000e-002) (13, 6.38033598661422730000e-002) (14, -6.35316967964172360000e-002) (15, 4.40546125173568730000e-002) (16, 8.06210413575172420000e-002) (17, -4.00862209498882290000e-002) (18, 3.54734994471073150000e-002) (19, -7.01157003641128540000e-002) (20, -3.93356312997639180000e-004) (21, -9.61750745773315430000e-002) (22, 3.45229245722293850000e-002) (23, 5.89292384684085850000e-002) (24, -3.81401809863746170000e-003) (25, 9.42491143941879270000e-002) (26, -6.63211941719055180000e-002) (27, -7.52196013927459720000e-002) (28, -1.49775007739663120000e-002) (29, 9.60876196622848510000e-002) (30, 9.38593316823244090000e-003) (31, 7.66675695776939390000e-002) (32, -8.94721522927284240000e-002) (33, 1.89963281154632570000e-002) (34, 1.28097394481301310000e-002) (2, -8.08481946587562560000e-002) (3, 5.74958063662052150000e-002) (4, 6.69935625046491620000e-003) (5, 2.33764965087175370000e-002) (6, 2.09989435970783230000e-002) (7, 5.90546354651451110000e-002) (8, 3.84866259992122650000e-002) (9, -4.58654202520847320000e-002) (10, -5.00596538186073300000e-002) (11, -8.61334726214408870000e-002) (12, -9.25825685262680050000e-002) (13, -4.60552349686622620000e-002) (14, -2.53839679062366490000e-002) (15, 9.58625506609678270000e-003) (16, -2.07839068025350570000e-002) (17, 6.78512006998062130000e-002) (18, 5.96639961004257200000e-002) (19, 6.16462528705596920000e-002) (20, -2.02888324856758120000e-002) (21, -2.54967510700225830000e-002) (22, 7.98311978578567500000e-002) (23, -1.38952676206827160000e-002) (24, 2.47977692633867260000e-002) (25, 3.89173142611980440000e-002) (26, -9.64978262782096860000e-002) (27, -5.09016867727041240000e-003) (28, -4.67463582754135130000e-002) (29, 3.54998521506786350000e-002) (30, 4.96444255113601680000e-002) (31, -7.51890018582344060000e-002) (32, -4.60549481213092800000e-002) (33, -1.40713779255747800000e-002) (34, -2.79338546097278590000e-002) (2, -8.39811190962791440000e-002) (3, -3.60780544579029080000e-002) (4, 9.68564972281455990000e-002) (5, -9.09632518887519840000e-002) (6, 4.20813448727130890000e-002) (7, 1.74884870648384090000e-002) (8, 3.24443280696868900000e-002) (9, 6.16729333996772770000e-002) (10, -2.37407088279724120000e-002) (11, 3.74759882688522340000e-002) (12, 6.62200152873992920000e-002) (13, -3.66233214735984800000e-002) (14, -5.73453828692436220000e-002) (15, 3.72764505445957180000e-002) (16, 1.86702553182840350000e-002) (17, -7.28090777993202210000e-002) (18, 2.58540902286767960000e-002) (19, 1.02308029308915140000e-002) (20, 6.62131831049919130000e-002) (21, -4.60036657750606540000e-003) (22, 4.24977354705333710000e-002) (23, -7.74584710597991940000e-002) (24, -5.91774769127368930000e-002) (25, 1.24483462423086170000e-003) (26, -8.26138854026794430000e-002) (27, 4.56923656165599820000e-002) (28, 3.55613008141517640000e-002) (29, 6.35083988308906560000e-002) (30, -8.10266584157943730000e-002) (31, 2.92525421828031540000e-002) (32, 9.60927456617355350000e-002) (33, -6.70961290597915650000e-002) (34, -9.30859744548797610000e-002) (2, 1.01290922611951830000e-002) (3, 4.07861806452274320000e-002) (4, -3.35810109972953800000e-002) (5, -1.70113537460565570000e-002) (6, -8.30852836370468140000e-002) (7, -2.85947937518358230000e-002) (8, -8.16161260008811950000e-002) (9, 9.13523510098457340000e-003) (10, 5.41847497224807740000e-002) (11, -7.16336444020271300000e-002) (12, 9.32906791567802430000e-002) (13, 9.00342911481857300000e-002) (14, -3.80233712494373320000e-002) (15, 5.04864007234573360000e-002) (16, 9.88496467471122740000e-002) (17, 3.47760394215583800000e-002) (18, 1.83185748755931850000e-002) (19, 8.96353721618652340000e-002) (20, -7.93529376387596130000e-002) (21, 5.66560514271259310000e-002) (22, -3.03491652011871340000e-002) (23, -5.63836283981800080000e-002) (24, -4.48432527482509610000e-002) (25, 2.17803823761641980000e-003) (26, 7.28000029921531680000e-002) (27, -4.36621308326721190000e-002) (28, -7.09044188261032100000e-002) (29, -8.54786112904548650000e-002) (30, 2.62730307877063750000e-002) (31, 4.65597957372665410000e-002) (32, -6.05653077363967900000e-002) (33, 4.05513420701026920000e-002) (34, -2.32884828001260760000e-002) (2, 2.07913722842931750000e-002) (3, -5.70127852261066440000e-002) (4, 8.68472382426261900000e-002) (5, -2.95936129987239840000e-002) (6, -7.88461640477180480000e-002) (7, -7.13731721043586730000e-002) (8, 2.85638086497783660000e-002) (9, -4.11642119288444520000e-002) (10, -2.22698803991079330000e-002) (11, 9.99742820858955380000e-002) (12, 8.69120582938194270000e-002) (13, 9.24151167273521420000e-002) (14, 3.54057527147233490000e-003) (15, -9.69713404774665830000e-002) (16, -3.91879193484783170000e-002) (17, 3.58497276902198790000e-002) (18, 2.23143244511447850000e-004) (19, 3.62002514302730560000e-002) (20, -5.26691824197769170000e-002) (21, 5.24259991943836210000e-002) (22, 3.49279120564460750000e-002) (23, 5.23149631917476650000e-002) (24, 3.08800563216209410000e-002) (25, -5.60313947498798370000e-002) (26, -7.37900286912918090000e-002) (27, -8.87873321771621700000e-002) (28, -3.35430912673473360000e-002) (29, 3.65089029073715210000e-002) (30, 1.93156786262989040000e-002) (31, 9.92199927568435670000e-002) (32, 4.98498193919658660000e-002) (33, 9.29052606225013730000e-002) (34, -1.69715657830238340000e-002) (2, 4.43808063864707950000e-002) (3, -1.11512597650289540000e-002) (4, -8.01874399185180660000e-002) (5, -9.26916375756263730000e-002) (6, 6.15298785269260410000e-002) (7, -1.79374571889638900000e-002) (8, -3.89881879091262820000e-002) (9, 3.41899245977401730000e-002) (10, -2.38832924515008930000e-002) (11, 3.81091469898819920000e-003) (12, 6.90054222941398620000e-002) (13, 4.95286833029240370000e-004) (14, 2.23901607096195220000e-002) (15, 7.81567767262458800000e-003) (16, -9.90633293986320500000e-002) (17, -6.34882599115371700000e-002) (18, -2.62432880699634550000e-002) (19, 6.62446469068527220000e-002) (20, -3.29573489725589750000e-002) (21, 8.06733742356300350000e-002) (22, -6.02977946400642400000e-002) (23, -8.44740122556686400000e-002) (24, -2.88507100194692610000e-002) (25, 5.55078797042369840000e-002) (26, -6.73680752515792850000e-002) (27, -4.12318855524063110000e-002) (28, 5.45003041625022890000e-002) (29, 7.83638581633567810000e-002) (30, 7.28481188416481020000e-002) (31, 6.65200781077146530000e-003) (32, 2.68964678980410100000e-003) (33, 6.19134716689586640000e-002) (34, -7.43751004338264470000e-002) (2, -4.21553626656532290000e-002) (3, 1.08551038429141040000e-002) (4, 3.92347425222396850000e-002) (5, 4.09197323024272920000e-002) (6, -5.38854524493217470000e-002) (7, 8.06417986750602720000e-002) (8, 9.63985398411750790000e-002) (9, -2.69549638032913210000e-002) (10, -6.10431469976902010000e-002) (11, 4.05156910419464110000e-002) (12, 4.42160293459892270000e-002) (13, 9.12440344691276550000e-002) (14, -8.73826891183853150000e-002) (15, 5.54141066968441010000e-002) (16, 2.13978774845600130000e-002) (17, 2.23015490919351580000e-002) (18, -1.81491521652787920000e-003) (19, 1.11379669979214670000e-002) (20, 3.33243496716022490000e-002) (21, 1.90341677516698840000e-002) (22, 9.81982499361038210000e-002) (23, 7.46472701430320740000e-002) (24, 3.29176783561706540000e-002) (25, -3.01743224263191220000e-002) (26, 9.18419379740953450000e-003) (27, -1.68608576059341430000e-002) (28, -3.22441421449184420000e-002) (29, 7.62920081615448000000e-002) (30, -8.54017809033393860000e-002) (31, -4.83793281018733980000e-002) (32, -3.42128053307533260000e-002) (33, -8.67611989378929140000e-002) (34, 8.94575193524360660000e-002) (2, -2.47733434662222860000e-003) (3, -9.28998515009880070000e-002) (4, -5.33718243241310120000e-002) (5, -6.98732137680053710000e-002) (6, -6.13472498953342440000e-002) (7, -5.51215484738349910000e-002) (8, -2.45195976458489890000e-003) (9, 2.68171411007642750000e-002) (10, 6.42972439527511600000e-002) (11, 2.28603500872850420000e-002) (12, -9.14444401860237120000e-002) (13, -5.72132542729377750000e-002) (14, -5.14963231980800630000e-002) (15, -4.56412546336650850000e-002) (16, -7.47713968157768250000e-002) (17, -4.38600927591323850000e-002) (18, -7.90164154022932050000e-003) (19, -7.81551599502563480000e-002) (20, 4.77882921695709230000e-002) (21, -4.43864054977893830000e-002) (22, -1.81947872042655940000e-002) (23, -6.76880478858947750000e-002) (24, 5.93168362975120540000e-002) (25, 6.28653392195701600000e-002) (26, 2.85029187798500060000e-002) (27, -8.73115062713623050000e-002) (28, 8.11360105872154240000e-002) (29, -9.76643264293670650000e-002) (30, -9.64148901402950290000e-003) (31, -1.39349000528454780000e-002) (32, -2.73600239306688310000e-002) (33, -7.54333958029747010000e-002) (34, -6.24716505408287050000e-002) (2, -1.76354423165321350000e-002) (3, 1.49242570623755460000e-002) (4, 7.52854123711586000000e-002) (5, -3.65415140986442570000e-002) (6, -5.54821603000164030000e-002) (7, 1.14533565938472750000e-002) (8, 2.72039175033569340000e-002) (9, 9.99411493539810180000e-002) (10, 9.96468812227249150000e-002) (11, 2.27149892598390580000e-002) (12, 9.38363820314407350000e-002) (13, 3.68018895387649540000e-002) (14, 2.01512556523084640000e-002) (15, 8.55401158332824710000e-002) (16, -1.18494732305407520000e-002) (17, 2.23948657512664790000e-002) (18, 5.77543973922729490000e-002) (19, -5.83764836192131040000e-002) (20, -6.46518450230360030000e-003) (21, 2.12521273642778400000e-002) (22, 6.21874490752816200000e-003) (23, 8.96751880645751950000e-002) (24, 9.88289341330528260000e-002) (25, -9.25308391451835630000e-002) (26, 2.15554367750883100000e-002) (27, 1.68816223740577700000e-002) (28, 3.60618084669113160000e-002) (29, -2.00700554996728900000e-002) (30, -2.26258602924644950000e-003) (31, -6.39806017279624940000e-002) (32, 1.25934677198529240000e-002) (33, 1.09070667531341310000e-003) (34, 2.04448662698268890000e-002) (35, 3.85947115719318390000e-002) (36, 4.86733466386795040000e-002) (37, -1.05456402525305750000e-002) (38, 3.38281132280826570000e-002) (39, 3.61268222332000730000e-002) (40, -5.85688501596450810000e-002) (41, 8.38321074843406680000e-003) (42, -7.47677534818649290000e-002) (43, -5.91166056692600250000e-002) (44, 9.47832092642784120000e-002) (45, -1.98234487324953080000e-002) (46, 7.92908966541290280000e-002) (47, -4.32156622409820560000e-002) (48, -3.26787158846855160000e-002) (49, -8.09653773903846740000e-002) (50, 2.77976728975772860000e-002) (51, -3.09552550315856930000e-002) (52, 4.54917140305042270000e-002) (53, -6.54489174485206600000e-002) (54, 8.54568555951118470000e-002) (55, 1.01776067167520520000e-002) (56, -7.57038444280624390000e-002) (57, 3.77503708004951480000e-002) (58, 8.19596722722053530000e-002) (59, -3.07634044438600540000e-002) (60, -8.42252373695373540000e-002) (61, -1.58425271511077880000e-002) (62, 5.82647882401943210000e-002) (63, 9.43855419754981990000e-002) (64, -5.36710135638713840000e-002) (65, 6.16446100175380710000e-002) (66, 3.98156009614467620000e-002) (67, -1.34898856282234190000e-001) (35, 5.74868284165859220000e-002) (36, 6.34594708681106570000e-002) (37, -5.70343174040317540000e-002) (38, -7.44271799921989440000e-002) (39, -8.04750435054302220000e-003) (40, -1.21528012678027150000e-002) (41, 1.77323743700981140000e-002) (42, -7.43989571928977970000e-002) (43, 1.66548173874616620000e-002) (44, 4.79366779327392580000e-002) (45, -2.16430239379405980000e-002) (46, 6.40223994851112370000e-002) (47, 4.24624094739556310000e-003) (48, 1.65677629411220550000e-002) (49, -8.04600939154624940000e-002) (50, -3.78904417157173160000e-002) (51, 8.29751491546630860000e-002) (52, 6.38805851340293880000e-002) (53, -6.68758107349276540000e-003) (54, 1.29333110526204110000e-002) (55, -9.33196116238832470000e-003) (56, -6.23699463903903960000e-002) (57, -2.80576944351196290000e-002) (58, -2.61087156832218170000e-002) (59, 5.62095455825328830000e-002) (60, 8.21244716644287110000e-002) (61, -1.46955833770334720000e-003) (62, -2.31062471866607670000e-002) (63, -3.07560060173273090000e-002) (64, 7.70177319645881650000e-002) (65, -2.25025434046983720000e-002) (66, -8.96439552307128910000e-002) (67, -1.33443817496299740000e-001) 
