FANN_FLO_2.1
num_layers=6
learning_rate=0.000100
connection_rate=1.000000
network_type=0
learning_momentum=0.000000
training_algorithm=2
train_error_function=1
train_stop_function=0
cascade_output_change_fraction=0.010000
quickprop_decay=-0.000100
quickprop_mu=1.750000
rprop_increase_factor=1.200000
rprop_decrease_factor=0.500000
rprop_delta_min=0.000000
rprop_delta_max=50.000000
rprop_delta_zero=0.100000
cascade_output_stagnation_epochs=12
cascade_candidate_change_fraction=0.010000
cascade_candidate_stagnation_epochs=12
cascade_max_out_epochs=150
cascade_min_out_epochs=50
cascade_max_cand_epochs=150
cascade_min_cand_epochs=50
cascade_num_candidate_groups=2
bit_fail_limit=3.49999994039535520000e-001
cascade_candidate_limit=1.00000000000000000000e+003
cascade_weight_multiplier=4.00000005960464480000e-001
cascade_activation_functions_count=10
cascade_activation_functions=3 5 7 8 10 11 14 15 16 17 
cascade_activation_steepnesses_count=4
cascade_activation_steepnesses=2.50000000000000000000e-001 5.00000000000000000000e-001 7.50000000000000000000e-001 1.00000000000000000000e+000 
layer_sizes=2 33 33 33 33 3 
scale_included=0
neurons (num_inputs, activation_function, activation_steepness)=(0, 0, 0.00000000000000000000e+000) (0, 0, 0.00000000000000000000e+000) (2, 3, 5.00000000000000000000e-001) (2, 3, 5.00000000000000000000e-001) (2, 3, 5.00000000000000000000e-001) (2, 3, 5.00000000000000000000e-001) (2, 3, 5.00000000000000000000e-001) (2, 3, 5.00000000000000000000e-001) (2, 3, 5.00000000000000000000e-001) (2, 3, 5.00000000000000000000e-001) (2, 3, 5.00000000000000000000e-001) (2, 3, 5.00000000000000000000e-001) (2, 3, 5.00000000000000000000e-001) (2, 3, 5.00000000000000000000e-001) (2, 3, 5.00000000000000000000e-001) (2, 3, 5.00000000000000000000e-001) (2, 3, 5.00000000000000000000e-001) (2, 3, 5.00000000000000000000e-001) (2, 3, 5.00000000000000000000e-001) (2, 3, 5.00000000000000000000e-001) (2, 3, 5.00000000000000000000e-001) (2, 3, 5.00000000000000000000e-001) (2, 3, 5.00000000000000000000e-001) (2, 3, 5.00000000000000000000e-001) (2, 3, 5.00000000000000000000e-001) (2, 3, 5.00000000000000000000e-001) (2, 3, 5.00000000000000000000e-001) (2, 3, 5.00000000000000000000e-001) (2, 3, 5.00000000000000000000e-001) (2, 3, 5.00000000000000000000e-001) (2, 3, 5.00000000000000000000e-001) (2, 3, 5.00000000000000000000e-001) (2, 3, 5.00000000000000000000e-001) (2, 3, 5.00000000000000000000e-001) (0, 3, 0.00000000000000000000e+000) (33, 3, 5.00000000000000000000e-001) (33, 3, 5.00000000000000000000e-001) (33, 3, 5.00000000000000000000e-001) (33, 3, 5.00000000000000000000e-001) (33, 3, 5.00000000000000000000e-001) (33, 3, 5.00000000000000000000e-001) (33, 3, 5.00000000000000000000e-001) (33, 3, 5.00000000000000000000e-001) (33, 3, 5.00000000000000000000e-001) (33, 3, 5.00000000000000000000e-001) (33, 3, 5.00000000000000000000e-001) (33, 3, 5.00000000000000000000e-001) (33, 3, 5.00000000000000000000e-001) (33, 3, 5.00000000000000000000e-001) (33, 3, 5.00000000000000000000e-001) (33, 3, 5.00000000000000000000e-001) (33, 3, 5.00000000000000000000e-001) (33, 3, 5.00000000000000000000e-001) (33, 3, 5.00000000000000000000e-001) (33, 3, 5.00000000000000000000e-001) (33, 3, 5.00000000000000000000e-001) (33, 3, 5.00000000000000000000e-001) (33, 3, 5.00000000000000000000e-001) (33, 3, 5.00000000000000000000e-001) (33, 3, 5.00000000000000000000e-001) (33, 3, 5.00000000000000000000e-001) (33, 3, 5.00000000000000000000e-001) (33, 3, 5.00000000000000000000e-001) (33, 3, 5.00000000000000000000e-001) (33, 3, 5.00000000000000000000e-001) (33, 3, 5.00000000000000000000e-001) (33, 3, 5.00000000000000000000e-001) (0, 3, 0.00000000000000000000e+000) (33, 3, 5.00000000000000000000e-001) (33, 3, 5.00000000000000000000e-001) (33, 3, 5.00000000000000000000e-001) (33, 3, 5.00000000000000000000e-001) (33, 3, 5.00000000000000000000e-001) (33, 3, 5.00000000000000000000e-001) (33, 3, 5.00000000000000000000e-001) (33, 3, 5.00000000000000000000e-001) (33, 3, 5.00000000000000000000e-001) (33, 3, 5.00000000000000000000e-001) (33, 3, 5.00000000000000000000e-001) (33, 3, 5.00000000000000000000e-001) (33, 3, 5.00000000000000000000e-001) (33, 3, 5.00000000000000000000e-001) (33, 3, 5.00000000000000000000e-001) (33, 3, 5.00000000000000000000e-001) (33, 3, 5.00000000000000000000e-001) (33, 3, 5.00000000000000000000e-001) (33, 3, 5.00000000000000000000e-001) (33, 3, 5.00000000000000000000e-001) (33, 3, 5.00000000000000000000e-001) (33, 3, 5.00000000000000000000e-001) (33, 3, 5.00000000000000000000e-001) (33, 3, 5.00000000000000000000e-001) (33, 3, 5.00000000000000000000e-001) (33, 3, 5.00000000000000000000e-001) (33, 3, 5.00000000000000000000e-001) (33, 3, 5.00000000000000000000e-001) (33, 3, 5.00000000000000000000e-001) (33, 3, 5.00000000000000000000e-001) (33, 3, 5.00000000000000000000e-001) (33, 3, 5.00000000000000000000e-001) (0, 3, 0.00000000000000000000e+000) (33, 3, 5.00000000000000000000e-001) (33, 3, 5.00000000000000000000e-001) (33, 3, 5.00000000000000000000e-001) (33, 3, 5.00000000000000000000e-001) (33, 3, 5.00000000000000000000e-001) (33, 3, 5.00000000000000000000e-001) (33, 3, 5.00000000000000000000e-001) (33, 3, 5.00000000000000000000e-001) (33, 3, 5.00000000000000000000e-001) (33, 3, 5.00000000000000000000e-001) (33, 3, 5.00000000000000000000e-001) (33, 3, 5.00000000000000000000e-001) (33, 3, 5.00000000000000000000e-001) (33, 3, 5.00000000000000000000e-001) (33, 3, 5.00000000000000000000e-001) (33, 3, 5.00000000000000000000e-001) (33, 3, 5.00000000000000000000e-001) (33, 3, 5.00000000000000000000e-001) (33, 3, 5.00000000000000000000e-001) (33, 3, 5.00000000000000000000e-001) (33, 3, 5.00000000000000000000e-001) (33, 3, 5.00000000000000000000e-001) (33, 3, 5.00000000000000000000e-001) (33, 3, 5.00000000000000000000e-001) (33, 3, 5.00000000000000000000e-001) (33, 3, 5.00000000000000000000e-001) (33, 3, 5.00000000000000000000e-001) (33, 3, 5.00000000000000000000e-001) (33, 3, 5.00000000000000000000e-001) (33, 3, 5.00000000000000000000e-001) (33, 3, 5.00000000000000000000e-001) (33, 3, 5.00000000000000000000e-001) (0, 3, 0.00000000000000000000e+000) (33, 3, 5.00000000000000000000e-001) (33, 3, 5.00000000000000000000e-001) (0, 3, 0.00000000000000000000e+000) 
connections (connected_to_neuron, weight)=(0, 4.94873039424419400000e-002) (1, 2.36511230468750000000e-002) (0, 1.71471125213429330000e-004) (1, 8.36181640625000000000e-002) (0, -3.59191894531250000000e-002) (1, -7.91686996817588810000e-002) (0, -1.54162058606743810000e-002) (1, -9.39514189958572390000e-002) (0, -4.07592765986919400000e-002) (1, -2.03674323856830600000e-002) (0, -1.96093115955591200000e-002) (1, 8.67370590567588810000e-002) (0, 5.85632324218750000000e-002) (1, -7.96142593026161190000e-002) (0, -4.67041023075580600000e-002) (1, 4.85900901257991790000e-002) (0, -6.67236372828483580000e-002) (1, 9.59472637623548510000e-003) (0, -3.67858894169330600000e-002) (1, -6.65710493922233580000e-002) (0, 9.31518599390983580000e-002) (1, 1.21582029387354850000e-002) (0, -6.72302246093750000000e-002) (1, 2.15515140444040300000e-002) (0, 5.28747551143169400000e-002) (1, 1.73339843750000000000e-002) (0, -5.73888421058654790000e-003) (1, 1.57348643988370900000e-002) (0, -9.50012207031250000000e-002) (1, 4.48425300419330600000e-002) (0, 9.64721664786338810000e-002) (1, -5.40466308593750000000e-002) (0, 3.07983402162790300000e-002) (1, 3.72497551143169400000e-002) (0, 5.23925796151161190000e-002) (1, -4.89807128906250000000e-002) (0, -1.96952223777771000000e-002) (1, -5.50170913338661190000e-002) (0, -9.06982421875000000000e-002) (1, 9.34997573494911190000e-002) (0, 5.26674017310142520000e-002) (1, -8.98925811052322390000e-002) (0, 2.23263781517744060000e-002) (1, 6.39892593026161190000e-002) (0, 8.22814274579286580000e-003) (1, 5.52551262080669400000e-002) (0, -8.72558578848838810000e-002) (1, -6.88415542244911190000e-002) (0, 4.34007346630096440000e-002) (1, 8.38195830583572390000e-002) (0, 9.23461914062500000000e-002) (1, -6.27441424876451490000e-003) (0, 5.97821660339832310000e-002) (1, -2.23427405580878260000e-003) (0, -6.49780258536338810000e-002) (1, 9.06494185328483580000e-002) (0, -4.14001457393169400000e-002) (1, -6.07482902705669400000e-002) (0, -2.30830386281013490000e-002) (1, 2.57385261356830600000e-002) (0, -8.22693668305873870000e-003) (1, 6.23230002820491790000e-002) (0, -7.37365707755088810000e-002) (1, 6.30065947771072390000e-002) (2, -9.90478545427322390000e-002) (3, 4.09587584435939790000e-002) (4, -3.56451086699962620000e-002) (5, -5.10445423424243930000e-002) (6, 7.56347700953483580000e-002) (7, -8.03039595484733580000e-002) (8, 1.86506919562816620000e-002) (9, 1.80828534066677090000e-002) (10, 6.16629347205162050000e-002) (11, -8.69750976562500000000e-002) (12, -1.04998275637626650000e-002) (13, 3.78041975200176240000e-002) (14, 5.14075011014938350000e-002) (15, 5.99409826099872590000e-002) (16, 1.15771293640136720000e-002) (17, -5.08877262473106380000e-002) (18, 8.68286117911338810000e-002) (19, -6.02192915976047520000e-002) (20, -6.86584487557411190000e-002) (21, -4.08092476427555080000e-002) (22, 6.62675639614462850000e-003) (23, -4.43566590547561650000e-002) (24, 8.17993208765983580000e-002) (25, -5.77886626124382020000e-002) (26, 6.88720718026161190000e-002) (27, -8.35744198411703110000e-003) (28, -6.42944350838661190000e-002) (29, 4.58831619471311570000e-003) (30, 8.02001953125000000000e-002) (31, -4.97759059071540830000e-002) (32, -8.13964828848838810000e-002) (33, -2.90666520595550540000e-002) (34, -3.70760969817638400000e-002) (2, -2.41484902799129490000e-002) (3, -3.71268317103385930000e-002) (4, 4.70031760632991790000e-002) (5, -8.66416934877634050000e-003) (6, 7.12036117911338810000e-002) (7, 8.39660689234733580000e-002) (8, 1.57868135720491410000e-002) (9, 2.82620452344417570000e-002) (10, -8.77319350838661190000e-002) (11, -3.97216789424419400000e-002) (12, 2.30745766311883930000e-002) (13, -6.55238237231969830000e-003) (14, -3.15174236893653870000e-002) (15, -2.31701368466019630000e-003) (16, -9.12475585937500000000e-002) (17, 9.46594253182411190000e-002) (18, -6.58264160156250000000e-002) (19, 6.01385124027729030000e-002) (20, -5.99670410156250000000e-002) (21, 5.30584193766117100000e-002) (22, -2.23540570586919780000e-002) (23, -5.24463765323162080000e-002) (24, -9.71435531973838810000e-002) (25, 5.38696311414241790000e-002) (26, 1.40232192352414130000e-002) (27, 2.12663132697343830000e-003) (28, 7.80939543619751930000e-003) (29, 5.37298060953617100000e-002) (30, -9.17846709489822390000e-002) (31, -7.54821822047233580000e-002) (32, -3.33307422697544100000e-002) (33, -2.40454506129026410000e-002) (34, 1.42332194373011590000e-002) (2, -1.90093386918306350000e-002) (3, 9.59960967302322390000e-002) (4, 2.49063149094581600000e-002) (5, -4.30358909070491790000e-002) (6, 8.28369185328483580000e-002) (7, 3.83086386136710640000e-003) (8, 5.07568381726741790000e-002) (9, 6.29638656973838810000e-002) (10, -8.07189941406250000000e-002) (11, -8.40698257088661190000e-002) (12, -4.11013793200254440000e-003) (13, -5.38452155888080600000e-002) (14, 2.52167545258998870000e-002) (15, -2.38245725631713870000e-003) (16, -4.57458496093750000000e-002) (17, 5.49310445785522460000e-002) (18, -3.50830070674419400000e-002) (19, -7.23083540797233580000e-002) (20, 7.47192427515983580000e-002) (21, 8.68530273437500000000e-002) (22, -8.70056152343750000000e-002) (23, 8.04382339119911190000e-002) (24, 3.99963371455669400000e-002) (25, 7.71301314234733580000e-002) (26, 1.39196226373314860000e-002) (27, -2.78472304344177250000e-002) (28, -4.79437112808227540000e-002) (29, 6.72058090567588810000e-002) (30, 1.27372983843088150000e-003) (31, -7.16247558593750000000e-002) (32, -4.44885268807411190000e-002) (33, -4.03442382812500000000e-002) (34, 5.80271109938621520000e-002) (2, 2.80094165354967120000e-002) (3, 3.01212817430496220000e-002) (4, 6.57043457031250000000e-002) (5, -9.02456231415271760000e-004) (6, 8.07250961661338810000e-002) (7, 8.36853012442588810000e-002) (8, -4.85102087259292600000e-002) (9, -4.26266528666019440000e-002) (10, 9.37805175781250000000e-002) (11, -2.34126206487417220000e-002) (12, 8.94897505640983580000e-002) (13, 5.45838735997676850000e-002) (14, -1.54781173914670940000e-002) (15, 9.20449476689100270000e-003) (16, -7.87597671151161190000e-002) (17, 3.81047017872333530000e-002) (18, -5.11343684047460560000e-003) (19, -9.65087935328483580000e-002) (20, 3.76163572072982790000e-002) (21, -3.49058508872985840000e-002) (22, -3.59309352934360500000e-002) (23, 9.93099529296159740000e-003) (24, 8.29711928963661190000e-002) (25, -8.49060043692588810000e-002) (26, -8.43383818864822390000e-002) (27, -2.88692712783813480000e-002) (28, 8.93371626734733580000e-002) (29, 1.24089587479829790000e-002) (30, -8.45214873552322390000e-002) (31, -2.66781561076641080000e-002) (32, 4.69610206782817840000e-002) (33, -6.04552775621414180000e-002) (34, 5.63727654516696930000e-002) (2, 1.69790480285882950000e-002) (3, 1.73942837864160540000e-002) (4, 2.28390954434871670000e-002) (5, -7.38098174333572390000e-002) (6, -6.21520988643169400000e-002) (7, -4.53687319532036780000e-003) (8, 7.16796889901161190000e-002) (9, 1.52573464438319210000e-002) (10, 9.59336943924427030000e-003) (11, 2.62814685702323910000e-002) (12, 5.24230971932411190000e-002) (13, 1.95003338158130650000e-002) (14, 5.93688972294330600000e-002) (15, -1.64557155221700670000e-002) (16, -2.16129720211029050000e-002) (17, 9.55688506364822390000e-002) (18, -7.24914595484733580000e-002) (19, -8.44604521989822390000e-002) (20, 9.70642119646072390000e-002) (21, 2.41145510226488110000e-002) (22, 2.57358094677329060000e-003) (23, -3.51928733289241790000e-002) (24, -4.41223159432411190000e-002) (25, -6.24145530164241790000e-002) (26, 6.31469711661338810000e-002) (27, -3.19641120731830600000e-002) (28, 2.76846103370189670000e-002) (29, -3.13415527343750000000e-002) (30, -4.26269546151161190000e-002) (31, -5.78063987195491790000e-002) (32, 7.73315429687500000000e-002) (33, 7.56652876734733580000e-002) (34, -4.82556559145450590000e-002) (2, -3.67431640625000000000e-002) (3, -4.96032722294330600000e-002) (4, 1.21557153761386870000e-003) (5, 8.02734419703483580000e-002) (6, 4.37805168330669400000e-002) (7, -3.44360359013080600000e-002) (8, 2.02575679868459700000e-002) (9, -7.47680664062500000000e-002) (10, -8.44482406973838810000e-002) (11, -8.35563614964485170000e-003) (12, 3.38562019169330600000e-002) (13, -3.91418449580669400000e-002) (14, -7.64648467302322390000e-002) (15, -9.30772535502910610000e-003) (16, 6.49353042244911190000e-002) (17, 9.11499038338661190000e-002) (18, -6.25427290797233580000e-002) (19, -9.16381850838661190000e-002) (20, -8.78173857927322390000e-002) (21, -8.68896469473838810000e-002) (22, 8.71276855468750000000e-002) (23, 9.27673354744911190000e-002) (24, 1.84448249638080600000e-002) (25, -6.34460449218750000000e-002) (26, 2.79541015625000000000e-002) (27, -7.68615752458572390000e-002) (28, -9.01672393083572390000e-002) (29, 9.18823257088661190000e-002) (30, -5.73242194950580600000e-002) (31, 2.94494628906250000000e-002) (32, 6.17248527705669400000e-002) (33, -4.30664084851741790000e-002) (34, -1.42442360520362850000e-002) (2, -1.56358573585748670000e-002) (3, -5.19578531384468080000e-002) (4, 3.42655777931213380000e-002) (5, -2.34483163803815840000e-002) (6, 4.86517436802387240000e-002) (7, -7.00805708765983580000e-002) (8, -8.99169966578483580000e-002) (9, 4.75899167358875270000e-002) (10, 5.13983853161334990000e-002) (11, -5.98567351698875430000e-002) (12, 2.60144062340259550000e-002) (13, 5.41511178016662600000e-002) (14, -1.37923965230584140000e-002) (15, 1.94532945752143860000e-002) (16, 9.50622558593750000000e-002) (17, 5.14727346599102020000e-002) (18, 4.70720510929822920000e-003) (19, 6.11343607306480410000e-002) (20, 9.29443389177322390000e-002) (21, 4.56918030977249150000e-002) (22, -1.14795025438070300000e-002) (23, 2.00147461146116260000e-002) (24, 5.60560598969459530000e-002) (25, -7.50061050057411190000e-002) (26, -1.89623124897480010000e-002) (27, -5.78227601945400240000e-002) (28, 1.73414181917905810000e-002) (29, -2.30271723121404650000e-002) (30, 6.02116286754608150000e-002) (31, 7.16247558593750000000e-002) (32, -8.87084975838661190000e-002) (33, 9.86145064234733580000e-002) (34, -6.64223805069923400000e-002) (2, -9.85259283334016800000e-003) (3, -2.06422824412584300000e-002) (4, -9.48425307869911190000e-002) (5, 3.68103049695491790000e-002) (6, 4.66430671513080600000e-002) (7, -9.30358916521072390000e-002) (8, 4.39209006726741790000e-002) (9, 1.70774776488542560000e-002) (10, 3.21533195674419400000e-002) (11, 2.34497077763080600000e-002) (12, -8.04199203848838810000e-002) (13, -1.76392868161201480000e-002) (14, -4.31823730468750000000e-002) (15, -3.87725559994578360000e-003) (16, -6.30798339843750000000e-002) (17, -1.94855208974331620000e-003) (18, 8.50830078125000000000e-002) (19, -5.02563491463661190000e-002) (20, 6.74987807869911190000e-002) (21, 1.21143767610192300000e-002) (22, 8.53027328848838810000e-002) (23, 4.25842292606830600000e-002) (24, 4.63195815682411190000e-002) (25, 8.99108871817588810000e-002) (26, 5.01159690320491790000e-002) (27, 3.04621476680040360000e-002) (28, 4.88727167248725890000e-003) (29, -5.98266609013080600000e-002) (30, 4.36950698494911190000e-002) (31, 4.98352050781250000000e-002) (32, 4.68139648437500000000e-002) (33, 1.31153361871838570000e-002) (34, -6.77246078848838810000e-002) (2, -4.86572273075580600000e-002) (3, -2.77714617550373080000e-002) (4, -4.78454604744911190000e-002) (5, -4.59350608289241790000e-002) (6, 1.49463340640068050000e-002) (7, 5.73425292968750000000e-002) (8, 8.03405791521072390000e-002) (9, -1.50646781548857690000e-002) (10, -2.19851173460483550000e-002) (11, 9.52636748552322390000e-002) (12, -9.71679687500000000000e-002) (13, -4.40063476562500000000e-002) (14, 7.46954604983329770000e-003) (15, 4.41180309280753140000e-003) (16, -9.33776870369911190000e-002) (17, -2.06122845411300660000e-002) (18, -5.25756850838661190000e-002) (19, 1.08019141480326650000e-002) (20, 3.88000495731830600000e-002) (21, 3.85864265263080600000e-002) (22, 7.33520537614822390000e-002) (23, -8.96606445312500000000e-002) (24, -5.54626472294330600000e-002) (25, -6.78336073178797960000e-004) (26, 8.42407271265983580000e-002) (27, 1.75041202455759050000e-002) (28, -5.38635253906250000000e-002) (29, -2.47898302040994170000e-003) (30, -3.61694358289241790000e-002) (31, -9.34448242187500000000e-002) (32, 4.43298332393169400000e-002) (33, -3.95935066044330600000e-002) (34, 4.22599501907825470000e-002) (2, -4.83642593026161190000e-002) (3, -7.69409164786338810000e-002) (4, -8.29162597656250000000e-002) (5, 8.93554687500000000000e-002) (6, -2.81264185905456540000e-002) (7, 3.90808098018169400000e-002) (8, 5.47973625361919400000e-002) (9, -2.91948057711124420000e-002) (10, -1.21177043765783310000e-002) (11, -2.24501490592956540000e-002) (12, -2.28234659880399700000e-002) (13, 9.84863266348838810000e-002) (14, -4.21971734613180160000e-003) (15, -4.51232902705669400000e-002) (16, -7.93396010994911190000e-002) (17, 6.15009013563394550000e-003) (18, -3.48999015986919400000e-002) (19, 5.00732436776161190000e-002) (20, -1.46323526278138160000e-002) (21, 8.17932114005088810000e-002) (22, -3.32885757088661190000e-002) (23, 4.59350608289241790000e-002) (24, -6.32812529802322390000e-002) (25, -1.21053392067551610000e-002) (26, 3.71215827763080600000e-002) (27, 6.11633323132991790000e-002) (28, 3.39294448494911190000e-002) (29, 7.79767229687422510000e-004) (30, 8.53271484375000000000e-002) (31, 5.47973625361919400000e-002) (32, 4.17846702039241790000e-002) (33, 4.01349825551733370000e-004) (34, 4.85129691660404210000e-002) (2, -1.58639214932918550000e-002) (3, 8.18359404802322390000e-002) (4, -5.82397468388080600000e-002) (5, 2.81188939698040490000e-003) (6, 9.74548384547233580000e-002) (7, 7.92785659432411190000e-002) (8, -6.08093254268169400000e-002) (9, 3.53881828486919400000e-002) (10, -5.72937019169330600000e-002) (11, 6.18286132812500000000e-002) (12, -5.19623700529336930000e-003) (13, -1.58695038408041000000e-002) (14, -2.64779534190893170000e-002) (15, 6.67602568864822390000e-002) (16, -9.76562500000000000000e-002) (17, 5.11535666882991790000e-002) (18, -6.63269087672233580000e-002) (19, -8.75671431422233580000e-002) (20, -4.23828139901161190000e-002) (21, -3.65779199637472630000e-003) (22, -9.86145064234733580000e-002) (23, -9.51715838164091110000e-003) (24, 6.90724374726414680000e-003) (25, -8.26904326677322390000e-002) (26, -2.54404265433549880000e-002) (27, -6.50024414062500000000e-002) (28, 6.44409209489822390000e-002) (29, -7.81555175781250000000e-002) (30, 7.83630385994911190000e-002) (31, -7.51098617911338810000e-002) (32, 3.03094442933797840000e-002) (33, 9.92370620369911190000e-002) (34, 7.62634277343750000000e-002) (2, 7.57141113281250000000e-002) (3, -6.00185357034206390000e-002) (4, 9.66796875000000000000e-002) (5, 6.58569335937500000000e-002) (6, 7.71789550781250000000e-002) (7, 7.67639204859733580000e-002) (8, -9.30358916521072390000e-002) (9, 4.07268777489662170000e-002) (10, -6.73522949218750000000e-002) (11, -2.16892510652542110000e-002) (12, -2.62007452547550200000e-002) (13, -4.79889742564409970000e-004) (14, -4.31978441774845120000e-002) (15, 6.86645507812500000000e-002) (16, 2.09501292556524280000e-002) (17, 8.35998579859733580000e-002) (18, 8.77868682146072390000e-002) (19, -5.32377585768699650000e-002) (20, -8.86108428239822390000e-002) (21, 2.44045369327068330000e-002) (22, 7.00378417968750000000e-002) (23, 6.30004927515983580000e-002) (24, -5.71194328367710110000e-002) (25, 8.18786621093750000000e-002) (26, -3.59408110380172730000e-002) (27, 1.48267559707164760000e-002) (28, 8.60717818140983580000e-002) (29, -4.48931828141212460000e-002) (30, -6.05361126363277440000e-002) (31, -7.23084574565291400000e-003) (32, -2.85744164139032360000e-002) (33, 4.65498492121696470000e-002) (34, 7.35242990776896480000e-003) (2, 8.10546893626451490000e-003) (3, -6.87438994646072390000e-002) (4, -3.90563979744911190000e-002) (5, 4.85473647713661190000e-002) (6, 3.33801284432411190000e-002) (7, -9.69482436776161190000e-002) (8, 2.02941894531250000000e-002) (9, -6.40233466401696210000e-003) (10, 8.71521010994911190000e-002) (11, -9.96032729744911190000e-002) (12, 7.60986357927322390000e-002) (13, -8.88488814234733580000e-002) (14, -5.96884870901703830000e-003) (15, 5.77575676143169400000e-002) (16, 9.78846437647007410000e-005) (17, 6.07055686414241790000e-002) (18, 5.14282248914241790000e-002) (19, -4.47387695312500000000e-002) (20, -6.52160644531250000000e-002) (21, 6.60522505640983580000e-002) (22, -6.58386275172233580000e-002) (23, 2.99011226743459700000e-002) (24, 8.49243178963661190000e-002) (25, 6.56982436776161190000e-002) (26, 6.82067871093750000000e-002) (27, -2.07641609013080600000e-002) (28, -6.86218291521072390000e-002) (29, -3.51526332087814810000e-003) (30, 4.83419466763734820000e-003) (31, -3.60290519893169400000e-002) (32, 4.83764670789241790000e-002) (33, 6.66748061776161190000e-002) (34, 2.64343265444040300000e-002) (2, -8.44116210937500000000e-002) (3, 5.61046879738569260000e-003) (4, -2.53145936876535420000e-002) (5, -8.48571807146072390000e-002) (6, -4.46667931973934170000e-002) (7, -6.36596679687500000000e-002) (8, -7.01232925057411190000e-002) (9, -8.43078643083572390000e-002) (10, 3.07523589581251140000e-002) (11, 5.27087785303592680000e-002) (12, 3.14118564128875730000e-002) (13, 2.36051231622695920000e-002) (14, -2.39356644451618190000e-002) (15, 8.96545425057411190000e-002) (16, 6.16993978619575500000e-002) (17, 3.00619360059499740000e-002) (18, -9.73815917968750000000e-002) (19, -4.14696261286735530000e-002) (20, 5.04502914845943450000e-002) (21, 5.46131581068038940000e-002) (22, -7.43103027343750000000e-002) (23, -8.24428070336580280000e-003) (24, 6.57348632812500000000e-002) (25, -2.92740948498249050000e-003) (26, -6.61926269531250000000e-002) (27, 5.97505010664463040000e-002) (28, -1.18087464943528180000e-002) (29, 3.97874973714351650000e-002) (30, 6.98443269357085230000e-003) (31, -5.86502142250537870000e-002) (32, -7.52075240015983580000e-002) (33, 3.15480194985866550000e-002) (34, -1.00555270910263060000e-002) (2, 2.90137417614459990000e-002) (3, 1.81437190622091290000e-002) (4, 8.44055190682411190000e-002) (5, 2.67627853900194170000e-002) (6, -4.99572753906250000000e-002) (7, -9.20593291521072390000e-002) (8, 1.45717449486255650000e-002) (9, -3.70300300419330600000e-002) (10, -1.49384122341871260000e-002) (11, 4.42272255895659330000e-004) (12, -4.11804206669330600000e-002) (13, 2.16300096362829210000e-002) (14, 6.50207549333572390000e-002) (15, 2.53523699939250950000e-003) (16, -2.63403728604316710000e-003) (17, 5.93688972294330600000e-002) (18, 2.79337912797927860000e-002) (19, 7.64160156250000000000e-002) (20, -8.51623564958572390000e-002) (21, 8.79821926355361940000e-003) (22, -8.33068862557411190000e-002) (23, 7.12524428963661190000e-002) (24, -6.98059126734733580000e-002) (25, 1.35043095797300340000e-002) (26, -9.25643835216760640000e-004) (27, -1.19179897010326390000e-002) (28, -7.28332549333572390000e-002) (29, 6.18530288338661190000e-002) (30, 9.13513228297233580000e-002) (31, -6.58935531973838810000e-002) (32, 1.62762552499771120000e-002) (33, 2.58780084550380710000e-002) (34, 6.65527358651161190000e-002) (2, -7.72766098380088810000e-002) (3, -4.02282737195491790000e-002) (4, -8.84826704859733580000e-002) (5, -7.11608901619911190000e-002) (6, -2.44990419596433640000e-002) (7, 9.06921401619911190000e-002) (8, 2.63925585895776750000e-002) (9, -6.48681670427322390000e-002) (10, 8.23669433593750000000e-002) (11, 5.73181174695491790000e-002) (12, 7.14538618922233580000e-002) (13, -5.48156760632991790000e-002) (14, 7.62451216578483580000e-002) (15, 2.42866408079862590000e-002) (16, 6.26709014177322390000e-002) (17, 8.15124511718750000000e-002) (18, -2.16359309852123260000e-002) (19, 6.15661628544330600000e-002) (20, 8.90563949942588810000e-002) (21, 8.02734419703483580000e-002) (22, 7.05871582031250000000e-002) (23, -4.74182143807411190000e-002) (24, 1.33074130862951280000e-002) (25, 1.44422492012381550000e-002) (26, 5.08850105106830600000e-002) (27, -4.72351089119911190000e-002) (28, -7.88024887442588810000e-002) (29, -2.95038521289825440000e-002) (30, -7.17346221208572390000e-002) (31, -7.03186020255088810000e-002) (32, 2.61543579399585720000e-002) (33, -4.01306152343750000000e-002) (34, 1.34680792689323430000e-002) (2, 1.60950552672147750000e-002) (3, 3.50402854382991790000e-002) (4, 4.64111343026161190000e-002) (5, 6.15051276981830600000e-002) (6, 7.16558657586574550000e-003) (7, 8.16162154078483580000e-002) (8, -2.88817975670099260000e-002) (9, -7.74597153067588810000e-002) (10, 3.30261252820491790000e-002) (11, 3.37951667606830600000e-002) (12, 5.53955100476741790000e-002) (13, -4.29260246455669400000e-002) (14, -6.19873069226741790000e-002) (15, 8.09326171875000000000e-002) (16, 6.40441924333572390000e-002) (17, -2.80272215604782100000e-002) (18, 9.77661162614822390000e-002) (19, 7.51960277557373050000e-003) (20, 9.31423343718051910000e-003) (21, -6.66870102286338810000e-002) (22, -9.45068374276161190000e-002) (23, 5.94177246093750000000e-002) (24, -2.28270683437585830000e-002) (25, 1.25795761123299600000e-002) (26, 5.86303733289241790000e-002) (27, 8.89909639954566960000e-003) (28, -4.28527854382991790000e-002) (29, 2.21558120101690290000e-002) (30, 7.70935043692588810000e-002) (31, -7.51892104744911190000e-002) (32, -4.31274436414241790000e-002) (33, -3.33247752860188480000e-003) (34, -1.55210867524147030000e-002) (2, 5.40222190320491790000e-002) (3, -1.73155292868614200000e-002) (4, -2.38403324037790300000e-002) (5, -1.66076663881540300000e-002) (6, -7.95105025172233580000e-002) (7, -3.25073264539241790000e-002) (8, -5.24353049695491790000e-002) (9, 5.61157241463661190000e-002) (10, 4.81445305049419400000e-002) (11, 2.71484386175870900000e-002) (12, 5.62091532628983260000e-004) (13, -7.80029296875000000000e-002) (14, 1.38073889538645740000e-002) (15, -7.34436064958572390000e-002) (16, 5.41564933955669400000e-002) (17, 8.26721191406250000000e-002) (18, 3.65051291882991790000e-002) (19, -6.31347671151161190000e-002) (20, 1.02671617642045020000e-002) (21, -1.35610364377498630000e-002) (22, 9.32733807712793350000e-003) (23, -3.51318381726741790000e-002) (24, 9.04052779078483580000e-002) (25, 4.30419929325580600000e-002) (26, -1.99154205620288850000e-002) (27, -6.40686079859733580000e-002) (28, 1.19214067235589030000e-002) (29, -7.99255371093750000000e-002) (30, -1.28652723506093030000e-002) (31, -8.82934555411338810000e-002) (32, -4.01184074580669400000e-002) (33, 5.22827170789241790000e-002) (34, 5.63965886831283570000e-002) (2, -7.61535689234733580000e-002) (3, 1.09244771301746370000e-002) (4, -5.00524323433637620000e-003) (5, 6.61071762442588810000e-002) (6, 4.96805086731910710000e-003) (7, -3.46881113946437840000e-002) (8, -4.70108091831207280000e-002) (9, 8.52600112557411190000e-002) (10, -1.81903771590441470000e-003) (11, 4.34554852545261380000e-002) (12, -8.40637236833572390000e-002) (13, 9.22058150172233580000e-002) (14, 2.63177976012229920000e-002) (15, 3.10046295635402200000e-003) (16, -6.82373046875000000000e-002) (17, 7.95715376734733580000e-002) (18, 2.23979167640209200000e-003) (19, -6.64794966578483580000e-002) (20, -5.08194155991077420000e-002) (21, 5.17387054860591890000e-002) (22, 6.13569878041744230000e-002) (23, 8.28552246093750000000e-002) (24, -3.94488126039505000000e-002) (25, -7.88696333765983580000e-002) (26, 9.77111831307411190000e-002) (27, -2.50434707850217820000e-002) (28, 7.64587447047233580000e-002) (29, 9.64884925633668900000e-003) (30, 8.47778320312500000000e-002) (31, -2.80890669673681260000e-002) (32, 6.30981475114822390000e-002) (33, -3.86360920965671540000e-002) (34, -3.76786477863788600000e-002) (2, -6.14992380142211910000e-002) (3, -2.61294152587652210000e-002) (4, -2.71916035562753680000e-002) (5, -2.94984839856624600000e-002) (6, -3.51017862558364870000e-002) (7, 6.32852269336581230000e-003) (8, -5.28630502521991730000e-002) (9, 1.24873332679271700000e-002) (10, 3.78944934345781800000e-003) (11, 1.57771259546279910000e-002) (12, 7.82897993922233580000e-002) (13, -7.31384307146072390000e-002) (14, -2.17713303864002230000e-002) (15, 1.67723055928945540000e-002) (16, 7.15454146265983580000e-002) (17, 5.09944371879100800000e-002) (18, 1.64062250405550000000e-002) (19, -9.62768569588661190000e-002) (20, -9.33715850114822390000e-002) (21, -4.32616770267486570000e-002) (22, -3.03469039499759670000e-002) (23, -7.80517607927322390000e-002) (24, -5.03360480070114140000e-002) (25, -6.03883937001228330000e-002) (26, 6.99035674333572390000e-002) (27, -7.96874985098838810000e-002) (28, -7.98522979021072390000e-002) (29, -5.72694316506385800000e-002) (30, 8.28002914786338810000e-002) (31, -8.32153335213661190000e-002) (32, -8.06457549333572390000e-002) (33, 9.67956557869911190000e-002) (34, 1.28400363028049470000e-002) (2, 8.14847368746995930000e-003) (3, 2.62024160474538800000e-002) (4, -4.26879897713661190000e-002) (5, -8.33313018083572390000e-002) (6, -4.49584983289241790000e-002) (7, 6.70410171151161190000e-002) (8, 2.03187018632888790000e-002) (9, 8.08227583765983580000e-002) (10, 7.37243667244911190000e-002) (11, 6.54663071036338810000e-002) (12, -2.04438366927206520000e-003) (13, -7.97973647713661190000e-002) (14, -3.43322753906250000000e-002) (15, -2.15209964662790300000e-002) (16, 3.49304191768169400000e-002) (17, 5.35034202039241790000e-002) (18, -8.36730971932411190000e-002) (19, 2.52259299159049990000e-002) (20, -5.26611320674419400000e-002) (21, -8.81958007812500000000e-002) (22, 9.42626968026161190000e-002) (23, 1.45571194589138030000e-002) (24, 6.49963393807411190000e-002) (25, -6.33483901619911190000e-002) (26, -1.80478394031524660000e-002) (27, -2.23326496779918670000e-002) (28, -4.15222160518169400000e-002) (29, -7.61535689234733580000e-002) (30, -3.05480957031250000000e-002) (31, -8.79394561052322390000e-002) (32, 3.22082526981830600000e-002) (33, -3.08410655707120900000e-002) (34, -5.77880851924419400000e-002) (2, -5.68786635994911190000e-002) (3, 6.48559555411338810000e-002) (4, -2.77521815150976180000e-002) (5, -5.70380780845880510000e-003) (6, -9.05395522713661190000e-002) (7, 7.81677290797233580000e-002) (8, -4.49279807507991790000e-002) (9, 9.82116684317588810000e-002) (10, 7.83874541521072390000e-002) (11, 1.56316291540861130000e-002) (12, -4.90417480468750000000e-002) (13, 6.26892074942588810000e-002) (14, -2.30364268645644190000e-003) (15, 1.21062444522976880000e-002) (16, -7.93518051505088810000e-002) (17, 9.50653664767742160000e-003) (18, -1.00004933774471280000e-002) (19, -6.42456039786338810000e-002) (20, 5.15258796513080600000e-002) (21, -9.92004424333572390000e-002) (22, 9.59411635994911190000e-002) (23, -1.65087208151817320000e-002) (24, 9.63500961661338810000e-002) (25, -5.20385764539241790000e-002) (26, -2.75192465633153920000e-002) (27, 1.11545324325561520000e-002) (28, -9.23950225114822390000e-002) (29, 3.34472656250000000000e-002) (30, -4.75769042968750000000e-002) (31, -2.02690009027719500000e-002) (32, 2.39023417234420780000e-002) (33, -2.33087074011564250000e-002) (34, -2.83265952020883560000e-002) (2, -1.14972749724984170000e-003) (3, 6.44897446036338810000e-002) (4, -2.45058406144380570000e-002) (5, -2.98464521765708920000e-002) (6, -5.12268058955669400000e-002) (7, -1.16897523403167720000e-002) (8, 5.39428703486919400000e-002) (9, 7.29736313223838810000e-002) (10, -3.78417968750000000000e-002) (11, -2.63308044523000720000e-002) (12, 4.83032241463661190000e-002) (13, -4.22485359013080600000e-002) (14, -5.31738288700580600000e-002) (15, -2.50858440995216370000e-002) (16, -3.79821769893169400000e-002) (17, -8.53454619646072390000e-002) (18, 3.08222100138664250000e-002) (19, -8.76831039786338810000e-002) (20, 2.10934635251760480000e-002) (21, 5.19251171499490740000e-003) (22, -8.90380889177322390000e-002) (23, -4.86206077039241790000e-002) (24, 6.11572265625000000000e-002) (25, 2.61167865246534350000e-002) (26, -1.38383647426962850000e-002) (27, 2.78678815811872480000e-002) (28, -2.26324610412120820000e-002) (29, 8.46313461661338810000e-002) (30, 5.67932128906250000000e-002) (31, 7.47741684317588810000e-002) (32, 6.84814453125000000000e-002) (33, 9.11804214119911190000e-002) (34, 7.12585449218750000000e-002) (2, -9.24865752458572390000e-002) (3, 6.32215850055217740000e-003) (4, -2.38777212798595430000e-002) (5, -9.88647490739822390000e-002) (6, 2.35526245087385180000e-002) (7, 6.18713386356830600000e-002) (8, -6.36291503906250000000e-002) (9, 2.60671693831682210000e-002) (10, 7.27478042244911190000e-002) (11, -8.07495117187500000000e-002) (12, -8.15368667244911190000e-002) (13, -9.03442427515983580000e-002) (14, 5.46325705945491790000e-002) (15, -9.11315903067588810000e-002) (16, 4.41772453486919400000e-002) (17, -5.23742698132991790000e-002) (18, -1.09375861939042810000e-003) (19, -9.06484667211771010000e-003) (20, -1.50584578514099120000e-002) (21, -3.04756406694650650000e-002) (22, -1.46007286384701730000e-002) (23, -7.93884322047233580000e-002) (24, -8.62542819231748580000e-003) (25, -2.48357877135276790000e-002) (26, 5.96862807869911190000e-002) (27, -7.39196762442588810000e-002) (28, -1.58828925341367720000e-002) (29, 8.70849639177322390000e-002) (30, -9.92675796151161190000e-002) (31, -6.92871138453483580000e-002) (32, 1.22669339179992680000e-002) (33, 2.91952368570491670000e-004) (34, -3.32873151637613770000e-003) (2, 5.06896972656250000000e-002) (3, 8.56201201677322390000e-002) (4, -8.95019546151161190000e-002) (5, -1.49342752993106840000e-002) (6, -8.16645042505115270000e-004) (7, 8.69934111833572390000e-002) (8, 2.13760603219270710000e-003) (9, -8.61206054687500000000e-002) (10, -7.14965835213661190000e-002) (11, -2.90954597294330600000e-002) (12, 7.73925781250000000000e-002) (13, 7.93884322047233580000e-002) (14, -5.86730949580669400000e-002) (15, -4.52148430049419400000e-002) (16, 7.50847253948450090000e-003) (17, -2.70847696810960770000e-003) (18, 2.36962572671473030000e-003) (19, -9.09362807869911190000e-002) (20, -1.24440416693687440000e-002) (21, -3.67126464843750000000e-002) (22, 8.16467329859733580000e-002) (23, 5.22766113281250000000e-002) (24, 7.60498046875000000000e-002) (25, -4.06372062861919400000e-002) (26, 6.06811530888080600000e-002) (27, -4.24194335937500000000e-002) (28, 5.38507068995386360000e-004) (29, -3.80126945674419400000e-002) (30, 3.27697768807411190000e-002) (31, -2.32360847294330600000e-002) (32, -8.95874053239822390000e-002) (33, 8.58240295201539990000e-003) (34, -7.12402388453483580000e-002) (2, 8.81408676505088810000e-002) (3, 5.83499968051910400000e-002) (4, 7.83691406250000000000e-002) (5, 9.93347167968750000000e-002) (6, 7.44995102286338810000e-002) (7, 9.13818404078483580000e-002) (8, -5.60115948319435120000e-002) (9, -1.47134037688374520000e-002) (10, 3.73781174421310420000e-002) (11, -6.69006332755088810000e-002) (12, 5.00068813562393190000e-002) (13, -9.31091308593750000000e-002) (14, -4.60504852235317230000e-002) (15, -6.19504787027835850000e-002) (16, -2.53035053610801700000e-002) (17, -9.63195785880088810000e-002) (18, 8.26782211661338810000e-002) (19, 9.96643081307411190000e-002) (20, -6.88049346208572390000e-002) (21, 5.58352395892143250000e-002) (22, -7.58911147713661190000e-002) (23, -7.02307792380452160000e-003) (24, 6.44409209489822390000e-002) (25, 1.85195580124855040000e-002) (26, -5.70428445935249330000e-002) (27, 3.33259291946887970000e-002) (28, -1.04216924228239800000e-005) (29, 2.94536497676745060000e-004) (30, -4.22240160405635830000e-002) (31, -6.76635727286338810000e-002) (32, 1.10030267387628560000e-003) (33, -8.30505415797233580000e-002) (34, 4.44658380001783370000e-003) (2, -6.75659179687500000000e-002) (3, -9.77218151092529300000e-003) (4, -4.79797385632991790000e-002) (5, -2.02087406069040300000e-002) (6, -9.89196822047233580000e-002) (7, -8.76504834741353990000e-003) (8, 5.50842285156250000000e-002) (9, 7.14538618922233580000e-002) (10, 6.60827681422233580000e-002) (11, 4.85656745731830600000e-002) (12, 9.33166127651929860000e-003) (13, 8.03833007812500000000e-002) (14, 7.30957016348838810000e-002) (15, -2.03918460756540300000e-002) (16, -5.86659240070730450000e-004) (17, 4.21691909432411190000e-002) (18, -5.32714836299419400000e-002) (19, 1.65100097656250000000e-002) (20, -8.89953598380088810000e-002) (21, 5.34118674695491790000e-002) (22, 3.63403335213661190000e-002) (23, 9.37194824218750000000e-002) (24, 9.32067856192588810000e-002) (25, -9.05639678239822390000e-002) (26, -7.21191391348838810000e-002) (27, 3.74450683593750000000e-002) (28, 1.51544855907559390000e-002) (29, 5.96374534070491790000e-002) (30, 3.02651966921985150000e-003) (31, 1.33419651538133620000e-002) (32, -5.20751960575580600000e-002) (33, 8.65356475114822390000e-002) (34, 2.67509538680315020000e-002) (2, 8.86596664786338810000e-002) (3, -9.68200713396072390000e-002) (4, 1.50401126593351360000e-002) (5, 4.47692871093750000000e-002) (6, 6.50573745369911190000e-002) (7, -4.03747558593750000000e-002) (8, 5.79467788338661190000e-002) (9, -2.81064193695783620000e-002) (10, 3.84033210575580600000e-002) (11, 8.65584332495927810000e-003) (12, -9.59289595484733580000e-002) (13, -4.72717285156250000000e-002) (14, 4.17663566768169400000e-002) (15, 5.03601096570491790000e-002) (16, -4.48364280164241790000e-002) (17, 7.58605971932411190000e-002) (18, 2.78813391923904420000e-002) (19, 7.12158232927322390000e-002) (20, 1.79506652057170870000e-002) (21, -7.72094726562500000000e-002) (22, -5.27526848018169400000e-002) (23, 3.45947258174419400000e-002) (24, 5.74584975838661190000e-002) (25, -6.71020522713661190000e-002) (26, -2.16974187642335890000e-002) (27, 1.54982190579175950000e-002) (28, -8.20556655526161190000e-002) (29, 6.56921416521072390000e-002) (30, 6.56677260994911190000e-002) (31, 1.06029687449336050000e-002) (32, 1.76578667014837270000e-002) (33, -5.84533698856830600000e-002) (34, 2.29394529014825820000e-002) (2, 5.50181530416011810000e-002) (3, -7.63610824942588810000e-002) (4, -5.77976293861866000000e-002) (5, -4.38820235431194310000e-002) (6, -2.31173541396856310000e-002) (7, 1.29116857424378400000e-002) (8, 5.23328930139541630000e-002) (9, 6.40930160880088810000e-002) (10, 2.11088396608829500000e-002) (11, -7.37792998552322390000e-002) (12, -7.67094492912292480000e-002) (13, -2.78413649648427960000e-002) (14, 7.35595747828483580000e-002) (15, 2.05349847674369810000e-002) (16, -5.95671497285366060000e-002) (17, 5.51827140152454380000e-002) (18, -8.32031294703483580000e-002) (19, -7.32238814234733580000e-002) (20, -2.47774217277765270000e-002) (21, -9.36706587672233580000e-002) (22, 4.87806759774684910000e-002) (23, 1.87100451439619060000e-002) (24, 3.29239200800657270000e-003) (25, 7.77934072539210320000e-003) (26, 9.57031250000000000000e-002) (27, 9.95540171861648560000e-002) (28, 6.97998031973838810000e-002) (29, -4.03114259243011470000e-002) (30, -4.98508326709270480000e-002) (31, -8.76892134547233580000e-002) (32, -1.66964717209339140000e-002) (33, -7.64282271265983580000e-002) (34, 6.59825652837753300000e-002) (2, -1.97413396090269090000e-002) (3, 1.94369833916425700000e-002) (4, 3.63593772053718570000e-002) (5, 4.10958677530288700000e-002) (6, -1.63116734474897380000e-002) (7, 1.54821919277310370000e-002) (8, 5.14665357768535610000e-002) (9, -8.07739272713661190000e-002) (10, -2.06879973411560060000e-002) (11, -6.26281723380088810000e-002) (12, -3.69727574288845060000e-002) (13, -5.76896369457244870000e-002) (14, 6.84204101562500000000e-002) (15, -9.99267622828483580000e-002) (16, 6.95861801505088810000e-002) (17, -1.56762693077325820000e-002) (18, 2.01633702963590620000e-002) (19, -7.71972686052322390000e-002) (20, 3.35092768073081970000e-002) (21, -1.86429976020008330000e-003) (22, 5.61356395483016970000e-002) (23, 2.60291068116202950000e-004) (24, -7.67424888908863070000e-003) (25, -9.35852080583572390000e-002) (26, -9.74487289786338810000e-002) (27, -2.89391744881868360000e-002) (28, 7.82653838396072390000e-002) (29, 6.79809600114822390000e-002) (30, -8.37402343750000000000e-002) (31, -3.52161712944507600000e-002) (32, 2.33535491861402990000e-003) (33, -4.92179356515407560000e-002) (34, -9.19643975794315340000e-003) (2, -9.12841781973838810000e-002) (3, 5.89294433593750000000e-002) (4, -5.72692863643169400000e-002) (5, 4.88098151981830600000e-002) (6, 7.56225585937500000000e-002) (7, 7.60115543380379680000e-003) (8, -6.82495161890983580000e-002) (9, 2.70568858832120900000e-002) (10, -4.61975112557411190000e-002) (11, -1.21507970616221430000e-002) (12, -1.38588864356279370000e-002) (13, -3.98193374276161190000e-002) (14, 2.06360761076211930000e-002) (15, -7.65319839119911190000e-002) (16, -3.33862304687500000000e-002) (17, 6.96472153067588810000e-002) (18, -9.90783721208572390000e-002) (19, -2.74108350276947020000e-002) (20, 1.24110933393239970000e-003) (21, 6.39160200953483580000e-002) (22, 9.12170410156250000000e-002) (23, 7.96386748552322390000e-002) (24, 5.45043945312500000000e-002) (25, -4.37072776257991790000e-002) (26, -6.85668960213661190000e-002) (27, -1.44814876839518550000e-002) (28, -7.82409682869911190000e-002) (29, 6.49625854566693310000e-003) (30, 4.96416259557008740000e-003) (31, -4.77661155164241790000e-002) (32, 8.03405791521072390000e-002) (33, 9.24133285880088810000e-002) (34, 4.85778823494911190000e-002) (2, -4.17248532176017760000e-002) (3, -7.14782699942588810000e-002) (4, -8.18908736109733580000e-002) (5, -4.66799624264240260000e-002) (6, 2.08292640745639800000e-002) (7, 4.36944998800754550000e-002) (8, -3.55722308158874510000e-002) (9, -6.23295567929744720000e-002) (10, 1.35343696456402540000e-003) (11, -9.15657822042703630000e-003) (12, -1.15436706691980360000e-002) (13, 7.42431655526161190000e-002) (14, -4.95373979210853580000e-002) (15, -8.72619673609733580000e-002) (16, -2.19927839934825900000e-002) (17, 5.12253455817699430000e-002) (18, -5.13864383101463320000e-002) (19, 3.29580269753932950000e-002) (20, -3.25015485286712650000e-002) (21, -5.01469708979129790000e-002) (22, 9.86816436052322390000e-002) (23, -9.68811064958572390000e-002) (24, 2.13603135198354720000e-002) (25, -8.08654800057411190000e-002) (26, 2.67864055931568150000e-002) (27, -7.45910629630088810000e-002) (28, -8.72954819351434710000e-003) (29, -7.09045454859733580000e-002) (30, -5.24478368461132050000e-002) (31, -1.81355569511651990000e-002) (32, -4.64728698134422300000e-002) (33, 8.38012695312500000000e-002) (34, 5.00508472323417660000e-002) (35, -9.85518172383308410000e-002) (36, -6.73507973551750180000e-002) (37, 7.53861069679260250000e-002) (38, 6.07416406273841860000e-002) (39, -3.67545709013938900000e-003) (40, 1.76628846675157550000e-002) (41, 6.03263527154922490000e-002) (42, -6.04499466717243190000e-002) (43, -1.52130122296512130000e-003) (44, 7.71193206310272220000e-002) (45, -6.07253573834896090000e-002) (46, -3.45152653753757480000e-002) (47, 2.80324127525091170000e-002) (48, -2.07099597901105880000e-002) (49, -7.83737897872924800000e-002) (50, -3.21113280951976780000e-002) (51, -7.55966603755950930000e-002) (52, -7.64268115162849430000e-002) (53, -4.38911318778991700000e-002) (54, -4.03411649167537690000e-002) (55, -2.83638052642345430000e-002) (56, -1.03896381333470340000e-002) (57, -9.13681909441947940000e-002) (58, -7.12942630052566530000e-002) (59, -5.09113073348999020000e-002) (60, -8.99029821157455440000e-002) (61, 6.86717852950096130000e-002) (62, 4.38042171299457550000e-002) (63, -6.11895248293876650000e-002) (64, -2.62092966586351390000e-002) (65, 6.54129981994628910000e-002) (66, 3.12066506594419480000e-002) (67, 2.07494776695966720000e-002) (35, 6.47154822945594790000e-002) (36, -2.51557957381010060000e-002) (37, -2.18747984617948530000e-002) (38, 8.71062353253364560000e-002) (39, -5.58248013257980350000e-002) (40, 9.93165895342826840000e-002) (41, -8.03741589188575740000e-002) (42, -9.27216485142707820000e-002) (43, -1.87286026775836940000e-002) (44, 3.11641226289793850000e-004) (45, 6.46277368068695070000e-002) (46, 7.40133523941040040000e-002) (47, 3.87248173356056210000e-002) (48, 6.62353709340095520000e-002) (49, 1.79199539124965670000e-002) (50, -3.71174179017543790000e-002) (51, -7.99531787633895870000e-002) (52, -3.87336476705968380000e-003) (53, 5.39958216249942780000e-002) (54, -6.43354207277297970000e-002) (55, 8.41066315770149230000e-002) (56, 8.06013494729995730000e-002) (57, -9.02709027286618950000e-004) (58, -8.08076262474060060000e-002) (59, 3.36913317441940310000e-002) (60, 6.14113882184028630000e-002) (61, -2.22788043320178990000e-002) (62, -9.16686933487653730000e-003) (63, 8.40733423829078670000e-002) (64, 5.06529025733470920000e-002) (65, -2.01404690742492680000e-002) (66, -9.81554687023162840000e-002) (67, -8.21065008640289310000e-002) (35, 9.10330563783645630000e-002) (36, -9.48994010686874390000e-002) (37, -3.01500167697668080000e-002) (38, 3.27429249882698060000e-002) (39, 3.85184325277805330000e-002) (40, 4.01151962578296660000e-002) (41, 7.18434900045394900000e-002) (42, 8.73038098216056820000e-002) (43, -5.17370924353599550000e-002) (44, 2.53241732716560360000e-002) (45, -3.14264297485351560000e-002) (46, 5.29069788753986360000e-002) (47, 4.54932115972042080000e-002) (48, 6.75598606467247010000e-002) (49, 9.20398905873298650000e-002) (50, -2.38572619855403900000e-002) (51, 6.23691715300083160000e-002) (52, 5.44380731880664830000e-002) (53, 2.71129179745912550000e-002) (54, 5.92395663261413570000e-002) (55, 2.20597796142101290000e-002) (56, -7.28965252637863160000e-002) (57, 1.84092056006193160000e-002) (58, 6.40989169478416440000e-002) (59, 5.13507761061191560000e-002) (60, -3.26366126537323000000e-002) (61, -6.60863667726516720000e-002) (62, -5.34142032265663150000e-002) (63, -9.69140976667404170000e-002) (64, -4.45162132382392880000e-002) (65, 1.65190380066633220000e-002) (66, -7.29509592056274410000e-002) (67, -3.05154453963041310000e-002) (35, 5.50916865468025210000e-002) (36, 5.46651706099510190000e-002) (37, -9.65665951371192930000e-002) (38, 6.81249350309371950000e-002) (39, -1.91581938415765760000e-002) (40, -9.69396457076072690000e-002) (41, 1.29828220233321190000e-002) (42, -1.96575950831174850000e-002) (43, -9.36736240983009340000e-002) (44, -1.41401784494519230000e-002) (45, 4.97039109468460080000e-002) (46, 2.61574126780033110000e-002) (47, 6.69469311833381650000e-002) (48, -8.81563350558280940000e-002) (49, -5.75931556522846220000e-002) (50, 5.36308363080024720000e-002) (51, -8.49694311618804930000e-002) (52, 3.42375151813030240000e-002) (53, 6.78932119626551870000e-004) (54, -7.37181976437568660000e-002) (55, -1.68131235986948010000e-002) (56, 8.57651308178901670000e-002) (57, -6.53528422117233280000e-002) (58, 8.88049229979515080000e-002) (59, -8.79108831286430360000e-002) (60, -7.96242430806159970000e-002) (61, -4.51708473265171050000e-002) (62, 9.25876647233963010000e-002) (63, -1.15526432637125250000e-003) (64, 9.28552746772766110000e-002) (65, -4.17387150228023530000e-002) (66, 6.21941611170768740000e-002) (67, -7.74655342102050780000e-002) (35, -9.24449414014816280000e-002) (36, -9.27933007478713990000e-002) (37, -1.57799050211906430000e-002) (38, 2.55462434142827990000e-003) (39, 6.77105784416198730000e-002) (40, 6.90782722085714340000e-003) (41, -3.19990416755899790000e-004) (42, 4.72728125751018520000e-002) (43, -4.40469495952129360000e-002) (44, -1.20880044996738430000e-002) (45, -1.91365852952003480000e-002) (46, -5.28749004006385800000e-002) (47, 7.81295523047447200000e-002) (48, -9.97264906764030460000e-002) (49, -2.54112798720598220000e-002) (50, 7.07258954644203190000e-002) (51, -9.88357365131378170000e-002) (52, -7.49592632055282590000e-002) (53, -7.47332256287336350000e-003) (54, 1.87292397022247310000e-002) (55, 1.61845646798610690000e-002) (56, 9.61737707257270810000e-003) (57, -6.99417442083358760000e-002) (58, -7.81929772347211840000e-003) (59, 5.83937466144561770000e-002) (60, 3.32102291285991670000e-002) (61, 9.49253514409065250000e-002) (62, -6.83731511235237120000e-002) (63, -8.51766616106033330000e-002) (64, -9.13463011384010310000e-002) (65, -7.31280818581581120000e-002) (66, 8.31720754504203800000e-002) (67, 5.12227006256580350000e-002) (35, -7.32588917016983030000e-002) (36, -1.04116825386881830000e-002) (37, -5.23110218346118930000e-002) (38, 8.92941430211067200000e-002) (39, -5.05891181528568270000e-002) (40, 1.60827245563268660000e-002) (41, 6.95002824068069460000e-002) (42, 6.56122714281082150000e-002) (43, -4.19959761202335360000e-002) (44, 8.89584869146347050000e-002) (45, 2.08621490746736530000e-002) (46, -9.65384244918823240000e-002) (47, -3.71072329580783840000e-002) (48, -6.33833780884742740000e-002) (49, 3.82040813565254210000e-002) (50, -7.12774023413658140000e-002) (51, -1.93717628717422490000e-002) (52, 2.66787838190793990000e-002) (53, 6.67658001184463500000e-002) (54, -3.87300588190555570000e-002) (55, 8.49382355809211730000e-002) (56, 3.80339361727237700000e-002) (57, 6.95856660604476930000e-002) (58, 1.28674535080790520000e-002) (59, 3.78384478390216830000e-002) (60, -7.40980077534914020000e-003) (61, -4.27951477468013760000e-002) (62, -7.68926069140434270000e-002) (63, -9.30224806070327760000e-002) (64, 2.80639156699180600000e-002) (65, -5.68847218528389930000e-003) (66, -3.55988927185535430000e-002) (67, -2.42978315800428390000e-002) (35, 9.30305868387222290000e-002) (36, 3.96930165588855740000e-002) (37, -5.26690967381000520000e-002) (38, -4.81583513319492340000e-002) (39, -5.46051561832427980000e-002) (40, 7.53782987594604490000e-002) (41, 5.76641634106636050000e-002) (42, -1.85165293514728550000e-002) (43, -6.41586035490036010000e-002) (44, -1.80886816233396530000e-002) (45, -4.35889810323715210000e-002) (46, 7.44092538952827450000e-002) (47, -4.28606010973453520000e-002) (48, 1.51118589565157890000e-002) (49, -2.62189563363790510000e-002) (50, 4.67448458075523380000e-002) (51, 4.06783409416675570000e-002) (52, -5.86037635803222660000e-002) (53, -7.13445544242858890000e-002) (54, -1.23985167592763900000e-002) (55, -1.83119159191846850000e-002) (56, 8.73133242130279540000e-002) (57, 4.71465336158871650000e-003) (58, -4.41668927669525150000e-002) (59, 7.40623846650123600000e-002) (60, 5.99642917513847350000e-002) (61, 1.44141511991620060000e-002) (62, -8.69817063212394710000e-002) (63, -6.37114718556404110000e-002) (64, -5.79306250438094140000e-003) (65, 8.20843875408172610000e-002) (66, -9.11669863853603600000e-004) (67, -9.03696119785308840000e-002) (35, 8.32220166921615600000e-002) (36, 7.75030329823493960000e-002) (37, -4.32611219584941860000e-002) (38, 9.65237896889448170000e-003) (39, 4.84687723219394680000e-002) (40, 3.10628004372119900000e-002) (41, 1.10561763867735860000e-002) (42, -8.69435667991638180000e-002) (43, -9.47628095746040340000e-002) (44, 6.17437399923801420000e-002) (45, 1.01894205436110500000e-002) (46, -4.02763672173023220000e-002) (47, 8.03415030241012570000e-002) (48, 4.93720322847366330000e-002) (49, -6.61062449216842650000e-002) (50, 5.26495799422264100000e-002) (51, 3.78851220011711120000e-002) (52, -1.78138837218284610000e-002) (53, -2.42344606667757030000e-002) (54, 3.61943691968917850000e-002) (55, 6.95377588272094730000e-002) (56, 1.10561931505799290000e-002) (57, -9.44633036851882930000e-002) (58, 3.40519361197948460000e-002) (59, 5.49546163529157640000e-003) (60, -5.83916455507278440000e-002) (61, -8.22378620505332950000e-002) (62, -7.17214047908782960000e-002) (63, -9.76310223340988160000e-002) (64, -4.51451214030385020000e-003) (65, 7.30358138680458070000e-002) (66, 6.06269948184490200000e-002) (67, 6.43509626388549800000e-002) (35, -2.80670803040266040000e-002) (36, -6.19476214051246640000e-002) (37, -6.27193301916122440000e-002) (38, 5.37132434546947480000e-002) (39, 4.12068665027618410000e-002) (40, -6.91993534564971920000e-002) (41, 1.85742545872926710000e-002) (42, 4.72127869725227360000e-002) (43, -9.93763729929924010000e-002) (44, -2.30272840708494190000e-002) (45, -2.56206467747688290000e-002) (46, -5.85392583161592480000e-003) (47, -7.50547498464584350000e-002) (48, -1.59941185265779500000e-002) (49, 8.71218666434288020000e-002) (50, -6.70951008796691890000e-002) (51, 4.20799776911735530000e-002) (52, -6.10023178160190580000e-002) (53, -1.68932974338531490000e-002) (54, -7.81624913215637210000e-002) (55, -3.46093028783798220000e-002) (56, -6.33470192551612850000e-002) (57, -2.63718329370021820000e-002) (58, -5.92107549309730530000e-002) (59, -8.59973356127738950000e-002) (60, -5.64250275492668150000e-002) (61, -1.28545137122273450000e-002) (62, 1.96787361055612560000e-002) (63, 5.21511770784854890000e-002) (64, 5.06844045594334600000e-003) (65, -2.62745637446641920000e-002) (66, -4.97389696538448330000e-002) (67, -2.11037639528512950000e-002) (35, -9.90162342786788940000e-002) (36, -3.69902439415454860000e-002) (37, 3.73633094131946560000e-002) (38, 9.97644439339637760000e-002) (39, -4.38758730888366700000e-002) (40, 5.66284805536270140000e-002) (41, 4.54748459160327910000e-002) (42, 1.05132786557078360000e-002) (43, 1.28016807138919830000e-002) (44, -6.26119151711463930000e-002) (45, -1.91710947547107930000e-003) (46, -7.37439095973968510000e-002) (47, 7.02540427446365360000e-002) (48, -2.50908378511667250000e-002) (49, -1.55603904277086260000e-002) (50, 8.48524793982505800000e-002) (51, -1.85698689892888070000e-003) (52, -8.97359773516654970000e-002) (53, 3.10830958187580110000e-002) (54, -4.24943864345550540000e-002) (55, 3.02012898027896880000e-002) (56, 1.63057993631809950000e-004) (57, -5.88551303371787070000e-003) (58, -2.83081992529332640000e-003) (59, 4.41200844943523410000e-002) (60, 2.30309367179870610000e-003) (61, -7.16810151934623720000e-002) (62, -4.40445840358734130000e-002) (63, -6.59870207309722900000e-002) (64, 8.28305855393409730000e-002) (65, 8.95693674683570860000e-002) (66, -9.69503298401832580000e-002) (67, 8.18243846297264100000e-002) (35, 2.74721682071685790000e-002) (36, 2.65693329274654390000e-002) (37, -2.56684012711048130000e-002) (38, 3.33096832036972050000e-002) (39, 3.74100990593433380000e-002) (40, -8.14206749200820920000e-002) (41, -1.52258789166808130000e-002) (42, -1.33520597591996190000e-002) (43, 9.09372940659523010000e-002) (44, 1.46269928663969040000e-002) (45, -6.50796368718147280000e-002) (46, -3.23752919211983680000e-003) (47, -4.72568124532699580000e-002) (48, -6.86765238642692570000e-002) (49, -5.70591464638710020000e-002) (50, -9.50334966182708740000e-002) (51, 1.14347003400325780000e-002) (52, 6.50409758090972900000e-002) (53, 3.31630781292915340000e-002) (54, 9.80939567089080810000e-002) (55, 2.69714668393135070000e-002) (56, 7.46476128697395320000e-002) (57, -8.73793438076972960000e-002) (58, -9.60165038704872130000e-002) (59, -3.09378057718276980000e-002) (60, 9.13791134953498840000e-002) (61, -3.33393998444080350000e-002) (62, -7.03933686017990110000e-002) (63, 2.78150886297225950000e-002) (64, 1.17729716002941130000e-002) (65, 4.94508119300007820000e-003) (66, -5.19926473498344420000e-002) (67, -2.20251623541116710000e-002) (35, -6.98805227875709530000e-002) (36, -1.09004992991685870000e-002) (37, 4.02731373906135560000e-002) (38, -2.23155301064252850000e-002) (39, 6.67329728603363040000e-002) (40, 7.33935832977294920000e-002) (41, -9.34525509364902970000e-004) (42, -1.61388162523508070000e-002) (43, 4.78615798056125640000e-002) (44, -1.07616577297449110000e-002) (45, 9.92470607161521910000e-002) (46, 6.39545246958732600000e-002) (47, 9.41004678606987000000e-002) (48, -9.46118757128715520000e-002) (49, 4.28670905530452730000e-002) (50, -1.30135212093591690000e-002) (51, -2.68565341830253600000e-002) (52, -5.35867689177393910000e-003) (53, -1.61082241684198380000e-002) (54, -2.60618571192026140000e-002) (55, 7.32348635792732240000e-002) (56, 3.84436212480068210000e-002) (57, 3.93696837127208710000e-002) (58, -1.06303216889500620000e-002) (59, 5.35864718258380890000e-002) (60, -9.93314832448959350000e-002) (61, -6.78847031667828560000e-003) (62, 5.51290102303028110000e-002) (63, 2.80024465173482890000e-002) (64, 1.74644798971712590000e-003) (65, -1.32475967984646560000e-003) (66, -3.22641320526599880000e-002) (67, -6.20800182223320010000e-002) (35, 2.44452767074108120000e-002) (36, -1.38912852853536610000e-002) (37, -9.95941311120986940000e-002) (38, 7.12677165865898130000e-002) (39, -1.74740850925445560000e-002) (40, -1.82059444487094880000e-002) (41, 7.11212307214736940000e-002) (42, -1.69552918523550030000e-002) (43, 8.36276933550834660000e-002) (44, 4.46219332516193390000e-002) (45, -4.19274196028709410000e-002) (46, -2.56037414073944090000e-002) (47, -8.25897976756095890000e-002) (48, 2.63924635946750640000e-002) (49, 4.34618405997753140000e-002) (50, -1.40683520585298540000e-002) (51, 4.45602461695671080000e-004) (52, 6.22779875993728640000e-002) (53, -3.28502915799617770000e-002) (54, 6.18080273270606990000e-002) (55, 8.92360694706439970000e-003) (56, -2.36205151304602620000e-003) (57, 7.13225528597831730000e-002) (58, 4.08058911561965940000e-002) (59, -6.94609060883522030000e-002) (60, 5.73284886777400970000e-002) (61, 1.74259934574365620000e-002) (62, 3.05301193147897720000e-002) (63, 6.68002665042877200000e-002) (64, -3.60683910548686980000e-002) (65, 5.65409138798713680000e-002) (66, -7.88782685995101930000e-002) (67, -8.31286013126373290000e-002) (35, 1.09894229099154470000e-002) (36, 3.46342287957668300000e-002) (37, 9.46398526430130000000e-002) (38, 7.44247213006019590000e-002) (39, 9.76856797933578490000e-002) (40, -8.61899107694625850000e-002) (41, -1.34710026904940610000e-002) (42, -3.13716977834701540000e-002) (43, 3.08757089078426360000e-002) (44, 9.07026678323745730000e-002) (45, 5.49883097410202030000e-002) (46, -1.96668338030576710000e-002) (47, -9.88112837076187130000e-002) (48, 9.35166850686073300000e-002) (49, 1.50810526683926580000e-002) (50, -3.48079428076744080000e-002) (51, 3.90807576477527620000e-002) (52, -6.12164512276649480000e-002) (53, 9.34678465127944950000e-002) (54, -8.55595022439956670000e-002) (55, -4.27509173750877380000e-002) (56, -7.08520114421844480000e-002) (57, -3.99659574031829830000e-002) (58, -1.50576652958989140000e-002) (59, -1.44081991165876390000e-002) (60, -2.65675373375415800000e-002) (61, 9.27473455667495730000e-002) (62, 2.95536406338214870000e-002) (63, 5.06755337119102480000e-003) (64, 1.01412851363420490000e-002) (65, 3.20322141051292420000e-002) (66, 5.92103041708469390000e-002) (67, -1.34988352656364440000e-002) (35, 1.58446244895458220000e-002) (36, 8.07479396462440490000e-002) (37, -3.22088524699211120000e-002) (38, -5.89850917458534240000e-002) (39, -2.05458402633666990000e-002) (40, -9.38728973269462590000e-002) (41, -4.87859770655632020000e-002) (42, -1.25563396140933040000e-002) (43, -7.60878026485443120000e-002) (44, 7.14580601197667420000e-005) (45, -4.80830371379852290000e-002) (46, -5.56469596922397610000e-002) (47, -4.37689982354640960000e-002) (48, 5.37065677344799040000e-002) (49, -4.00885343551635740000e-002) (50, -4.84564118087291720000e-002) (51, 2.74455081671476360000e-002) (52, 2.72153620608150960000e-003) (53, -9.81781035661697390000e-002) (54, -7.18867480754852290000e-002) (55, -1.65160875767469410000e-002) (56, -3.23953048791736360000e-004) (57, -5.10444119572639470000e-002) (58, -2.69334763288497920000e-002) (59, -1.16702355444431300000e-002) (60, 6.94980844855308530000e-002) (61, -2.41174921393394470000e-002) (62, -8.52141678333282470000e-002) (63, -9.92634147405624390000e-002) (64, -9.56002324819564820000e-002) (65, 5.66564733162522320000e-004) (66, -8.44970270991325380000e-002) (67, 8.56326669454574580000e-002) (35, -4.54260259866714480000e-002) (36, -6.25664815306663510000e-002) (37, -6.28217160701751710000e-002) (38, 4.16906736791133880000e-002) (39, 7.07228407263755800000e-002) (40, 9.44825485348701480000e-002) (41, -2.51189451664686200000e-002) (42, -7.41498544812202450000e-002) (43, 5.49708940088748930000e-002) (44, -5.39819039404392240000e-002) (45, 6.40939921140670780000e-002) (46, -4.31905649602413180000e-002) (47, -2.39713657647371290000e-002) (48, 1.17569053545594220000e-002) (49, -3.19727212190628050000e-002) (50, -2.21159625798463820000e-002) (51, 5.19657880067825320000e-003) (52, -2.60103326290845870000e-002) (53, -4.87573631107807160000e-002) (54, -3.89083772897720340000e-002) (55, 2.92871110141277310000e-002) (56, 6.38130530714988710000e-002) (57, -5.40735460817813870000e-002) (58, -6.65840357542037960000e-002) (59, -3.30043700523674490000e-003) (60, 4.77998964488506320000e-002) (61, -8.30787494778633120000e-002) (62, -9.33392420411109920000e-002) (63, 5.30547164380550380000e-002) (64, 4.62547726929187770000e-002) (65, -6.80894181132316590000e-002) (66, 9.19491499662399290000e-002) (67, 2.24164631217718120000e-002) (35, -8.55542421340942380000e-002) (36, -5.71370348334312440000e-002) (37, -1.95602383464574810000e-002) (38, 9.05497968196868900000e-002) (39, 1.78102571517229080000e-002) (40, -1.49744804948568340000e-002) (41, -2.90084891021251680000e-002) (42, 4.62952628731727600000e-002) (43, -6.71880990266799930000e-002) (44, -8.37946645333431660000e-005) (45, -7.32652917504310610000e-002) (46, -6.24379515647888180000e-002) (47, -9.58210974931716920000e-002) (48, -1.18067022413015370000e-002) (49, -5.88865391910076140000e-002) (50, 9.78247225284576420000e-002) (51, -9.81878209859132770000e-003) (52, 9.89634841680526730000e-002) (53, 9.50297117233276370000e-002) (54, -3.28502792399376630000e-004) (55, -7.29816555976867680000e-002) (56, -3.83683070540428160000e-002) (57, 8.62895548343658450000e-002) (58, 9.15977507829666140000e-002) (59, 4.35711853206157680000e-002) (60, 6.66103363037109380000e-002) (61, -8.74702855944633480000e-002) (62, 7.41555467247962950000e-002) (63, 5.78231997787952420000e-002) (64, -9.89520698785781860000e-002) (65, 8.89182835817337040000e-002) (66, -2.81659886240959170000e-002) (67, 8.61918479204177860000e-002) (35, 4.59600649774074550000e-002) (36, -1.81607380509376530000e-002) (37, 5.69849424064159390000e-002) (38, 9.67922732234001160000e-002) (39, -5.90680353343486790000e-002) (40, -6.00090958178043370000e-002) (41, -1.81482937186956410000e-002) (42, -6.13378360867500310000e-002) (43, -7.74827077984809880000e-002) (44, 3.70983243919909000000e-003) (45, -2.49723177403211590000e-002) (46, -2.31892298907041550000e-002) (47, 4.29041944444179530000e-002) (48, 7.43603482842445370000e-002) (49, 5.87183907628059390000e-002) (50, 6.58291429281234740000e-002) (51, 7.47829228639602660000e-002) (52, -7.54499956965446470000e-002) (53, -5.71080185472965240000e-002) (54, 9.22850966453552250000e-002) (55, 8.86654667556285860000e-003) (56, -6.92855417728424070000e-002) (57, -4.73548136651515960000e-002) (58, 1.77090950310230260000e-002) (59, 5.01713529229164120000e-002) (60, -9.08360034227371220000e-002) (61, 4.50404398143291470000e-002) (62, 5.30667677521705630000e-002) (63, 1.94063559174537660000e-002) (64, -6.31210207939147950000e-002) (65, 7.16027989983558650000e-002) (66, 9.61859747767448430000e-002) (67, -3.42644751071929930000e-002) (35, -6.16165250539779660000e-002) (36, -5.71920238435268400000e-002) (37, 6.33572489023208620000e-002) (38, 9.69999283552169800000e-002) (39, -8.01236554980278020000e-002) (40, 5.08164875209331510000e-002) (41, 4.62956055998802190000e-002) (42, 3.39602828025817870000e-002) (43, 3.17914858460426330000e-002) (44, 6.50122389197349550000e-003) (45, -7.43190571665763850000e-002) (46, 9.43632200360298160000e-002) (47, -5.87943866848945620000e-002) (48, 4.73680309951305390000e-002) (49, -2.72932071238756180000e-002) (50, 1.35813672095537190000e-002) (51, 9.52664688229560850000e-002) (52, -2.76894904673099520000e-002) (53, 6.96744769811630250000e-002) (54, 7.66178919002413750000e-003) (55, -4.31471802294254300000e-002) (56, -4.03886698186397550000e-002) (57, 8.10573101043701170000e-002) (58, -1.47069618105888370000e-002) (59, -6.26066140830516820000e-003) (60, -7.56011456251144410000e-002) (61, 6.09833747148513790000e-003) (62, 1.48203382268548010000e-002) (63, -9.74578931927680970000e-002) (64, -2.82014571130275730000e-002) (65, 4.44083325564861300000e-002) (66, 5.25812022387981410000e-002) (67, 4.87462840974330900000e-002) (35, 2.00146529823541640000e-003) (36, 5.67609537392854690000e-003) (37, 3.88593077659606930000e-002) (38, 3.89608787372708320000e-003) (39, 2.35788319259881970000e-002) (40, -5.34756621345877650000e-003) (41, -3.24787199497222900000e-002) (42, -3.87531593441963200000e-002) (43, 3.12831364572048190000e-002) (44, 2.99902958795428280000e-003) (45, 3.60199287533760070000e-002) (46, -8.85315239429473880000e-002) (47, 4.46966150775551800000e-003) (48, -6.11671730875968930000e-002) (49, 8.14443528652191160000e-002) (50, -4.09625247120857240000e-002) (51, 8.25430452823638920000e-002) (52, -7.45078697800636290000e-002) (53, 9.24870744347572330000e-003) (54, 6.10727891325950620000e-002) (55, 7.35255852341651920000e-002) (56, 6.77714007906615730000e-004) (57, 2.08818130195140840000e-002) (58, -3.03555168211460110000e-002) (59, -4.78183738887310030000e-002) (60, 4.72753494977951050000e-002) (61, -5.36507368087768550000e-002) (62, 5.88545799255371090000e-002) (63, -9.62485671043396000000e-002) (64, 8.69533866643905640000e-002) (65, 8.82489010691642760000e-002) (66, 1.78876128047704700000e-002) (67, -3.02713084965944290000e-002) (35, -3.19592617452144620000e-002) (36, 8.32460150122642520000e-002) (37, 9.13987755775451660000e-002) (38, 5.16429916024208070000e-002) (39, -2.12000925093889240000e-002) (40, -1.23978117480874060000e-002) (41, 4.84635159373283390000e-002) (42, -7.02221319079399110000e-002) (43, 1.71125959604978560000e-002) (44, 9.24301147460937500000e-002) (45, -3.89487445354461670000e-002) (46, 5.18497265875339510000e-002) (47, 4.83227893710136410000e-002) (48, 7.55867213010787960000e-002) (49, -2.62176152318716050000e-002) (50, -5.06819039583206180000e-002) (51, 8.21213573217391970000e-002) (52, -3.98182636126875880000e-003) (53, -5.41490875184535980000e-002) (54, 3.65237072110176090000e-002) (55, -2.27212585741654040000e-004) (56, -6.30372390151023860000e-002) (57, -5.35813719034194950000e-002) (58, 4.94025573134422300000e-002) (59, 6.30612894892692570000e-002) (60, 4.17181942611932750000e-003) (61, 8.48493129014968870000e-002) (62, 7.99181386828422550000e-002) (63, 3.60819213092327120000e-002) (64, 8.55720266699790950000e-002) (65, 5.68937994539737700000e-002) (66, 6.23718239367008210000e-002) (67, -4.88449744880199430000e-002) (35, 7.83726423978805540000e-002) (36, 8.82178023457527160000e-002) (37, 6.79910257458686830000e-002) (38, 5.02721071243286130000e-002) (39, -9.92679782211780550000e-003) (40, 5.63080199062824250000e-002) (41, 6.38772025704383850000e-002) (42, -6.71652704477310180000e-002) (43, 1.96073856204748150000e-002) (44, 7.23551809787750240000e-002) (45, 9.28078219294548030000e-002) (46, 4.17882613837718960000e-002) (47, 2.46861781924963000000e-002) (48, -9.60536375641822810000e-002) (49, -7.01620131731033330000e-002) (50, -8.15512016415596010000e-002) (51, 8.17911326885223390000e-002) (52, -7.98545256257057190000e-002) (53, -2.78040673583745960000e-002) (54, -4.20136824250221250000e-002) (55, -5.49773760139942170000e-002) (56, -5.99700361490249630000e-002) (57, 1.85765456408262250000e-002) (58, 9.64020863175392150000e-002) (59, -9.00536626577377320000e-002) (60, 6.60439059138298030000e-002) (61, 9.42060202360153200000e-002) (62, -3.94984185695648190000e-002) (63, 8.88527482748031620000e-002) (64, 8.33042711019515990000e-002) (65, -2.22257114946842190000e-002) (66, -8.80643576383590700000e-002) (67, 3.52292298339307310000e-003) (35, -9.37511101365089420000e-002) (36, -1.33362915366888050000e-002) (37, -8.33308398723602290000e-002) (38, -9.81257259845733640000e-002) (39, 5.37106916308403020000e-002) (40, 7.65306055545806880000e-002) (41, 7.10576027631759640000e-002) (42, -9.53425094485282900000e-002) (43, 3.38432602584362030000e-002) (44, 1.16832721978425980000e-002) (45, -8.41251462697982790000e-002) (46, -1.15035250782966610000e-002) (47, 2.00197566300630570000e-002) (48, 6.23586401343345640000e-002) (49, -3.05723231285810470000e-002) (50, -8.85187610983848570000e-002) (51, 9.89812314510345460000e-002) (52, -1.47766759619116780000e-002) (53, 1.10543752089142800000e-002) (54, 8.76328125596046450000e-002) (55, 7.25450664758682250000e-002) (56, -5.67145273089408870000e-002) (57, -5.36925643682479860000e-002) (58, -8.36134478449821470000e-002) (59, 9.40300226211547850000e-002) (60, -7.83993527293205260000e-002) (61, -1.49825867265462880000e-002) (62, -2.65316758304834370000e-002) (63, -7.92547389864921570000e-002) (64, 9.48168113827705380000e-002) (65, -3.65541614592075350000e-002) (66, -3.07025033980607990000e-002) (67, 6.37262165546417240000e-002) (35, -9.69830080866813660000e-002) (36, -5.81183768808841710000e-002) (37, 8.12364369630813600000e-002) (38, 1.58837623894214630000e-002) (39, 9.19916182756423950000e-002) (40, -9.10501182079315190000e-002) (41, -3.40415462851524350000e-002) (42, 4.02627177536487580000e-002) (43, 7.41469264030456540000e-002) (44, -7.64421373605728150000e-002) (45, 5.80616146326065060000e-002) (46, 9.87828671932220460000e-002) (47, 6.64535984396934510000e-002) (48, -7.37100914120674130000e-002) (49, 6.12830556929111480000e-002) (50, 3.67174111306667330000e-003) (51, -3.84363159537315370000e-002) (52, -4.90121953189373020000e-002) (53, 3.86389531195163730000e-002) (54, -2.77039874345064160000e-002) (55, -1.15975243970751760000e-002) (56, -3.19283232092857360000e-002) (57, 7.49827455729246140000e-003) (58, 6.66911080479621890000e-002) (59, -8.16090703010559080000e-002) (60, 9.07036364078521730000e-002) (61, 4.60847169160842900000e-002) (62, 9.91318374872207640000e-002) (63, 7.36941173672676090000e-002) (64, -2.49402821063995360000e-002) (65, 1.75264775753021240000e-002) (66, 8.50616693496704100000e-002) (67, 9.36739593744277950000e-002) (35, -5.38695640861988070000e-002) (36, -8.22945386171340940000e-002) (37, 2.43856888264417650000e-002) (38, -8.41829776763916020000e-002) (39, 8.00026357173919680000e-002) (40, -4.67708744108676910000e-002) (41, 9.27096381783485410000e-002) (42, -7.28482007980346680000e-002) (43, -2.59050019085407260000e-002) (44, -4.42598313093185420000e-002) (45, 2.33371779322624210000e-002) (46, -5.70230931043624880000e-002) (47, 3.65815497934818270000e-002) (48, 3.87271344661712650000e-002) (49, -3.81436869502067570000e-002) (50, -3.14846709370613100000e-002) (51, 2.61310096830129620000e-002) (52, -9.67603698372840880000e-002) (53, -2.60417051613330840000e-002) (54, 1.17239251267164950000e-004) (55, 7.33272209763526920000e-002) (56, 9.86315682530403140000e-002) (57, 8.82049873471260070000e-002) (58, 2.21508089452981950000e-002) (59, -8.50411877036094670000e-002) (60, 4.46998812258243560000e-002) (61, 5.46713024377822880000e-002) (62, 5.58809041976928710000e-002) (63, -2.75355726480484010000e-002) (64, -7.86502957344055180000e-002) (65, -9.89706739783287050000e-002) (66, 1.65409203618764880000e-002) (67, 5.79479150474071500000e-003) (35, 3.20385769009590150000e-002) (36, 6.69751912355422970000e-002) (37, 3.47915552556514740000e-002) (38, -2.60699968785047530000e-002) (39, -5.26171028614044190000e-002) (40, -1.56406802125275140000e-003) (41, -1.09950359910726550000e-003) (42, 3.29969488084316250000e-002) (43, 3.51210758090019230000e-002) (44, -1.69819667935371400000e-002) (45, -2.59538870304822920000e-002) (46, -9.58959236741065980000e-002) (47, 8.25403034687042240000e-002) (48, -9.26071330904960630000e-002) (49, 5.45730739831924440000e-002) (50, -5.89525289833545680000e-002) (51, 1.77897866815328600000e-002) (52, -8.15714746713638310000e-002) (53, -9.41686928272247310000e-002) (54, -7.01047554612159730000e-002) (55, 3.63111495971679690000e-002) (56, 6.90016373991966250000e-002) (57, -4.82892021536827090000e-002) (58, -4.86077405512332920000e-002) (59, -6.14848993718624110000e-002) (60, -7.01637640595436100000e-002) (61, 6.41322061419487000000e-002) (62, -6.24376609921455380000e-002) (63, -1.48942004889249800000e-002) (64, 4.86097149550914760000e-002) (65, -8.92920792102813720000e-002) (66, 5.36257028579711910000e-002) (67, 7.62054696679115300000e-002) (35, 3.75694930553436280000e-002) (36, 1.68705973774194720000e-002) (37, -6.33765682578086850000e-002) (38, -3.94874215126037600000e-002) (39, -2.90648601949214940000e-002) (40, 9.87574458122253420000e-002) (41, -7.80859664082527160000e-002) (42, 8.09471905231475830000e-002) (43, 7.33056440949440000000e-002) (44, -7.70725384354591370000e-002) (45, 8.87781456112861630000e-002) (46, -3.73755209147930150000e-002) (47, -1.97084899991750720000e-002) (48, 4.94103170931339260000e-002) (49, 5.64538389444351200000e-002) (50, -5.01135289669036870000e-002) (51, -4.72510568797588350000e-002) (52, -8.58739018440246580000e-002) (53, -3.82056385278701780000e-002) (54, -1.72707589808851480000e-003) (55, -7.43260681629180910000e-002) (56, 7.04985298216342930000e-003) (57, -5.01806922256946560000e-002) (58, -7.20977783203125000000e-002) (59, -2.67634578049182890000e-002) (60, 2.31348304077982900000e-003) (61, 8.42299684882164000000e-003) (62, 4.43566367030143740000e-002) (63, 7.09497258067131040000e-002) (64, -3.51540418341755870000e-003) (65, 7.84205943346023560000e-002) (66, -6.65496289730072020000e-002) (67, -6.35449886322021480000e-002) (35, -8.86427909135818480000e-002) (36, 7.03107044100761410000e-002) (37, -6.39295056462287900000e-002) (38, 3.00145167857408520000e-002) (39, 1.74228027462959290000e-002) (40, -8.11291933059692380000e-002) (41, -9.06873494386672970000e-002) (42, 9.60496813058853150000e-002) (43, 3.42218354344367980000e-002) (44, -9.30859819054603580000e-002) (45, -1.97538807988166810000e-002) (46, -7.30601772665977480000e-002) (47, -3.59553694725036620000e-002) (48, -1.05698145925998690000e-002) (49, 9.84239578247070310000e-002) (50, -6.96791112422943120000e-002) (51, -8.50659981369972230000e-002) (52, -5.06229065358638760000e-002) (53, 9.35838893055915830000e-002) (54, -1.88447795808315280000e-002) (55, 6.95115327835083010000e-002) (56, -8.36382731795310970000e-002) (57, 4.45865467190742490000e-002) (58, -6.01689890027046200000e-002) (59, 5.56758604943752290000e-002) (60, 7.94603899121284480000e-002) (61, 6.59595802426338200000e-002) (62, -8.24536830186843870000e-002) (63, 7.55234733223915100000e-002) (64, -7.45985135436058040000e-002) (65, -8.16968530416488650000e-002) (66, 7.01165795326232910000e-002) (67, 4.87798787653446200000e-002) (35, 3.34044620394706730000e-002) (36, -5.13310097157955170000e-002) (37, 1.64498900994658470000e-003) (38, -7.32258558273315430000e-002) (39, -4.19459491968154910000e-002) (40, -3.24890501797199250000e-002) (41, -4.07384261488914490000e-002) (42, 3.37244011461734770000e-002) (43, 3.09832636266946790000e-002) (44, -3.21760661900043490000e-002) (45, 9.98779535293579100000e-002) (46, -9.33066848665475850000e-003) (47, 1.32235987111926080000e-002) (48, 9.34902802109718320000e-002) (49, 1.07274819165468220000e-002) (50, 7.93503373861312870000e-002) (51, 2.91779842227697370000e-002) (52, -3.75193879008293150000e-002) (53, -3.54594402015209200000e-002) (54, 1.60379323642700910000e-003) (55, -8.66613164544105530000e-002) (56, -4.85361404716968540000e-002) (57, 9.07695218920707700000e-002) (58, 9.06312465667724610000e-002) (59, 1.27611181233078240000e-003) (60, -5.20108602941036220000e-002) (61, -5.59318028390407560000e-002) (62, -6.93561136722564700000e-002) (63, 9.59355607628822330000e-002) (64, -2.35264264047145840000e-002) (65, 5.12731894850730900000e-002) (66, 4.08463850617408750000e-002) (67, 4.06298488378524780000e-002) (35, 4.29476145654916760000e-003) (36, -8.18063318729400630000e-002) (37, -1.99156627058982850000e-002) (38, 3.00230551511049270000e-002) (39, -6.58299103379249570000e-002) (40, 7.73441568017005920000e-002) (41, -7.13912472128868100000e-002) (42, 8.98147970438003540000e-002) (43, 8.91838222742080690000e-002) (44, 5.80305531620979310000e-002) (45, -9.71336066722869870000e-002) (46, 5.74680604040622710000e-002) (47, -3.44207650050520900000e-003) (48, 5.99276721477508540000e-002) (49, 5.98620325326919560000e-002) (50, 9.41115543246269230000e-002) (51, -2.34193466603755950000e-002) (52, 1.13368956372141840000e-002) (53, 4.71910201013088230000e-002) (54, 5.94477616250514980000e-002) (55, -5.71866557002067570000e-002) (56, -6.42409082502126690000e-003) (57, 5.49669265747070310000e-002) (58, -1.91587992012500760000e-002) (59, -8.01343321800231930000e-002) (60, -8.74244421720504760000e-002) (61, -7.39503502845764160000e-002) (62, -5.22168241441249850000e-002) (63, 8.50444808602333070000e-002) (64, -9.96704678982496260000e-004) (65, -1.93410459905862810000e-002) (66, 6.30272999405860900000e-002) (67, 4.00293059647083280000e-002) (35, 1.81907564401626590000e-002) (36, -8.82227867841720580000e-002) (37, -1.84748731553554530000e-002) (38, -8.08765292167663570000e-002) (39, -2.91635710746049880000e-002) (40, 7.19154346734285350000e-003) (41, 6.84395506978034970000e-002) (42, 3.92812341451644900000e-002) (43, -3.35129536688327790000e-002) (44, 5.53705245256423950000e-002) (45, -9.20427590608596800000e-002) (46, -9.97476279735565190000e-002) (47, 5.00418245792388920000e-002) (48, -9.88589599728584290000e-003) (49, -6.75616506487131120000e-003) (50, 3.86891551315784450000e-002) (51, 6.31848350167274480000e-002) (52, 3.13500538468360900000e-002) (53, -7.04762712121009830000e-002) (54, -5.59278428554534910000e-002) (55, -7.80856981873512270000e-002) (56, -2.23476961255073550000e-002) (57, -1.87186915427446370000e-002) (58, -5.78203797340393070000e-002) (59, -8.73109605163335800000e-003) (60, 7.09774810820817950000e-003) (61, 9.48751047253608700000e-002) (62, 5.22696003317832950000e-002) (63, -6.14656507968902590000e-002) (64, 4.25056368112564090000e-002) (65, 2.77089178562164310000e-002) (66, -7.55609199404716490000e-002) (67, -5.36651276051998140000e-002) (35, 3.73547412455081940000e-002) (36, -8.46614390611648560000e-002) (37, 6.32488876581192020000e-002) (38, 6.63857758045196530000e-002) (39, 3.89031730592250820000e-002) (40, -9.20699834823608400000e-002) (41, 4.41637188196182250000e-002) (42, -3.57631850056350230000e-003) (43, -1.60072222352027890000e-002) (44, 6.55493605881929400000e-003) (45, -7.17352777719497680000e-002) (46, 5.92560172080993650000e-002) (47, 8.48185569047927860000e-002) (48, -6.82724341750144960000e-002) (49, -1.73644833266735080000e-002) (50, 6.78083449602127080000e-002) (51, -3.98088619112968440000e-002) (52, -4.54954504966735840000e-002) (53, -8.82282555103302000000e-002) (54, 5.55636808276176450000e-002) (55, -3.12912836670875550000e-002) (56, -7.81800076365470890000e-002) (57, -9.33736711740493770000e-002) (58, -4.55467216670513150000e-002) (59, -9.97740849852561950000e-002) (60, 7.17242294922471050000e-003) (61, -8.25225859880447390000e-002) (62, 1.21468899305909870000e-003) (63, 8.17252621054649350000e-002) (64, 1.80022269487380980000e-002) (65, 5.69086484611034390000e-002) (66, -4.64575029909610750000e-002) (67, 5.38900122046470640000e-002) (68, -8.99641308933496480000e-003) (69, -6.08118884265422820000e-002) (70, 9.73669886589050290000e-002) (71, 7.48535394668579100000e-002) (72, -9.38961431384086610000e-002) (73, 6.16190247237682340000e-002) (74, -7.42900222539901730000e-002) (75, 6.27941451966762540000e-003) (76, 5.18372468650341030000e-002) (77, 3.60511392354965210000e-002) (78, 7.25096687674522400000e-002) (79, 4.04368378221988680000e-002) (80, 7.14383274316787720000e-002) (81, -2.59542409330606460000e-002) (82, -2.03443355858325960000e-002) (83, 2.15707886964082720000e-002) (84, 2.20657344907522200000e-002) (85, 3.41543368995189670000e-002) (86, 8.10097530484199520000e-002) (87, 1.99086200445890430000e-002) (88, 7.84116387367248540000e-002) (89, 3.66017296910285950000e-002) (90, -1.68675184249877930000e-002) (91, -8.63780900835990910000e-002) (92, 1.14232478663325310000e-002) (93, -4.82652410864830020000e-002) (94, 2.50731725245714190000e-002) (95, 3.53912413120269780000e-002) (96, 7.39048942923545840000e-002) (97, -3.13099436461925510000e-002) (98, 9.74418073892593380000e-002) (99, 3.96940559148788450000e-002) (100, 2.38251872360706330000e-002) (68, -5.00615872442722320000e-002) (69, -9.75078493356704710000e-002) (70, 4.65825274586677550000e-002) (71, -8.38076174259185790000e-002) (72, -2.01738309115171430000e-002) (73, -6.23380392789840700000e-002) (74, 2.01585367321968080000e-002) (75, -2.15418543666601180000e-003) (76, 9.43606067448854450000e-003) (77, -1.98897682130336760000e-002) (78, 3.37895154953002930000e-002) (79, -7.03636184334754940000e-002) (80, -9.11494642496109010000e-002) (81, -4.13886606693267820000e-002) (82, -1.62257626652717590000e-002) (83, 7.52411633729934690000e-002) (84, -7.01802372932434080000e-002) (85, -9.90615878254175190000e-003) (86, 3.37003776803612710000e-003) (87, 8.23305770754814150000e-002) (88, 8.58463421463966370000e-002) (89, 6.37124702334403990000e-002) (90, -6.42085075378417970000e-002) (91, 8.97041410207748410000e-002) (92, 5.64868003129959110000e-002) (93, -4.64283972978591920000e-002) (94, -7.90295079350471500000e-002) (95, -9.19336825609207150000e-003) (96, -7.86443874239921570000e-002) (97, 4.09625731408596040000e-002) (98, 5.36435991525650020000e-002) (99, 8.50699692964553830000e-002) (100, -6.92385509610176090000e-002) (68, 2.85196956247091290000e-002) (69, -3.13344560563564300000e-002) (70, -5.05907945334911350000e-002) (71, 1.98893677443265910000e-002) (72, 2.35123559832572940000e-002) (73, -9.34305042028427120000e-002) (74, 5.65274655818939210000e-002) (75, 6.72207325696945190000e-002) (76, -1.96792986243963240000e-002) (77, -7.52463713288307190000e-002) (78, -1.83824207633733750000e-002) (79, 1.61264855414628980000e-002) (80, -2.74553075432777400000e-002) (81, -1.99226685799658300000e-003) (82, -8.50011557340621950000e-002) (83, 5.04491254687309270000e-002) (84, 8.28000754117965700000e-002) (85, 7.43389353156089780000e-002) (86, -7.69640430808067320000e-002) (87, -5.87095431983470920000e-002) (88, -9.26468521356582640000e-003) (89, 3.84017899632453920000e-002) (90, 8.22069793939590450000e-002) (91, -3.37303839623928070000e-002) (92, 3.81314530968666080000e-002) (93, 3.88970673084259030000e-002) (94, -7.79115110635757450000e-002) (95, -9.04403477907180790000e-002) (96, 5.51481209695339200000e-002) (97, -6.23515471816062930000e-002) (98, -9.59266275167465210000e-002) (99, -5.14765866100788120000e-002) (100, -7.35704302787780760000e-002) (68, -6.55169412493705750000e-002) (69, -2.90518626570701600000e-002) (70, -6.77694976329803470000e-002) (71, -2.13464815169572830000e-002) (72, -7.45501816272735600000e-002) (73, 9.39458012580871580000e-002) (74, 5.72519898414611820000e-002) (75, -2.42436677217483520000e-002) (76, 5.20087555050849910000e-002) (77, 5.67535981535911560000e-002) (78, 5.37272095680236820000e-002) (79, -6.67762383818626400000e-003) (80, -5.44885033741593360000e-003) (81, -3.20593896321952340000e-003) (82, 7.65875577926635740000e-002) (83, -3.71362827718257900000e-002) (84, 6.69538900256156920000e-002) (85, -5.62224723398685460000e-002) (86, 1.86992231756448750000e-002) (87, -3.75861264765262600000e-002) (88, 7.20533281564712520000e-002) (89, 8.31545367836952210000e-002) (90, 4.43049222230911250000e-002) (91, 3.44334878027439120000e-002) (92, -3.12489457428455350000e-002) (93, -2.47610639780759810000e-002) (94, 5.68989850580692290000e-002) (95, 1.48674165830016140000e-002) (96, -8.74076783657073970000e-002) (97, 6.41504153609275820000e-002) (98, 9.93057042360305790000e-002) (99, -4.62979897856712340000e-002) (100, -7.90968313813209530000e-002) (68, -9.76257100701332090000e-002) (69, -1.94999948143959050000e-003) (70, 4.81126084923744200000e-003) (71, -8.17578211426734920000e-002) (72, 3.24348919093608860000e-002) (73, 5.88193461298942570000e-002) (74, -2.52598803490400310000e-002) (75, 3.62787395715713500000e-002) (76, -5.95170333981513980000e-002) (77, -8.87710228562355040000e-002) (78, -9.83778387308120730000e-004) (79, 8.50229337811470030000e-002) (80, 3.15353386104106900000e-002) (81, -7.92988389730453490000e-002) (82, -5.92646673321723940000e-002) (83, 9.66131389141082760000e-002) (84, 4.42667268216609950000e-002) (85, 6.50955140590667720000e-002) (86, -1.63432136178016660000e-002) (87, 6.83416500687599180000e-002) (88, 4.27394285798072810000e-002) (89, 8.57614874839782710000e-002) (90, 3.77869140356779100000e-003) (91, -2.86232978105545040000e-002) (92, 1.40345599502325060000e-002) (93, 1.84669233858585360000e-002) (94, 1.61899172235280280000e-003) (95, -1.93520411849021910000e-002) (96, 4.51126368716359140000e-003) (97, -8.89389738440513610000e-002) (98, -2.53627970814704900000e-002) (99, -1.83335021138191220000e-002) (100, 2.45753806084394450000e-002) (68, 3.30451726913452150000e-002) (69, -8.76005440950393680000e-002) (70, -8.99161472916603090000e-002) (71, 5.33049032092094420000e-002) (72, -1.50297945365309720000e-002) (73, 9.51254665851593020000e-002) (74, -1.88001841306686400000e-002) (75, -2.23628822714090350000e-002) (76, 1.17222517728805540000e-002) (77, -2.29872614145278930000e-002) (78, -3.50073017179965970000e-002) (79, -1.00902700796723370000e-002) (80, -7.17962235212326050000e-002) (81, 3.55734191834926610000e-002) (82, -3.70376594364643100000e-002) (83, 8.31890702247619630000e-002) (84, -3.82219702005386350000e-002) (85, 6.82080611586570740000e-002) (86, 4.35559265315532680000e-002) (87, -2.94065140187740330000e-002) (88, -8.08040499687194820000e-002) (89, -8.25707763433456420000e-002) (90, -8.59037227928638460000e-003) (91, 6.11431375145912170000e-002) (92, -1.69447027146816250000e-002) (93, -9.43907648324966430000e-002) (94, -7.18720257282257080000e-002) (95, 2.38690730184316640000e-002) (96, -5.48814050853252410000e-002) (97, -3.89284193515777590000e-002) (98, 5.92905804514884950000e-002) (99, -2.88963597267866130000e-002) (100, -1.82374659925699230000e-002) (68, -8.42307433485984800000e-002) (69, -9.51587930321693420000e-002) (70, -8.48543550819158550000e-003) (71, -2.24506054073572160000e-002) (72, -4.18660268187522890000e-002) (73, 6.97919949889183040000e-002) (74, 6.62811771035194400000e-002) (75, -9.26933512091636660000e-002) (76, -8.19865986704826350000e-002) (77, -9.12949964404106140000e-002) (78, 9.58271846175193790000e-002) (79, 7.39027708768844600000e-002) (80, -2.99071166664361950000e-002) (81, -5.58984465897083280000e-002) (82, 7.28803500533103940000e-002) (83, -8.15839767456054690000e-002) (84, 3.34094613790512080000e-002) (85, -7.95331317931413650000e-003) (86, -7.02079758048057560000e-002) (87, 2.02015880495309830000e-003) (88, 4.95680011808872220000e-002) (89, 5.24077899754047390000e-002) (90, 9.28610712289810180000e-002) (91, 6.82710036635398860000e-002) (92, 2.07911469042301180000e-002) (93, -8.01677405834198000000e-002) (94, 7.43374004960060120000e-002) (95, -8.18847492337226870000e-003) (96, -1.11028095707297330000e-002) (97, -2.83703505992889400000e-002) (98, -6.62627816200256350000e-002) (99, -8.04479643702507020000e-002) (100, 3.66170480847358700000e-002) (68, 8.91532748937606810000e-002) (69, -6.02811500430107120000e-002) (70, 1.10225221142172810000e-002) (71, 9.27389934659004210000e-002) (72, -3.24938520789146420000e-002) (73, 6.24147877097129820000e-002) (74, 8.25283899903297420000e-002) (75, 2.05555073916912080000e-002) (76, -2.69822739064693450000e-002) (77, 3.10636721551418300000e-002) (78, -3.48996371030807500000e-002) (79, -2.50446088612079620000e-002) (80, 7.97239481471478940000e-004) (81, -1.67099721729755400000e-002) (82, 7.74817019701004030000e-002) (83, -9.56441089510917660000e-002) (84, 9.11038368940353390000e-002) (85, 4.11196649074554440000e-002) (86, 2.44509689509868620000e-002) (87, -1.76099091768264770000e-002) (88, 6.05090744793415070000e-002) (89, 4.33695651590824130000e-002) (90, -7.56031870841979980000e-002) (91, 4.88320104777812960000e-002) (92, -9.67318564653396610000e-002) (93, -3.42779941856861110000e-002) (94, 7.40627348423004150000e-002) (95, 4.18615527451038360000e-002) (96, 2.01111398637294770000e-002) (97, 6.03984184563159940000e-002) (98, 5.50958067178726200000e-002) (99, -9.73676815629005430000e-002) (100, 2.98488829284906390000e-002) (68, 4.54540587961673740000e-002) (69, 8.97857919335365300000e-002) (70, -6.70946091413497920000e-002) (71, 1.98195204138755800000e-002) (72, -2.31192465871572490000e-002) (73, -4.80038560926914220000e-002) (74, 8.80586430430412290000e-002) (75, -5.14256162568926810000e-003) (76, -6.78063258528709410000e-002) (77, 3.90405692160129550000e-002) (78, -1.44429104402661320000e-002) (79, -2.62150075286626820000e-002) (80, -6.06779828667640690000e-002) (81, -8.85606184601783750000e-002) (82, -8.89637768268585210000e-002) (83, 9.77888405323028560000e-002) (84, 8.02363455295562740000e-002) (85, -9.35496017336845400000e-002) (86, 2.86394520662724970000e-003) (87, 1.66279042605310680000e-003) (88, 1.56879425048828130000e-003) (89, -6.83625116944313050000e-002) (90, 9.61990281939506530000e-002) (91, 5.93830039724707600000e-003) (92, -3.71776521205902100000e-002) (93, 4.47426810860633850000e-002) (94, 8.52889753878116610000e-003) (95, -1.39345405623316760000e-002) (96, 5.40878698229789730000e-002) (97, -7.37427249550819400000e-002) (98, -5.29473833739757540000e-002) (99, 7.49286636710166930000e-002) (100, -8.61983671784400940000e-002) (68, 5.05912378430366520000e-002) (69, 1.97972804307937620000e-002) (70, 5.44909499585628510000e-002) (71, -2.21058875322341920000e-002) (72, 6.26033917069435120000e-002) (73, -6.86828419566154480000e-002) (74, -6.71312678605318070000e-003) (75, -6.72074826434254650000e-003) (76, -3.47737781703472140000e-002) (77, 4.47725728154182430000e-002) (78, -1.38567928224802020000e-002) (79, 2.32819803059101100000e-002) (80, 2.48889494687318800000e-002) (81, 9.08378511667251590000e-002) (82, -4.83690537512302400000e-002) (83, 8.01913291215896610000e-002) (84, 4.23812540248036380000e-004) (85, -9.46244075894355770000e-002) (86, -5.56346625089645390000e-002) (87, 1.37991197407245640000e-002) (88, 2.51469900831580160000e-003) (89, 7.69061148166656490000e-002) (90, -6.24351426959037780000e-002) (91, -1.22502986341714860000e-002) (92, -1.09797082841396330000e-002) (93, 8.48425701260566710000e-002) (94, -6.67584314942359920000e-002) (95, -2.47795041650533680000e-002) (96, 3.33254970610141750000e-003) (97, 1.03915650397539140000e-002) (98, -4.51315306127071380000e-002) (99, 5.09642716497182850000e-003) (100, -3.88436950743198390000e-002) (68, 9.54369024839252230000e-004) (69, -1.94001607596874240000e-002) (70, -9.95770189911127090000e-003) (71, 9.25776362419128420000e-002) (72, -3.26111540198326110000e-002) (73, -3.11358198523521420000e-002) (74, 6.45351037383079530000e-002) (75, 4.46893386542797090000e-002) (76, -9.84277427196502690000e-002) (77, 4.23562154173851010000e-002) (78, 7.36904218792915340000e-002) (79, -4.60130311548709870000e-002) (80, 8.73701572418212890000e-002) (81, -2.64317523688077930000e-002) (82, -6.97516798973083500000e-002) (83, 9.00298282504081730000e-002) (84, -9.31547302752733230000e-003) (85, 3.83140258491039280000e-002) (86, 8.27982053160667420000e-002) (87, -1.91174168139696120000e-002) (88, -8.87610092759132390000e-002) (89, -1.05521231889724730000e-002) (90, 1.88363846391439440000e-002) (91, 2.35468260943889620000e-002) (92, -2.69450210034847260000e-002) (93, 6.64502615109086040000e-003) (94, 4.04866933822631840000e-002) (95, 8.79896581172943120000e-002) (96, -6.05613440275192260000e-002) (97, -1.89801901578903200000e-002) (98, 3.72363179922103880000e-002) (99, -7.95600265264511110000e-002) (100, 2.96054165810346600000e-002) (68, -1.40683241188526150000e-002) (69, 9.13226976990699770000e-002) (70, 4.89214956760406490000e-002) (71, 1.72167383134365080000e-002) (72, -9.91878584027290340000e-002) (73, 5.00459335744380950000e-002) (74, 6.82447291910648350000e-003) (75, 9.14866011589765550000e-003) (76, 2.54472214728593830000e-002) (77, 8.29297378659248350000e-002) (78, -3.66828590631484990000e-002) (79, -5.20763210952281950000e-002) (80, 6.28051087260246280000e-002) (81, -2.61781215667724610000e-002) (82, -1.21631501242518420000e-002) (83, 6.30324259400367740000e-002) (84, -8.81735160946846010000e-002) (85, -3.53096462786197660000e-002) (86, 3.92350628972053530000e-002) (87, -7.72471725940704350000e-002) (88, 3.10625471174716950000e-002) (89, 8.83247107267379760000e-002) (90, 9.31618288159370420000e-002) (91, 7.90974199771881100000e-002) (92, 3.00787072628736500000e-002) (93, 2.04037185758352280000e-002) (94, -8.93212109804153440000e-002) (95, -1.53981531038880350000e-002) (96, 4.32846359908580780000e-002) (97, -1.85805298388004300000e-002) (98, 5.69727979600429530000e-002) (99, -3.75102125108242030000e-002) (100, -5.61283603310585020000e-002) (68, -7.87190049886703490000e-002) (69, 7.45900124311447140000e-002) (70, -8.75120759010314940000e-002) (71, -4.56660911440849300000e-002) (72, -8.51626023650169370000e-002) (73, 1.74264721572399140000e-002) (74, -6.89125284552574160000e-002) (75, -9.54368412494659420000e-002) (76, 4.31550154462456700000e-003) (77, 5.38413673639297490000e-002) (78, -6.88925608992576600000e-002) (79, -9.47924479842185970000e-002) (80, 1.47309321910142900000e-002) (81, -5.79467304050922390000e-002) (82, 3.80270294845104220000e-002) (83, 7.95640498399734500000e-002) (84, -2.28628553450107570000e-002) (85, 8.63558277487754820000e-002) (86, 4.68691103160381320000e-002) (87, -8.12888592481613160000e-002) (88, 8.94045382738113400000e-002) (89, -2.05037109553813930000e-002) (90, -7.98856317996978760000e-002) (91, -8.67620110511779790000e-002) (92, 4.63107451796531680000e-002) (93, -6.22508190572261810000e-002) (94, 7.53620732575654980000e-003) (95, 1.81109309196472170000e-002) (96, 6.98151811957359310000e-002) (97, -6.54164403676986690000e-002) (98, -3.00718490034341810000e-002) (99, 6.89926836639642720000e-003) (100, 7.11808055639266970000e-002) (68, 4.05661463737487790000e-002) (69, 8.83153229951858520000e-002) (70, 7.29169473052024840000e-002) (71, 7.70314633846282960000e-002) (72, 7.01611712574958800000e-002) (73, -6.55468553304672240000e-002) (74, -7.29490593075752260000e-002) (75, -5.56992627680301670000e-002) (76, -4.56973910331726070000e-002) (77, 9.83572602272033690000e-002) (78, -3.56824398040771480000e-002) (79, -8.96532908082008360000e-002) (80, 2.94969324022531510000e-002) (81, -6.57538250088691710000e-002) (82, -6.61604404449462890000e-002) (83, -9.48761403560638430000e-003) (84, -4.10670489072799680000e-002) (85, 2.15693097561597820000e-002) (86, 8.62357541918754580000e-002) (87, -3.16215343773365020000e-002) (88, 9.20154303312301640000e-002) (89, -8.38200673460960390000e-002) (90, 4.40731793642044070000e-002) (91, 2.99774110317230220000e-003) (92, -3.62415499985218050000e-002) (93, 7.28218480944633480000e-002) (94, -4.03654128313064580000e-002) (95, -1.22512234374880790000e-002) (96, -5.43881617486476900000e-002) (97, -7.70672187209129330000e-002) (98, 8.27848818153142930000e-003) (99, 9.14444774389266970000e-002) (100, -5.08364625275135040000e-002) (68, -1.61770880222320560000e-002) (69, -2.09970287978649140000e-002) (70, 9.28996782749891280000e-003) (71, -1.17450486868619920000e-002) (72, -9.40815173089504240000e-003) (73, 1.95116717368364330000e-002) (74, -3.64477075636386870000e-002) (75, -7.66561031341552730000e-002) (76, -8.45607370138168330000e-002) (77, 8.32301452755928040000e-002) (78, -2.79898121953010560000e-002) (79, -4.41427975893020630000e-002) (80, 7.43565857410430910000e-002) (81, -5.29354736208915710000e-002) (82, 2.97354944050312040000e-002) (83, 2.28148009628057480000e-002) (84, -1.08841825276613240000e-002) (85, -5.32462485134601590000e-002) (86, -7.42647051811218260000e-002) (87, 6.89187943935394290000e-002) (88, -8.47095996141433720000e-003) (89, 8.98431241512298580000e-002) (90, -7.11070820689201350000e-002) (91, -8.73510539531707760000e-002) (92, 4.95508387684822080000e-002) (93, -9.83608514070510860000e-002) (94, 7.49711245298385620000e-002) (95, -8.86110886931419370000e-002) (96, -2.68965354189276700000e-003) (97, 6.10270611941814420000e-002) (98, 8.46658870577812190000e-002) (99, -6.82990029454231260000e-002) (100, 4.95586805045604710000e-002) (68, -1.84841901063919070000e-002) (69, 4.49496246874332430000e-002) (70, 3.06966733187437060000e-002) (71, -1.81616786867380140000e-002) (72, -5.49202598631381990000e-003) (73, 8.40160995721817020000e-002) (74, -4.52236905694007870000e-002) (75, 5.94001300632953640000e-002) (76, 9.08296555280685420000e-002) (77, -2.74486485868692400000e-002) (78, 6.31539598107337950000e-002) (79, 9.24989879131317140000e-002) (80, 7.66713246703147890000e-002) (81, 8.06567966938018800000e-002) (82, -1.97379551827907560000e-002) (83, -9.69370678067207340000e-002) (84, 9.98469740152359010000e-002) (85, 2.32375543564558030000e-002) (86, -1.45906666293740270000e-002) (87, -1.81449037045240400000e-002) (88, 3.72060900554060940000e-003) (89, 2.44091060012578960000e-002) (90, 4.41543720662593840000e-002) (91, 1.76475737243890760000e-002) (92, 6.36464208364486690000e-002) (93, -6.78708553314208980000e-002) (94, 8.95836800336837770000e-002) (95, 8.02779421210289000000e-002) (96, -3.65089364349842070000e-002) (97, -8.51254612207412720000e-002) (98, 5.76769560575485230000e-002) (99, -6.14782981574535370000e-002) (100, -3.26481275260448460000e-002) (68, -3.01581900566816330000e-002) (69, 8.37143808603286740000e-002) (70, 9.26809087395668030000e-002) (71, -5.80836273729801180000e-002) (72, 7.96507298946380620000e-002) (73, -2.97761689871549610000e-002) (74, 9.17812623083591460000e-003) (75, -6.55220309272408490000e-003) (76, -6.32958263158798220000e-002) (77, -7.95310139656066890000e-002) (78, -7.53274485468864440000e-002) (79, -4.21101413667202000000e-002) (80, 8.11893269419670100000e-002) (81, 6.04972392320632930000e-002) (82, -8.08425471186637880000e-002) (83, -7.80504271388053890000e-002) (84, -2.53839157521724700000e-002) (85, -5.68291544914245610000e-002) (86, 2.47040558606386180000e-002) (87, 1.60675272345542910000e-002) (88, 