FANN_FLO_2.1
num_layers=4
learning_rate=0.001000
connection_rate=1.000000
network_type=0
learning_momentum=0.000000
training_algorithm=2
train_error_function=1
train_stop_function=0
cascade_output_change_fraction=0.010000
quickprop_decay=-0.000100
quickprop_mu=1.750000
rprop_increase_factor=1.200000
rprop_decrease_factor=0.500000
rprop_delta_min=0.000000
rprop_delta_max=50.000000
rprop_delta_zero=0.100000
cascade_output_stagnation_epochs=12
cascade_candidate_change_fraction=0.010000
cascade_candidate_stagnation_epochs=12
cascade_max_out_epochs=150
cascade_min_out_epochs=50
cascade_max_cand_epochs=150
cascade_min_cand_epochs=50
cascade_num_candidate_groups=2
bit_fail_limit=3.49999994039535520000e-001
cascade_candidate_limit=1.00000000000000000000e+003
cascade_weight_multiplier=4.00000005960464480000e-001
cascade_activation_functions_count=10
cascade_activation_functions=3 5 7 8 10 11 14 15 16 17 
cascade_activation_steepnesses_count=4
cascade_activation_steepnesses=2.50000000000000000000e-001 5.00000000000000000000e-001 7.50000000000000000000e-001 1.00000000000000000000e+000 
layer_sizes=3 21 16 3 
scale_included=0
neurons (num_inputs, activation_function, activation_steepness)=(0, 0, 0.00000000000000000000e+000) (0, 0, 0.00000000000000000000e+000) (0, 0, 0.00000000000000000000e+000) (3, 5, 5.00000000000000000000e-001) (3, 5, 5.00000000000000000000e-001) (3, 5, 5.00000000000000000000e-001) (3, 5, 5.00000000000000000000e-001) (3, 5, 5.00000000000000000000e-001) (3, 5, 5.00000000000000000000e-001) (3, 5, 5.00000000000000000000e-001) (3, 5, 5.00000000000000000000e-001) (3, 5, 5.00000000000000000000e-001) (3, 5, 5.00000000000000000000e-001) (3, 5, 5.00000000000000000000e-001) (3, 5, 5.00000000000000000000e-001) (3, 5, 5.00000000000000000000e-001) (3, 5, 5.00000000000000000000e-001) (3, 5, 5.00000000000000000000e-001) (3, 5, 5.00000000000000000000e-001) (3, 5, 5.00000000000000000000e-001) (3, 5, 5.00000000000000000000e-001) (3, 5, 5.00000000000000000000e-001) (3, 5, 5.00000000000000000000e-001) (0, 5, 0.00000000000000000000e+000) (21, 5, 5.00000000000000000000e-001) (21, 5, 5.00000000000000000000e-001) (21, 5, 5.00000000000000000000e-001) (21, 5, 5.00000000000000000000e-001) (21, 5, 5.00000000000000000000e-001) (21, 5, 5.00000000000000000000e-001) (21, 5, 5.00000000000000000000e-001) (21, 5, 5.00000000000000000000e-001) (21, 5, 5.00000000000000000000e-001) (21, 5, 5.00000000000000000000e-001) (21, 5, 5.00000000000000000000e-001) (21, 5, 5.00000000000000000000e-001) (21, 5, 5.00000000000000000000e-001) (21, 5, 5.00000000000000000000e-001) (21, 5, 5.00000000000000000000e-001) (0, 5, 0.00000000000000000000e+000) (16, 5, 5.00000000000000000000e-001) (16, 5, 5.00000000000000000000e-001) (0, 5, 0.00000000000000000000e+000) 
connections (connected_to_neuron, weight)=(0, -9.01765897870063780000e-002) (1, -8.03435221314430240000e-002) (2, -9.66581180691719060000e-002) (0, -8.08475539088249210000e-002) (1, 5.52803091704845430000e-002) (2, -6.99694082140922550000e-002) (0, 5.83239831030368800000e-002) (1, -7.51803964376449580000e-002) (2, -5.20311743021011350000e-002) (0, -1.30018619820475580000e-002) (1, -8.18443596363067630000e-002) (2, -3.05064041167497630000e-002) (0, 1.21871596202254300000e-002) (1, -1.34103773161768910000e-002) (2, -2.90622636675834660000e-002) (0, -5.93771077692508700000e-002) (1, 3.13918478786945340000e-002) (2, -5.35276643931865690000e-002) (0, -1.55384223908185960000e-002) (1, -8.16105771809816360000e-003) (2, 9.14148241281509400000e-002) (0, 8.01855102181434630000e-002) (1, -6.83023501187562940000e-003) (2, 9.45839434862136840000e-002) (0, -6.48014023900032040000e-002) (1, 7.25940912961959840000e-002) (2, 9.35318991541862490000e-002) (0, -8.00986681133508680000e-003) (1, -5.75197450816631320000e-002) (2, 6.84460476040840150000e-002) (0, -7.92840048670768740000e-002) (1, 9.05652120709419250000e-002) (2, 6.99778273701667790000e-002) (0, -3.87040488421916960000e-002) (1, -1.49255497381091120000e-002) (2, -4.35360185801982880000e-002) (0, -7.65060540288686750000e-003) (1, -9.16387140750885010000e-002) (2, -2.39436384290456770000e-002) (0, -3.05267982184886930000e-002) (1, -3.46503891050815580000e-002) (2, 6.32401406764984130000e-002) (0, -3.33865657448768620000e-002) (1, -1.14182876423001290000e-002) (2, 4.53290492296218870000e-002) (0, 4.27367389202117920000e-002) (1, 5.34120500087738040000e-002) (2, -2.99565866589546200000e-003) (0, -3.27745894901454450000e-003) (1, -7.11014419794082640000e-002) (2, -3.34141068160533910000e-002) (0, -3.80106419324874880000e-002) (1, -8.20051878690719600000e-002) (2, -8.68441089987754820000e-002) (0, -2.98583507537841800000e-002) (1, 8.94132480025291440000e-002) (2, -7.96295404434204100000e-002) (0, -1.01520475000143050000e-002) (1, -1.63323187734931710000e-004) (2, -9.25521627068519590000e-002) (3, 8.58671516180038450000e-002) (4, 1.67099072132259610000e-003) (5, -4.81006428599357600000e-002) (6, -4.62602972984313960000e-002) (7, 3.92119176685810090000e-002) (8, 5.37908188998699190000e-002) (9, 7.15889260172843930000e-002) (10, -8.76877605915069580000e-002) (11, -3.42898666858673100000e-002) (12, -1.21243558824062350000e-002) (13, -4.94271963834762570000e-002) (14, -4.15039770305156710000e-002) (15, -9.76453593466430900000e-004) (16, -6.47915080189704900000e-002) (17, 9.70980003476142880000e-002) (18, -3.72296422719955440000e-002) (19, 2.17676516622304920000e-002) (20, 4.53078038990497590000e-002) (21, -2.97050364315509800000e-002) (22, -7.15680867433547970000e-002) (23, -3.64342960529029370000e-003) (3, 3.93974827602505680000e-003) (4, 4.92334291338920590000e-002) (5, 9.12792161107063290000e-002) (6, 9.05332863330841060000e-002) (7, 4.64624948799610140000e-002) (8, 3.26478183269500730000e-002) (9, 6.41677901148796080000e-002) (10, 4.25914973020553590000e-002) (11, 6.12358450889587400000e-002) (12, -6.68628886342048650000e-002) (13, 6.37517422437667850000e-002) (14, -6.28861933946609500000e-002) (15, -9.23536568880081180000e-002) (16, -3.76793704926967620000e-002) (17, -1.31737403571605680000e-002) (18, -1.18446676060557370000e-002) (19, -6.04716092348098750000e-002) (20, -1.93338710814714430000e-002) (21, -1.38693042099475860000e-002) (22, 3.32759954035282140000e-002) (23, 5.02693168818950650000e-002) (3, -5.92224113643169400000e-003) (4, -9.27576422691345210000e-002) (5, 5.63588738441467290000e-002) (6, 3.00987418740987780000e-002) (7, 7.66060724854469300000e-002) (8, 3.55814956128597260000e-002) (9, -3.84296439588069920000e-002) (10, -1.91068667918443680000e-002) (11, 9.45115648210048680000e-003) (12, -8.05269852280616760000e-002) (13, -6.15072958171367650000e-002) (14, -6.74158036708831790000e-002) (15, 3.33608104847371580000e-003) (16, -8.34252387285232540000e-002) (17, 4.42601405084133150000e-002) (18, 2.42520011961460110000e-002) (19, -1.61360646598041060000e-003) (20, 2.33873799443244930000e-002) (21, -6.13861493766307830000e-002) (22, 3.11853550374507900000e-002) (23, -8.70298817753791810000e-002) (3, 4.55465428531169890000e-002) (4, -3.08931968174874780000e-003) (5, -5.93634806573390960000e-002) (6, -5.79442717134952550000e-002) (7, 6.51857703924179080000e-002) (8, -5.91296926140785220000e-002) (9, -4.66066086664795880000e-003) (10, 3.62393558025360110000e-002) (11, 5.59104457497596740000e-002) (12, 8.31120461225509640000e-003) (13, -9.97712463140487670000e-002) (14, -7.57347121834754940000e-002) (15, 1.04680545628070830000e-002) (16, 1.66384666226804260000e-003) (17, 5.76049042865633960000e-003) (18, -1.88903007656335830000e-002) (19, 3.02478875964879990000e-002) (20, 4.26073744893074040000e-002) (21, -3.07108946144580840000e-002) (22, 6.63805007934570310000e-002) (23, -6.23280033469200130000e-002) (3, -3.65696065127849580000e-002) (4, -9.55925136804580690000e-002) (5, -9.48140844702720640000e-002) (6, 5.79870529472827910000e-002) (7, -2.97784954309463500000e-002) (8, -7.72058144211769100000e-002) (9, 8.75475257635116580000e-002) (10, -4.68213185667991640000e-002) (11, -9.97494012117385860000e-002) (12, 7.26552829146385190000e-002) (13, 7.47723951935768130000e-002) (14, -8.27721357345581050000e-002) (15, -7.99234434962272640000e-002) (16, -1.59658119082450870000e-002) (17, 8.91254618763923650000e-002) (18, 4.51331064105033870000e-002) (19, -2.11181733757257460000e-002) (20, 2.70645208656787870000e-002) (21, 6.72878399491310120000e-002) (22, 8.17731469869613650000e-002) (23, 6.34151175618171690000e-002) (3, 8.53334292769432070000e-002) (4, -3.36385443806648250000e-002) (5, 4.52816896140575410000e-002) (6, -4.52296510338783260000e-002) (7, -4.81756106019020080000e-002) (8, -7.98481795936822890000e-003) (9, 5.30036464333534240000e-002) (10, -1.69090589042752980000e-003) (11, 5.93090690672397610000e-002) (12, 4.21583615243434910000e-002) (13, -7.39930197596549990000e-002) (14, 8.61943289637565610000e-002) (15, -5.64384050667285920000e-002) (16, -6.22640438377857210000e-002) (17, 1.65343601256608960000e-002) (18, 1.60505957901477810000e-002) (19, -4.97132204473018650000e-002) (20, -7.23366290330886840000e-002) (21, 1.97698436677455900000e-002) (22, 7.63144716620445250000e-002) (23, -8.67211073637008670000e-003) (3, 4.69564199447631840000e-002) (4, 2.55734734237194060000e-002) (5, -8.19512903690338130000e-002) (6, 5.32837063074111940000e-002) (7, 7.76342116296291350000e-003) (8, -3.60287427902221680000e-002) (9, 3.93463037908077240000e-002) (10, 7.33803212642669680000e-002) (11, 1.13597614690661430000e-002) (12, -9.41918715834617610000e-002) (13, -8.65626931190490720000e-002) (14, 7.69391506910324100000e-002) (15, -4.92067597806453700000e-002) (16, -3.07124238461256030000e-002) (17, 9.22873988747596740000e-002) (18, -1.10719166696071620000e-002) (19, -2.74685095064342020000e-003) (20, 9.05624553561210630000e-002) (21, -8.17604288458824160000e-002) (22, 3.20030823349952700000e-002) (23, 4.18302640318870540000e-002) (3, 1.64000727236270900000e-002) (4, -2.91602555662393570000e-002) (5, -9.77860540151596070000e-002) (6, -9.33985598385334010000e-003) (7, -2.59654987603425980000e-002) (8, 8.55325907468795780000e-002) (9, 4.45423908531665800000e-002) (10, -4.72426153719425200000e-002) (11, -2.69907377660274510000e-002) (12, 7.08969682455062870000e-002) (13, 2.24911142140626910000e-002) (14, -2.86660883575677870000e-002) (15, -3.28316329978406430000e-003) (16, -4.12165895104408260000e-002) (17, 9.47113856673240660000e-002) (18, -9.17504578828811650000e-002) (19, 4.03755046427249910000e-002) (20, -8.40261280536651610000e-002) (21, 3.50650865584611890000e-003) (22, -9.01343896985054020000e-002) (23, 4.90124225616455080000e-002) (3, 5.15698343515396120000e-002) (4, 7.94524773955345150000e-002) (5, -8.58315676450729370000e-002) (6, -7.82942473888397220000e-002) (7, 4.67480383813381200000e-002) (8, 6.97065591812133790000e-002) (9, -9.55787952989339830000e-003) (10, 9.90648288279771800000e-003) (11, 4.82313260436058040000e-002) (12, -8.61181470099836590000e-004) (13, -1.49644985795021060000e-002) (14, -8.30587968230247500000e-002) (15, -6.07446432113647460000e-002) (16, 6.56821578741073610000e-002) (17, 5.94091266393661500000e-002) (18, -6.27753464505076410000e-003) (19, 3.85103076696395870000e-002) (20, 7.63097256422042850000e-002) (21, 3.45630059018731120000e-003) (22, -5.77212050557136540000e-002) (23, -5.92206977307796480000e-002) (3, 3.48862148821353910000e-002) (4, 9.59353148937225340000e-002) (5, -5.97497895359992980000e-002) (6, -3.37255038321018220000e-002) (7, -1.37006239965558050000e-002) (8, 7.34322285279631610000e-003) (9, 7.48270750045776370000e-002) (10, 5.83261698484420780000e-002) (11, -8.29333066940307620000e-002) (12, -8.82759019732475280000e-002) (13, -8.07829573750495910000e-002) (14, -8.91010835766792300000e-002) (15, 2.74315681308507920000e-002) (16, -9.96313840150833130000e-002) (17, 2.26207692176103590000e-002) (18, -9.28850173950195310000e-002) (19, -2.39371042698621750000e-002) (20, 7.23941028118133540000e-002) (21, -3.75798977911472320000e-002) (22, -9.43119172006845470000e-003) (23, 5.06834965199232100000e-003) (3, -1.50627633556723590000e-002) (4, -8.21381658315658570000e-002) (5, -3.03460489958524700000e-002) (6, -5.01108653843402860000e-002) (7, 4.57047969102859500000e-002) (8, 2.06032581627368930000e-002) (9, 9.12851095199584960000e-002) (10, 4.58282716572284700000e-002) (11, -7.52554982900619510000e-002) (12, 3.78909707069396970000e-002) (13, 1.54676912352442740000e-002) (14, -7.30857104063034060000e-002) (15, -2.60450243949890140000e-002) (16, 4.57899905741214750000e-002) (17, 2.07438860088586810000e-002) (18, -6.29041418433189390000e-002) (19, -7.21810460090637210000e-002) (20, 4.82742264866828920000e-002) (21, -2.72375494241714480000e-002) (22, -5.37706539034843440000e-002) (23, 7.23670795559883120000e-002) (3, -2.60192272253334520000e-003) (4, 8.69711488485336300000e-002) (5, -1.08880251646041870000e-002) (6, -4.18099127709865570000e-002) (7, -2.61100474745035170000e-002) (8, 1.83317102491855620000e-002) (9, -7.62946456670761110000e-002) (10, 4.95462343096733090000e-002) (11, -2.31902934610843660000e-002) (12, -9.60580930113792420000e-002) (13, 2.30854116380214690000e-002) (14, -2.95410472899675370000e-002) (15, 9.19421613216400150000e-002) (16, 9.61831584572792050000e-002) (17, -9.76820886135101320000e-002) (18, -4.21819202601909640000e-002) (19, 8.02105888724327090000e-002) (20, 1.62729471921920780000e-002) (21, 8.59302729368209840000e-002) (22, -2.97570712864398960000e-002) (23, -4.38054800033569340000e-002) (3, 5.56455291807651520000e-002) (4, 2.88094803690910340000e-002) (5, 6.51521384716033940000e-002) (6, -1.54537307098507880000e-002) (7, -4.10066358745098110000e-002) (8, 8.70364010334014890000e-002) (9, 9.90042313933372500000e-002) (10, -7.61871859431266780000e-002) (11, 2.15772856026887890000e-002) (12, 5.39993569254875180000e-002) (13, -4.83274124562740330000e-002) (14, 5.25729916989803310000e-002) (15, -6.89956247806549070000e-002) (16, -3.82163412868976590000e-002) (17, -5.62009401619434360000e-002) (18, 5.84065467119216920000e-002) (19, -1.74153856933116910000e-002) (20, -4.22677919268608090000e-002) (21, 3.34737412631511690000e-002) (22, -3.44990640878677370000e-002) (23, -9.64360013604164120000e-002) (3, -3.91453132033348080000e-002) (4, 7.40704610943794250000e-002) (5, 9.18519571423530580000e-002) (6, 9.49699617922306060000e-003) (7, -9.85433906316757200000e-002) (8, -9.01125669479370120000e-002) (9, 7.96603634953498840000e-002) (10, -5.74822425842285160000e-002) (11, 6.12408779561519620000e-002) (12, -1.16488547064363960000e-003) (13, -3.95308174192905430000e-002) (14, 9.56088602542877200000e-002) (15, -9.77822542190551760000e-002) (16, -6.48766756057739260000e-002) (17, -9.10328626632690430000e-002) (18, -2.64625120908021930000e-002) (19, -9.17459651827812190000e-002) (20, -4.36333268880844120000e-002) (21, 4.46021594107151030000e-002) (22, 2.35816165804862980000e-002) (23, 3.18256281316280360000e-002) (3, 1.81984659284353260000e-002) (4, -6.89369589090347290000e-002) (5, -5.10805509984493260000e-002) (6, 7.51350149512290950000e-002) (7, -8.10335129499435420000e-002) (8, -6.01594783365726470000e-002) (9, 5.68290986120700840000e-002) (10, -4.40314486622810360000e-002) (11, 4.45738323032855990000e-002) (12, -7.85062462091445920000e-002) (13, 5.78659027814865110000e-002) (14, 5.34331128001213070000e-002) (15, 3.28014865517616270000e-002) (16, -4.77349013090133670000e-002) (17, 5.59756048023700710000e-002) (18, -4.28235419094562530000e-002) (19, -7.79260247945785520000e-002) (20, 7.17229302972555160000e-003) (21, -4.47455421090126040000e-002) (22, -3.44956032931804660000e-002) (23, 7.71900638937950130000e-002) (24, -8.53464603424072270000e-002) (25, 2.13587228208780290000e-002) (26, -6.27896115183830260000e-002) (27, 5.46272769570350650000e-002) (28, 5.42940311133861540000e-002) (29, 1.36070000007748600000e-002) (30, 3.96435335278511050000e-003) (31, -5.78142851591110230000e-002) (32, -6.61710202693939210000e-002) (33, 5.30463270843029020000e-002) (34, -8.45345482230186460000e-002) (35, 4.43388074636459350000e-002) (36, -4.00140248239040370000e-002) (37, 4.59822081029415130000e-003) (38, -8.23739916086196900000e-003) (39, 3.05158155970275400000e-003) (24, 6.50794878602027890000e-002) (25, -4.63721863925457000000e-002) (26, 2.74494849145412450000e-002) (27, 9.29580628871917720000e-003) (28, -8.32201912999153140000e-002) (29, -2.70595657639205460000e-003) (30, 7.00288712978363040000e-002) (31, -8.41692555695772170000e-003) (32, 9.09463837742805480000e-002) (33, 3.90146523714065550000e-002) (34, -9.25428718328475950000e-002) (35, -7.62331560254096980000e-002) (36, -6.40383362770080570000e-002) (37, 9.43306535482406620000e-002) (38, -7.62601569294929500000e-002) (39, 1.36675741523504260000e-002) 
