FANN_FLO_2.1
num_layers=4
learning_rate=0.001000
connection_rate=1.000000
network_type=0
learning_momentum=0.000000
training_algorithm=2
train_error_function=1
train_stop_function=0
cascade_output_change_fraction=0.010000
quickprop_decay=-0.000100
quickprop_mu=1.750000
rprop_increase_factor=1.200000
rprop_decrease_factor=0.500000
rprop_delta_min=0.000000
rprop_delta_max=50.000000
rprop_delta_zero=0.100000
cascade_output_stagnation_epochs=12
cascade_candidate_change_fraction=0.010000
cascade_candidate_stagnation_epochs=12
cascade_max_out_epochs=150
cascade_min_out_epochs=50
cascade_max_cand_epochs=150
cascade_min_cand_epochs=50
cascade_num_candidate_groups=2
bit_fail_limit=3.49999994039535520000e-001
cascade_candidate_limit=1.00000000000000000000e+003
cascade_weight_multiplier=4.00000005960464480000e-001
cascade_activation_functions_count=10
cascade_activation_functions=3 5 7 8 10 11 14 15 16 17 
cascade_activation_steepnesses_count=4
cascade_activation_steepnesses=2.50000000000000000000e-001 5.00000000000000000000e-001 7.50000000000000000000e-001 1.00000000000000000000e+000 
layer_sizes=2 33 33 3 
scale_included=0
neurons (num_inputs, activation_function, activation_steepness)=(0, 0, 0.00000000000000000000e+000) (0, 0, 0.00000000000000000000e+000) (2, 5, 5.00000000000000000000e-001) (2, 5, 5.00000000000000000000e-001) (2, 5, 5.00000000000000000000e-001) (2, 5, 5.00000000000000000000e-001) (2, 5, 5.00000000000000000000e-001) (2, 5, 5.00000000000000000000e-001) (2, 5, 5.00000000000000000000e-001) (2, 5, 5.00000000000000000000e-001) (2, 5, 5.00000000000000000000e-001) (2, 5, 5.00000000000000000000e-001) (2, 5, 5.00000000000000000000e-001) (2, 5, 5.00000000000000000000e-001) (2, 5, 5.00000000000000000000e-001) (2, 5, 5.00000000000000000000e-001) (2, 5, 5.00000000000000000000e-001) (2, 5, 5.00000000000000000000e-001) (2, 5, 5.00000000000000000000e-001) (2, 5, 5.00000000000000000000e-001) (2, 5, 5.00000000000000000000e-001) (2, 5, 5.00000000000000000000e-001) (2, 5, 5.00000000000000000000e-001) (2, 5, 5.00000000000000000000e-001) (2, 5, 5.00000000000000000000e-001) (2, 5, 5.00000000000000000000e-001) (2, 5, 5.00000000000000000000e-001) (2, 5, 5.00000000000000000000e-001) (2, 5, 5.00000000000000000000e-001) (2, 5, 5.00000000000000000000e-001) (2, 5, 5.00000000000000000000e-001) (2, 5, 5.00000000000000000000e-001) (2, 5, 5.00000000000000000000e-001) (2, 5, 5.00000000000000000000e-001) (0, 5, 0.00000000000000000000e+000) (33, 5, 5.00000000000000000000e-001) (33, 5, 5.00000000000000000000e-001) (33, 5, 5.00000000000000000000e-001) (33, 5, 5.00000000000000000000e-001) (33, 5, 5.00000000000000000000e-001) (33, 5, 5.00000000000000000000e-001) (33, 5, 5.00000000000000000000e-001) (33, 5, 5.00000000000000000000e-001) (33, 5, 5.00000000000000000000e-001) (33, 5, 5.00000000000000000000e-001) (33, 5, 5.00000000000000000000e-001) (33, 5, 5.00000000000000000000e-001) (33, 5, 5.00000000000000000000e-001) (33, 5, 5.00000000000000000000e-001) (33, 5, 5.00000000000000000000e-001) (33, 5, 5.00000000000000000000e-001) (33, 5, 5.00000000000000000000e-001) (33, 5, 5.00000000000000000000e-001) (33, 5, 5.00000000000000000000e-001) (33, 5, 5.00000000000000000000e-001) (33, 5, 5.00000000000000000000e-001) (33, 5, 5.00000000000000000000e-001) (33, 5, 5.00000000000000000000e-001) (33, 5, 5.00000000000000000000e-001) (33, 5, 5.00000000000000000000e-001) (33, 5, 5.00000000000000000000e-001) (33, 5, 5.00000000000000000000e-001) (33, 5, 5.00000000000000000000e-001) (33, 5, 5.00000000000000000000e-001) (33, 5, 5.00000000000000000000e-001) (33, 5, 5.00000000000000000000e-001) (33, 5, 5.00000000000000000000e-001) (0, 5, 0.00000000000000000000e+000) (33, 3, 5.00000000000000000000e-001) (33, 3, 5.00000000000000000000e-001) (0, 3, 0.00000000000000000000e+000) 
connections (connected_to_neuron, weight)=(0, -2.70921885967254640000e-002) (1, 5.69359324872493740000e-002) (0, 4.32154797017574310000e-002) (1, -5.37706203758716580000e-002) (0, 8.53906664997339250000e-003) (1, -6.15224204957485200000e-002) (0, -3.47964209504425530000e-003) (1, -7.14392075315117840000e-003) (0, 6.60832300782203670000e-002) (1, -8.79382423590868710000e-004) (0, 3.57914865016937260000e-002) (1, -7.60575085878372190000e-002) (0, 3.45743671059608460000e-002) (1, -9.41963493824005130000e-002) (0, 2.35178857110440730000e-004) (1, -3.58574539422988890000e-002) (0, 9.66783836483955380000e-002) (1, 1.44352912902832030000e-002) (0, 5.85427843034267430000e-002) (1, 5.97565695643424990000e-002) (0, -3.48355472087860110000e-002) (1, 4.82798442244529720000e-002) (0, -7.53049030900001530000e-002) (1, 4.69474941492080690000e-002) (0, 7.28817060589790340000e-002) (1, -2.81104333698749540000e-002) (0, 5.06272651255130770000e-002) (1, -6.57364651560783390000e-002) (0, 7.71936774253845210000e-002) (1, 8.79895612597465520000e-002) (0, -3.85089814662933350000e-002) (1, 4.32088784873485570000e-002) (0, -7.44469165802001950000e-002) (1, 8.85930433869361880000e-002) (0, -8.04518163204193120000e-002) (1, -6.31109699606895450000e-002) (0, 3.62069457769393920000e-002) (1, -9.46359485387802120000e-002) (0, 3.06382328271865840000e-002) (1, 6.52663260698318480000e-002) (0, 6.82326257228851320000e-002) (1, 5.87121099233627320000e-002) (0, -3.83181869983673100000e-002) (1, 3.39562073349952700000e-002) (0, 1.29042910411953930000e-002) (1, -1.13558704033494000000e-002) (0, 6.38430193066596980000e-002) (1, -9.26694199442863460000e-002) (0, 8.23049321770668030000e-002) (1, 2.10404619574546810000e-002) (0, -1.22178075835108760000e-002) (1, -5.05323819816112520000e-002) (0, -6.88450932502746580000e-002) (1, 9.51639562845230100000e-002) (0, 1.39226373285055160000e-002) (1, 6.34749829769134520000e-002) (0, -9.07530486583709720000e-002) (1, -8.89045894145965580000e-002) (0, 3.27740842476487160000e-003) (1, -2.78428625315427780000e-002) (0, 3.45864184200763700000e-002) (1, -5.06544038653373720000e-002) (0, -3.29609401524066930000e-002) (1, -7.95890614390373230000e-002) (2, 3.94289521500468250000e-003) (3, 9.76354107260704040000e-002) (4, -2.00659204274415970000e-002) (5, -1.87858252320438620000e-003) (6, -2.15217731893062590000e-002) (7, -5.66121898591518400000e-002) (8, 4.20325063169002530000e-003) (9, 3.25392559170722960000e-002) (10, -2.45289038866758350000e-002) (11, -1.46032394841313360000e-002) (12, -1.68325025588274000000e-002) (13, -1.60050969570875170000e-002) (14, 6.08777105808258060000e-002) (15, 9.80395749211311340000e-002) (16, -3.27449552714824680000e-002) (17, -2.97453589737415310000e-002) (18, -2.47716549783945080000e-002) (19, 8.10622796416282650000e-002) (20, -7.06736114807426930000e-004) (21, 3.60492542386054990000e-002) (22, -4.50730435550212860000e-002) (23, 1.69714502990245820000e-002) (24, -3.43603640794754030000e-002) (25, 3.59797589480876920000e-002) (26, 4.93408832699060440000e-003) (27, 7.26464390754699710000e-002) (28, -9.43581387400627140000e-002) (29, -8.19997191429138180000e-002) (30, -1.75536200404167180000e-002) (31, 8.18796977400779720000e-002) (32, 3.31819965504109860000e-003) (33, -2.11631450802087780000e-002) (34, -5.00969365239143370000e-002) (2, -7.17929750680923460000e-002) (3, -4.47835363447666170000e-002) (4, -1.18741812184453010000e-002) (5, -8.76676812767982480000e-002) (6, 6.84367716312408450000e-002) (7, -7.45309889316558840000e-002) (8, -5.59461526572704320000e-002) (9, -8.44316557049751280000e-002) (10, 2.73060668259859090000e-002) (11, -6.92987022921442990000e-003) (12, -4.03860360383987430000e-002) (13, 7.30949863791465760000e-002) (14, -1.23463952913880350000e-002) (15, 9.70764830708503720000e-002) (16, 4.50720675289630890000e-002) (17, -4.41726744174957280000e-002) (18, -8.28475207090377810000e-002) (19, -8.86162929236888890000e-003) (20, 8.21831375360488890000e-002) (21, 2.22202669829130170000e-003) (22, -4.73491363227367400000e-002) (23, 2.55906535312533380000e-003) (24, -3.97413112223148350000e-002) (25, 3.07725295424461360000e-002) (26, 8.62693116068840030000e-002) (27, -8.55791047215461730000e-002) (28, -4.17428128421306610000e-002) (29, 1.51610830798745160000e-002) (30, 6.88094347715377810000e-002) (31, -2.93944049626588820000e-002) (32, -4.18614633381366730000e-002) (33, -3.32107879221439360000e-002) (34, -2.05971915274858470000e-002) (2, -9.20214131474494930000e-002) (3, -2.94368006289005280000e-002) (4, 9.84311625361442570000e-002) (5, -4.77758571505546570000e-002) (6, 2.77395546436309810000e-002) (7, -5.66394925117492680000e-002) (8, -9.58989262580871580000e-002) (9, -3.20194405503571030000e-003) (10, 9.46758873760700230000e-003) (11, -5.03026098012924190000e-002) (12, -6.98559209704399110000e-002) (13, 6.93745613098144530000e-002) (14, 7.20691829919815060000e-002) (15, -7.13342130184173580000e-002) (16, 8.07797312736511230000e-002) (17, -9.72739653661847110000e-005) (18, -9.45903733372688290000e-003) (19, 5.59046752750873570000e-002) (20, 2.43151187896728520000e-002) (21, -9.64887887239456180000e-002) (22, -2.61662732809782030000e-002) (23, -6.54182806611061100000e-002) (24, -5.74484802782535550000e-002) (25, -5.96121698617935180000e-002) (26, -8.57174992561340330000e-002) (27, 8.58525633811950680000e-002) (28, 2.13181352592073380000e-004) (29, -5.13571798801422120000e-002) (30, 3.64020536653697490000e-003) (31, -8.99959057569503780000e-002) (32, -3.12341339886188510000e-002) (33, -1.05470931157469750000e-002) (34, 2.67653074115514760000e-002) (2, 1.50762712582945820000e-002) (3, -2.31463704258203510000e-002) (4, -7.78124257922172550000e-002) (5, -2.27135382592678070000e-002) (6, 8.15476775169372560000e-002) (7, 3.47230546176433560000e-002) (8, 5.89662715792655940000e-002) (9, -1.50941368192434310000e-002) (10, -4.74226102232933040000e-002) (11, 9.37878936529159550000e-002) (12, 9.17941983789205550000e-003) (13, -5.92530407011508940000e-002) (14, -7.50951617956161500000e-002) (15, 9.18873623013496400000e-002) (16, -3.87581586837768550000e-002) (17, -4.37023974955081940000e-002) (18, -7.22546204924583440000e-002) (19, -4.80090379714965820000e-002) (20, -7.37052336335182190000e-002) (21, -3.68822775781154630000e-002) (22, -3.61617393791675570000e-002) (23, -2.56261806935071950000e-002) (24, -2.05116141587495800000e-002) (25, -7.73297622799873350000e-002) (26, -9.91708561778068540000e-002) (27, -1.03743840008974080000e-002) (28, 1.72196477651596070000e-002) (29, 6.52418956160545350000e-002) (30, -9.94815304875373840000e-003) (31, -6.89275562763214110000e-002) (32, 8.04118514060974120000e-002) (33, 4.93200495839118960000e-002) (34, 4.21292427927255630000e-003) (2, -2.97547020018100740000e-002) (3, -3.67901287972927090000e-002) (4, 7.08966255187988280000e-002) (5, -8.33131521940231320000e-002) (6, 8.38887393474578860000e-002) (7, -6.26460537314414980000e-002) (8, 7.40194926038384440000e-004) (9, -3.11381891369819640000e-002) (10, 4.85368911176919940000e-003) (11, -6.93760737776756290000e-002) (12, -1.72557234764099120000e-002) (13, 4.32963036000728610000e-002) (14, 8.72113555669784550000e-003) (15, -1.38827888295054440000e-002) (16, -2.14465018361806870000e-002) (17, 7.81910270452499390000e-002) (18, 9.91899594664573670000e-002) (19, -6.63682818412780760000e-002) (20, 8.09943452477455140000e-002) (21, -4.15675602853298190000e-002) (22, 4.25079949200153350000e-002) (23, -9.57310423254966740000e-002) (24, 8.72021466493606570000e-002) (25, 8.17413348704576490000e-003) (26, 1.66671387851238250000e-002) (27, 2.48303860425949100000e-002) (28, -4.75314147770404820000e-002) (29, 6.26826584339141850000e-002) (30, -8.38648229837417600000e-002) (31, -8.66895243525505070000e-002) (32, 1.91945489495992660000e-002) (33, -1.32195928017608820000e-004) (34, 8.08721557259559630000e-002) (2, -8.44325050711631770000e-002) (3, 3.74167449772357940000e-002) (4, -8.66044089198112490000e-002) (5, -9.12623256444931030000e-002) (6, -8.98094102740287780000e-002) (7, 7.11199119687080380000e-002) (8, 8.43868684023618700000e-003) (9, 8.87901261448860170000e-002) (10, 1.39950877055525780000e-002) (11, -9.06081274151802060000e-002) (12, -9.36777389142662290000e-004) (13, -6.54438436031341550000e-002) (14, 1.91106721758842470000e-002) (15, 7.98329487442970280000e-002) (16, 9.22238305211067200000e-002) (17, -4.22053188085556030000e-002) (18, 9.26878228783607480000e-002) (19, 7.33128413558006290000e-002) (20, -6.29359111189842220000e-002) (21, -5.44125437736511230000e-002) (22, -2.88249738514423370000e-002) (23, 8.71200487017631530000e-002) (24, 2.09964122623205180000e-002) (25, 9.56722274422645570000e-002) (26, -2.02008485794067380000e-002) (27, 9.18040350079536440000e-002) (28, 9.56059992313385010000e-002) (29, 6.56920373439788820000e-002) (30, -9.14747267961502080000e-002) (31, -7.26699754595756530000e-002) (32, -8.89179706573486330000e-002) (33, 9.41965207457542420000e-002) (34, 7.49562680721282960000e-002) (2, 3.65625694394111630000e-002) (3, 4.20297048985958100000e-002) (4, 4.71752844750881200000e-002) (5, 1.24621661379933360000e-002) (6, -5.94815537333488460000e-002) (7, 8.61361399292945860000e-002) (8, -5.09981811046600340000e-002) (9, 9.44968536496162410000e-002) (10, 6.34118765592575070000e-002) (11, 1.47958751767873760000e-002) (12, 5.24089373648166660000e-002) (13, -4.14732992649078370000e-002) (14, 1.17648402228951450000e-002) (15, -3.81333790719509120000e-002) (16, 3.56433726847171780000e-003) (17, 2.95431539416313170000e-002) (18, -8.51921066641807560000e-002) (19, 2.30576228350400920000e-002) (20, -3.80882620811462400000e-002) (21, -6.32154615595936780000e-003) (22, -6.72671049833297730000e-002) (23, -4.33058440685272220000e-002) (24, 2.12468672543764110000e-002) (25, -5.39513155817985530000e-002) (26, -5.84380254149436950000e-002) (27, -3.54382880032062530000e-002) (28, 5.23627363145351410000e-003) (29, 4.29655723273754120000e-002) (30, 9.25695821642875670000e-002) (31, 2.60104425251483920000e-002) (32, -2.49541588127613070000e-002) (33, -2.76404526084661480000e-003) (34, 5.54877184331417080000e-002) (2, -2.05226019024848940000e-002) (3, -8.11726376414299010000e-002) (4, 3.55824418365955350000e-002) (5, 8.60186368227005000000e-002) (6, 2.32183653861284260000e-002) (7, -2.81827449798583980000e-002) (8, 6.42748177051544190000e-002) (9, 1.96047760546207430000e-002) (10, 1.93765256553888320000e-002) (11, 2.71539762616157530000e-002) (12, 5.92636875808238980000e-002) (13, 5.92276379466056820000e-002) (14, 8.48098248243331910000e-002) (15, 9.39608365297317500000e-002) (16, 2.45286896824836730000e-002) (17, 1.21264476329088210000e-002) (18, 4.51949015259742740000e-002) (19, 5.19063100218772890000e-002) (20, -5.82170374691486360000e-002) (21, -3.31987291574478150000e-002) (22, 3.95176298916339870000e-002) (23, -2.96275764703750610000e-002) (24, 4.37028966844081880000e-002) (25, -7.79159273952245710000e-003) (26, 5.04556596279144290000e-002) (27, 3.98883409798145290000e-002) (28, 5.06471954286098480000e-002) (29, -3.69192734360694890000e-002) (30, 4.57760728895664220000e-002) (31, 7.07912594079971310000e-002) (32, 8.84170010685920720000e-002) (33, -7.12517648935317990000e-002) (34, -9.62746962904930110000e-002) (2, 2.44167391210794450000e-002) (3, -7.31483548879623410000e-002) (4, -8.55761840939521790000e-002) (5, 4.75368835031986240000e-002) (6, -7.56246149539947510000e-002) (7, 7.14123547077178960000e-002) (8, -1.80343240499496460000e-002) (9, 4.69567179679870610000e-002) (10, 5.92024065554142000000e-003) (11, -6.62509128451347350000e-002) (12, 3.69025729596614840000e-002) (13, 6.49351775646209720000e-002) (14, 6.50973916053771970000e-002) (15, 1.62915661931037900000e-002) (16, 3.73934325762093070000e-003) (17, -5.88713251054286960000e-002) (18, 5.61942495405673980000e-002) (19, -6.03006035089492800000e-002) (20, 6.21414445340633390000e-002) (21, -9.88906621932983400000e-002) (22, -9.89064127206802370000e-002) (23, 4.89348471164703370000e-002) (24, -3.69400419294834140000e-002) (25, 4.21869345009326930000e-002) (26, -4.36739698052406310000e-002) (27, 2.11908388882875440000e-002) (28, -7.85066783428192140000e-002) (29, 7.67626240849494930000e-002) (30, -9.08538624644279480000e-002) (31, 1.53890335932374000000e-002) (32, 9.72696915268898010000e-002) (33, -8.04556831717491150000e-002) (34, -5.52282147109508510000e-002) (2, -1.01495366543531420000e-002) (3, -3.53520214557647710000e-002) (4, -7.21818907186388970000e-003) (5, -4.49852272868156430000e-002) (6, -7.93348252773284910000e-002) (7, -1.28765366971492770000e-002) (8, 3.83582711219787600000e-002) (9, 1.46830575540661810000e-002) (10, -5.07105998694896700000e-002) (11, 9.18959453701972960000e-002) (12, -8.67542624473571780000e-002) (13, -6.43445253372192380000e-002) (14, -2.95037846080958840000e-003) (15, -4.16589528322219850000e-002) (16, -4.70190569758415220000e-002) (17, 9.89062786102294920000e-002) (18, 7.03819021582603450000e-002) (19, 2.21588555723428730000e-002) (20, -2.22256164997816090000e-002) (21, -4.79867048561573030000e-002) (22, -4.98941587284207340000e-003) (23, 6.67668040841817860000e-003) (24, -6.75579383969306950000e-002) (25, 2.26010549813508990000e-002) (26, 3.64087143680080770000e-004) (27, 7.97600522637367250000e-002) (28, 3.32495197653770450000e-002) (29, 2.29287092224694790000e-004) (30, 9.96480807662010190000e-002) (31, 5.02409152686595920000e-002) (32, 7.00460746884346010000e-003) (33, -5.18474616110324860000e-002) (34, 8.33776071667671200000e-002) (2, -9.37345921993255620000e-002) (3, 9.89763960242271420000e-002) (4, -5.94222126528620720000e-003) (5, 7.26489350199699400000e-002) (6, -9.73999127745628360000e-002) (7, 4.06280234456062320000e-002) (8, -3.67754027247428890000e-002) (9, 2.98084244132041930000e-002) (10, -9.88108515739440920000e-002) (11, 4.58082035183906560000e-002) (12, -9.31906998157501220000e-002) (13, 1.68765168637037280000e-002) (14, -2.37180758267641070000e-002) (15, 2.89941933006048200000e-002) (16, -1.70888714492321010000e-002) (17, -2.80254837125539780000e-002) (18, -1.65795423090457920000e-002) (19, -8.72171819210052490000e-002) (20, 4.41757328808307650000e-002) (21, -3.01651544868946080000e-002) (22, -9.36155840754508970000e-002) (23, 2.21820045262575150000e-002) (24, -1.22592533007264140000e-002) (25, -9.75292548537254330000e-003) (26, 8.04454237222671510000e-002) (27, 3.55822630226612090000e-002) (28, 3.39907631278038020000e-002) (29, -8.06316509842872620000e-002) (30, -9.58089306950569150000e-002) (31, 7.28110298514366150000e-002) (32, -2.59976610541343690000e-002) (33, 2.92156096547842030000e-002) (34, -6.52263313531875610000e-002) (2, 1.23434811830520630000e-002) (3, -4.82541210949420930000e-002) (4, 4.46469485759735110000e-002) (5, 2.77903974056243900000e-002) (6, 7.05883139744400980000e-003) (7, 4.04941774904727940000e-002) (8, 5.58358989655971530000e-002) (9, 7.46932849287986760000e-002) (10, 8.62521678209304810000e-002) (11, -4.06321473419666290000e-002) (12, -1.75004117190837860000e-002) (13, -1.03849070146679880000e-002) (14, 2.41429097950458530000e-002) (15, -5.55341131985187530000e-003) (16, 3.86174246668815610000e-002) (17, 1.27497855573892590000e-002) (18, -4.48107309639453890000e-002) (19, 7.81991705298423770000e-002) (20, -8.02225172519683840000e-002) (21, 7.71261304616928100000e-002) (22, -8.19514319300651550000e-002) (23, 8.27034488320350650000e-002) (24, -5.08546568453311920000e-002) (25, 9.90351811051368710000e-002) (26, 8.55151284486055370000e-003) (27, 8.31050947308540340000e-002) (28, -9.10122990608215330000e-002) (29, 5.24368230253458020000e-003) (30, -7.49319791793823240000e-002) (31, 4.95510809123516080000e-002) (32, -6.65279617533087730000e-003) (33, 1.68066401965916160000e-003) (34, -1.34094515815377240000e-002) (2, -7.91867971420288090000e-002) (3, 9.90896392613649370000e-003) (4, 9.25175026059150700000e-002) (5, -2.43512145243585110000e-003) (6, -8.16874355077743530000e-002) (7, 6.41532391309738160000e-002) (8, -4.77651916444301610000e-002) (9, 6.28503412008285520000e-002) (10, 5.54023347795009610000e-002) (11, 5.57238161563873290000e-002) (12, -3.87717708945274350000e-002) (13, 9.98706594109535220000e-002) (14, 9.88675579428672790000e-002) (15, 2.06327140331268310000e-002) (16, -9.23839285969734190000e-002) (17, -3.84913571178913120000e-002) (18, -6.19971975684165950000e-002) (19, 4.56340424716472630000e-002) (20, -3.61094810068607330000e-002) (21, -6.78125247359275820000e-002) (22, 1.89562831073999400000e-002) (23, -7.75968097150325780000e-003) (24, 4.08894419670104980000e-002) (25, 8.50529149174690250000e-002) (26, 3.71931055269669740000e-005) (27, -4.14202101528644560000e-002) (28, -6.70214891433715820000e-002) (29, 7.84389227628707890000e-002) (30, 8.25337842106819150000e-002) (31, -9.26316902041435240000e-002) (32, -4.86572310328483580000e-002) (33, 7.80713856220245360000e-002) (34, -2.78962347656488420000e-002) (2, -1.82326184585690500000e-003) (3, 5.77497594058513640000e-002) (4, -2.23943311721086500000e-002) (5, -5.09671717882156370000e-002) (6, 4.72871065139770510000e-002) (7, 4.84085548669099810000e-003) (8, 1.08933886513113980000e-002) (9, -6.07056356966495510000e-002) (10, 5.57829476892948150000e-002) (11, 8.55571404099464420000e-002) (12, -7.62852802872657780000e-002) (13, -5.52898310124874110000e-002) (14, 2.51305010169744490000e-002) (15, -2.16408772394061090000e-003) (16, -6.18718750774860380000e-003) (17, 8.74046832323074340000e-002) (18, 5.14290435239672660000e-003) (19, 4.35186289250850680000e-002) (20, 8.37656557559967040000e-002) (21, -9.68048628419637680000e-003) (22, -9.41241253167390820000e-003) (23, -5.64494989812374110000e-002) (24, 3.49498493596911430000e-003) (25, 1.92853566259145740000e-002) (26, 1.49326827377080920000e-002) (27, 9.67438742518424990000e-002) (28, -4.61424179375171660000e-002) (29, 6.07451945543289180000e-002) (30, 5.54120801389217380000e-002) (31, -1.50838345289230350000e-002) (32, -4.63261343538761140000e-002) (33, -3.24035696685314180000e-002) (34, 1.05177402496337890000e-001) (2, -8.28254595398902890000e-002) (3, 2.02539693564176560000e-002) (4, -3.39133031666278840000e-002) (5, -4.55581955611705780000e-002) (6, 3.67646366357803340000e-002) (7, -2.64809653162956240000e-002) (8, -6.39195218682289120000e-002) (9, 5.67122176289558410000e-002) (10, -1.29030309617519380000e-002) (11, 6.87689185142517090000e-002) (12, 6.00566938519477840000e-002) (13, -8.44268798828125000000e-002) (14, -5.56018128991127010000e-002) (15, -8.11503529548645020000e-002) (16, -2.87107359617948530000e-002) (17, -8.85098725557327270000e-002) (18, 2.55462061613798140000e-002) (19, 9.89705473184585570000e-002) (20, 6.94249421358108520000e-002) (21, -2.95244809240102770000e-002) (22, -2.50188354402780530000e-002) (23, -9.11432281136512760000e-002) (24, -4.24274392426013950000e-002) (25, 8.08513239026069640000e-002) (26, -6.16367608308792110000e-002) (27, 7.64046981930732730000e-002) (28, 5.35054318606853490000e-002) (29, 8.03829878568649290000e-002) (30, 2.90560219436883930000e-002) (31, 8.51202234625816350000e-002) (32, -6.32087364792823790000e-002) (33, 4.13805097341537480000e-002) (34, 9.55110937356948850000e-002) (2, -9.68409702181816100000e-002) (3, 8.42882841825485230000e-002) (4, 9.06959772109985350000e-002) (5, -1.93633567541837690000e-002) (6, -2.78741237707436080000e-003) (7, -4.84628491103649140000e-002) (8, -1.01830745115876200000e-002) (9, -7.67794921994209290000e-002) (10, 1.54301961883902550000e-002) (11, 5.60154058039188390000e-002) (12, -8.88499766588211060000e-002) (13, -6.15049004554748540000e-002) (14, 1.24980425462126730000e-002) (15, 1.63026880472898480000e-002) (16, -6.37632608413696290000e-002) (17, 4.83979918062686920000e-002) (18, 8.59112478792667390000e-003) (19, 1.30253070965409280000e-002) (20, -8.42529088258743290000e-002) (21, 3.52943800389766690000e-002) (22, -4.78630475699901580000e-002) (23, 1.06631806120276450000e-002) (24, 1.59686952829360960000e-002) (25, -7.12089687585830690000e-002) (26, 8.09256732463836670000e-002) (27, 1.21186664327979090000e-002) (28, -2.15502437204122540000e-002) (29, -5.85996806621551510000e-002) (30, -5.11815138161182400000e-002) (31, 9.81985703110694890000e-002) (32, 3.72261554002761840000e-002) (33, 4.24654558300971980000e-002) (34, -8.19702371954917910000e-002) (2, -9.94886457920074460000e-002) (3, -8.18368196487426760000e-002) (4, -9.79597344994544980000e-002) (5, -6.34791180491447450000e-002) (6, 7.42683038115501400000e-002) (7, 4.30708527565002440000e-002) (8, -1.82304847985506060000e-002) (9, -5.03249987959861760000e-002) (10, 2.35883723944425580000e-002) (11, -1.25131234526634220000e-002) (12, -9.68496650457382200000e-002) (13, -4.46904860436916350000e-002) (14, 3.13157364726066590000e-002) (15, -9.56703871488571170000e-002) (16, 8.34114030003547670000e-002) (17, -5.03960885107517240000e-002) (18, 5.81669211387634280000e-002) (19, -3.34343202412128450000e-002) (20, -4.55297715961933140000e-002) (21, 9.04942005872726440000e-002) (22, -4.27161939442157750000e-002) (23, -6.43160715699195860000e-002) (24, -2.68485397100448610000e-002) (25, -9.43420529365539550000e-002) (26, -3.06507702916860580000e-002) (27, -9.73573103547096250000e-002) (28, -9.00054723024368290000e-002) (29, 3.00569906830787660000e-002) (30, 5.02768829464912410000e-002) (31, -6.33492097258567810000e-002) (32, 5.05974367260932920000e-002) (33, 3.34731675684452060000e-002) (34, 1.00827179849147800000e-001) (2, 5.43359480798244480000e-002) (3, -1.74611271359026430000e-003) (4, 5.20072914659976960000e-002) (5, -2.82581541687250140000e-002) (6, 5.97487539052963260000e-002) (7, 8.26349779963493350000e-002) (8, -3.54993268847465520000e-002) (9, -6.48836493492126460000e-002) (10, 7.55216255784034730000e-002) (11, 9.27115529775619510000e-002) (12, 3.37969809770584110000e-002) (13, 4.36168164014816280000e-003) (14, 9.97869223356246950000e-002) (15, -6.88401162624359130000e-002) (16, -3.33854891359806060000e-002) (17, -7.83483535051345830000e-002) (18, 1.92752517759799960000e-002) (19, 9.65557843446731570000e-002) (20, 8.69293361902236940000e-002) (21, -4.43257801234722140000e-002) (22, 1.12786348909139630000e-002) (23, 5.14386175200343130000e-003) (24, -2.82223895192146300000e-003) (25, 3.69728095829486850000e-002) (26, -3.52338068187236790000e-002) (27, 5.49024641513824460000e-002) (28, 1.69471632689237590000e-002) (29, -2.55644097924232480000e-002) (30, 5.05922697484493260000e-002) (31, 3.53335998952388760000e-002) (32, -2.96728946268558500000e-002) (33, 1.52132734656333920000e-002) (34, 7.02896937727928160000e-002) (2, -3.62204364500939850000e-003) (3, 9.80232935398817060000e-003) (4, 9.46154221892356870000e-002) (5, -6.04979246854782100000e-002) (6, -2.49805338680744170000e-002) (7, 5.75501769781112670000e-002) (8, 4.49304357171058650000e-002) (9, 6.49524405598640440000e-002) (10, 9.34280008077621460000e-002) (11, -5.84654062986373900000e-002) (12, -9.36683639883995060000e-002) (13, 6.10831640660762790000e-002) (14, 2.64255516231060030000e-002) (15, 1.03062819689512250000e-002) (16, 3.77942109480500220000e-003) (17, -7.49361142516136170000e-002) (18, -4.66666258871555330000e-002) (19, -8.81236642599105830000e-002) (20, -5.20468279719352720000e-002) (21, 7.16436430811882020000e-002) (22, -8.78573954105377200000e-003) (23, -9.34458598494529720000e-002) (24, 1.05691105127334590000e-002) (25, 2.99490783363580700000e-002) (26, 2.76289433240890500000e-002) (27, 7.19266058877110480000e-003) (28, 3.03617846220731740000e-002) (29, -5.47259077429771420000e-002) (30, -5.48521652817726140000e-002) (31, -7.71327912807464600000e-002) (32, -8.76464098691940310000e-002) (33, -9.49519425630569460000e-002) (34, -3.95064987242221830000e-002) (2, 8.35513249039649960000e-002) (3, 7.45898559689521790000e-002) (4, 3.86749804019927980000e-002) (5, 4.14356514811515810000e-002) (6, -6.53531104326248170000e-002) (7, 8.90260711312294010000e-002) (8, -2.85357702523469920000e-004) (9, 2.18389295041561130000e-002) (10, -2.28262934833765030000e-002) (11, 8.79068076610565190000e-002) (12, -1.72818470746278760000e-002) (13, 3.37409488856792450000e-002) (14, -6.31389617919921880000e-002) (15, -1.55666889622807500000e-002) (16, 9.17430073022842410000e-002) (17, -5.05060479044914250000e-002) (18, -5.85687831044197080000e-002) (19, 5.65677732229232790000e-002) (20, 1.85588520253077150000e-004) (21, -7.18781054019927980000e-002) (22, 9.12161022424697880000e-002) (23, -3.40692475438117980000e-002) (24, -7.85162821412086490000e-002) (25, 1.08401207253336910000e-002) (26, -9.71444621682167050000e-002) (27, -4.00928631424903870000e-002) (28, 4.43666577339172360000e-002) (29, -3.94866466522216800000e-002) (30, 2.19619879499077800000e-003) (31, -9.53981205821037290000e-002) (32, 3.69156636297702790000e-002) (33, 6.60661756992340090000e-002) (34, -5.53581789135932920000e-002) (2, -7.62783214449882510000e-002) (3, -3.09339892119169240000e-002) (4, 9.42306444048881530000e-002) (5, 6.91634323447942730000e-003) (6, 8.28253999352455140000e-002) (7, 7.95747116208076480000e-002) (8, -7.45954588055610660000e-002) (9, 4.79184873402118680000e-002) (10, 8.42397511005401610000e-002) (11, -8.26364383101463320000e-002) (12, 4.80223298072814940000e-002) (13, -9.09972339868545530000e-002) (14, 2.58942916989326480000e-002) (15, 8.63718166947364810000e-002) (16, 4.23427633941173550000e-002) (17, -4.23742868006229400000e-002) (18, -1.76884829998016360000e-002) (19, -6.31884261965751650000e-002) (20, 4.55272719264030460000e-002) (21, -8.22713524103164670000e-002) (22, 6.03743232786655430000e-002) (23, 1.73487495630979540000e-002) (24, -8.21821615099906920000e-002) (25, 1.35854315012693410000e-002) (26, 8.73348861932754520000e-002) (27, 2.75988411158323290000e-002) (28, 9.33352485299110410000e-002) (29, 2.21527107059955600000e-002) (30, -7.30340974405407910000e-003) (31, -8.90802964568138120000e-002) (32, 4.88843210041522980000e-002) (33, -9.97950509190559390000e-002) (34, 4.31423336267471310000e-002) (2, -9.73364731180481610000e-005) (3, -2.16777566820383070000e-002) (4, -8.54024104773998260000e-003) (5, -7.60494172573089600000e-002) (6, 6.23015984892845150000e-002) (7, -1.54074095189571380000e-002) (8, 6.47965520620346070000e-002) (9, 6.64550019428133960000e-003) (10, -2.93784756213426590000e-002) (11, -3.64674720913171770000e-003) (12, -4.20711096376180650000e-003) (13, -2.92774941772222520000e-002) (14, 2.77501866221427920000e-002) (15, -8.32404196262359620000e-002) (16, -5.14759384095668790000e-002) (17, 1.15515859797596930000e-002) (18, 8.04604068398475650000e-002) (19, 3.11613059602677820000e-003) (20, 5.40253892540931700000e-002) (21, -6.93753436207771300000e-002) (22, 5.25472499430179600000e-002) (23, -6.16814289242029190000e-003) (24, 5.36103621125221250000e-002) (25, -8.34635347127914430000e-002) (26, 3.07647492736577990000e-002) (27, -1.45633080974221230000e-002) (28, -9.38596278429031370000e-002) (29, 6.26331344246864320000e-002) (30, -7.27632716298103330000e-002) (31, -4.20427732169628140000e-002) (32, 2.09873318672180180000e-002) (33, -1.37298302724957470000e-002) (34, 5.13491295278072360000e-002) (2, -3.13270464539527890000e-002) (3, -8.83023962378501890000e-002) (4, -8.06009955704212190000e-003) (5, 6.11064806580543520000e-002) (6, -9.10561978816986080000e-002) (7, -5.42672164738178250000e-002) (8, -4.80260364711284640000e-002) (9, -9.10724923014640810000e-002) (10, 3.77302132546901700000e-002) (11, -2.79295779764652250000e-002) (12, -5.66453374922275540000e-002) (13, -5.65391266718506810000e-003) (14, -7.02545745298266410000e-003) (15, -8.97874236106872560000e-002) (16, 9.11775790154933930000e-003) (17, 8.21278095245361330000e-002) (18, 9.06111001968383790000e-002) (19, 7.84616917371749880000e-002) (20, 9.83925238251686100000e-002) (21, -8.07245597243309020000e-002) (22, 1.46962571889162060000e-002) (23, -5.54341897368431090000e-002) (24, -6.55098930001258850000e-002) (25, 4.61130701005458830000e-002) (26, -8.94926711916923520000e-002) (27, 8.27026292681694030000e-002) (28, 7.78296515345573430000e-002) (29, 3.92814576625823970000e-002) (30, -2.31582541018724440000e-002) (31, 1.10491523519158360000e-002) (32, -6.94312825798988340000e-002) (33, -8.18552598357200620000e-002) (34, -2.87129078060388570000e-002) (2, 9.84169095754623410000e-002) (3, -5.33809028565883640000e-002) (4, -5.54250739514827730000e-002) (5, -5.88732250034809110000e-002) (6, 1.58056262880563740000e-002) (7, -3.45803447999060150000e-003) (8, -4.94811907410621640000e-002) (9, -3.87613251805305480000e-002) (10, -7.99264088273048400000e-002) (11, -5.04241921007633210000e-002) (12, 1.87266916036605830000e-002) (13, 2.06316262483596800000e-002) (14, 4.25499565899372100000e-002) (15, 2.24782396107912060000e-002) (16, 5.18771633505821230000e-002) (17, 3.14552001655101780000e-002) (18, 7.36202299594879150000e-002) (19, -3.67773100733757020000e-002) (20, 6.38949424028396610000e-002) (21, 8.88686478137969970000e-002) (22, 1.40310944989323620000e-002) (23, 8.19731969386339190000e-003) (24, -7.84462913870811460000e-002) (25, -2.55989450961351390000e-002) (26, 8.61786305904388430000e-002) (27, 8.39375331997871400000e-002) (28, -3.92389409244060520000e-002) (29, 2.04917583614587780000e-002) (30, -2.53854654729366300000e-002) (31, 7.15930387377738950000e-003) (32, 2.35576536506414410000e-002) (33, -7.40804821252822880000e-002) (34, -5.69743290543556210000e-003) (2, -6.99000507593154910000e-002) (3, -6.07736781239509580000e-002) (4, 5.36010935902595520000e-002) (5, 5.38962706923484800000e-003) (6, -1.09191250521689650000e-003) (7, -2.68926024436950680000e-002) (8, -1.25996982678771020000e-002) (9, 2.67245005816221240000e-002) (10, 7.57626295089721680000e-002) (11, 9.10758450627326970000e-002) (12, 7.96925798058509830000e-002) (13, -4.67858090996742250000e-002) (14, 7.98636227846145630000e-002) (15, -4.57240976393222810000e-002) (16, -2.07704883068799970000e-002) (17, 2.85097826272249220000e-002) (18, 8.08926299214363100000e-003) (19, 9.09574106335639950000e-002) (20, 5.35032637417316440000e-002) (21, -4.31159790605306630000e-003) (22, -1.39728384092450140000e-002) (23, -3.83087061345577240000e-002) (24, -8.63200575113296510000e-002) (25, -4.28430661559104920000e-002) (26, 9.77737642824649810000e-003) (27, -4.23974692821502690000e-002) (28, -6.44141808152198790000e-002) (29, 2.33318582177162170000e-002) (30, -6.57946020364761350000e-002) (31, 6.65337070822715760000e-002) (32, 5.97795762587338690000e-004) (33, -8.03801640868186950000e-002) (34, -3.00395656377077100000e-002) (2, 2.64873392879962920000e-002) (3, -4.87043783068656920000e-002) (4, 5.14784380793571470000e-002) (5, -3.00938077270984650000e-003) (6, -9.10682901740074160000e-002) (7, -3.13980914652347560000e-002) (8, -1.34361162781715390000e-002) (9, 8.97476822137832640000e-002) (10, -4.28638085722923280000e-002) (11, -1.68624408543109890000e-002) (12, 5.56347034871578220000e-002) (13, -1.01165901869535450000e-002) (14, 1.23918531462550160000e-002) (15, -8.21894928812980650000e-002) (16, 3.97242866456508640000e-002) (17, -4.66744322329759600000e-003) (18, -3.94585691392421720000e-002) (19, 7.96731114387512210000e-002) (20, 2.93722692877054210000e-002) (21, 9.73982959985733030000e-002) (22, -7.23577141761779790000e-002) (23, 9.51557233929634090000e-002) (24, 4.33809719979763030000e-002) (25, 6.25507310032844540000e-002) (26, 5.58055900037288670000e-002) (27, 9.97943952679634090000e-002) (28, 7.21959695219993590000e-002) (29, 1.30503689870238300000e-002) (30, -4.01272159069776540000e-003) (31, -4.33684093877673150000e-003) (32, -5.36892339587211610000e-002) (33, -4.69420999288558960000e-002) (34, -5.07866442203521730000e-002) (2, 6.94784745573997500000e-002) (3, 9.74972546100616460000e-002) (4, 1.16753904148936270000e-002) (5, -5.38076162338256840000e-002) (6, -1.19488304480910300000e-002) (7, -3.65477055311203000000e-004) (8, 4.12765778601169590000e-002) (9, -8.13398063182830810000e-002) (10, 7.37743824720382690000e-002) (11, -2.99770887941122060000e-002) (12, -5.58944232761859890000e-002) (13, -9.69097986817359920000e-002) (14, 6.44703805446624760000e-002) (15, -9.25868600606918330000e-002) (16, -2.92617343366146090000e-002) (17, -1.16778779774904250000e-002) (18, 6.91119506955146790000e-002) (19, 6.17379546165466310000e-002) (20, -4.68856431543827060000e-002) (21, 3.58188375830650330000e-002) (22, -8.13777372241020200000e-002) (23, -2.28799739852547650000e-003) (24, -6.68908804655075070000e-002) (25, 3.37315797805786130000e-002) (26, 2.31608394533395770000e-002) (27, 4.47855703532695770000e-002) (28, -7.66651034355163570000e-002) (29, 1.97841115295886990000e-002) (30, -5.75878173112869260000e-002) (31, 2.08291392773389820000e-002) (32, 8.25924277305603030000e-002) (33, -1.29580339416861530000e-002) (34, -1.69597156345844270000e-002) (2, 9.29009541869163510000e-002) (3, 4.49409596621990200000e-002) (4, -6.91753774881362920000e-002) (5, -4.03902307152748110000e-002) (6, -2.73141544312238690000e-002) (7, 6.10742457211017610000e-002) (8, 3.51153835654258730000e-002) (9, 2.60348711162805560000e-002) (10, -7.89449363946914670000e-002) (11, -8.62231403589248660000e-002) (12, -3.86070162057876590000e-002) (13, 6.58674314618110660000e-002) (14, -5.88261522352695470000e-002) (15, 5.80188781023025510000e-002) (16, 4.69609089195728300000e-002) (17, 5.29914572834968570000e-002) (18, 4.65458743274211880000e-002) (19, -5.33333532512187960000e-002) (20, -4.06504869461059570000e-002) (21, 1.27181839197874070000e-002) (22, -2.01033409684896470000e-002) (23, -7.62559473514556880000e-003) (24, 2.95453220605850220000e-002) (25, -5.58844953775405880000e-002) (26, 7.07897394895553590000e-002) (27, -7.19006434082984920000e-002) (28, -1.88899552449584010000e-003) (29, -9.42916274070739750000e-002) (30, 4.91353916004300120000e-003) (31, 1.86249520629644390000e-002) (32, 6.30631949752569200000e-003) (33, -3.44722978770732880000e-002) (34, -4.77868318557739260000e-003) (2, 7.94743895530700680000e-002) (3, -3.59793417155742650000e-002) (4, 2.95550655573606490000e-002) (5, -8.18173959851264950000e-002) (6, -3.94721440970897670000e-002) (7, -7.93802663683891300000e-002) (8, 4.64624725282192230000e-002) (9, -5.75439333915710450000e-002) (10, 5.24787977337837220000e-002) (11, -2.26036757230758670000e-002) (12, 6.94098765961825850000e-004) (13, -4.50197346508502960000e-002) (14, 6.64195567369461060000e-002) (15, -3.48479412496089940000e-002) (16, -4.19837515801191330000e-003) (17, -5.92290945351123810000e-002) (18, 5.06858788430690770000e-002) (19, 2.87206992506980900000e-002) (20, 3.98686155676841740000e-002) (21, 5.60415796935558320000e-002) (22, 9.27133411169052120000e-002) (23, -6.45964667201042180000e-002) (24, 3.58878299593925480000e-002) (25, 8.47538486123085020000e-002) (26, 7.16480463743209840000e-002) (27, 5.03175333142280580000e-002) (28, -2.20675822347402570000e-002) (29, 6.59058690071105960000e-002) (30, -9.13066789507865910000e-002) (31, 7.93847162276506420000e-003) (32, 7.10899308323860170000e-002) (33, -4.01063039898872380000e-002) (34, 8.47254917025566100000e-002) (2, 3.75670730136334900000e-003) (3, -2.48775295913219450000e-002) (4, -4.48398925364017490000e-002) (5, 3.25627475976943970000e-002) (6, -5.36296740174293520000e-002) (7, 7.24657997488975520000e-002) (8, 7.23107680678367610000e-002) (9, 9.44035947322845460000e-002) (10, -2.61100498028099540000e-003) (11, -2.15077176690101620000e-002) (12, 6.88615441322326660000e-002) (13, 8.36424678564071660000e-002) (14, -7.16778561472892760000e-002) (15, -8.24048370122909550000e-003) (16, -8.99783745408058170000e-002) (17, 1.95574909448623660000e-002) (18, 2.96804867684841160000e-002) (19, 9.33466926217079160000e-002) (20, -2.41282023489475250000e-003) (21, -3.26245389878749850000e-002) (22, 6.01488136453554030000e-005) (23, 5.71440905332565310000e-004) (24, 2.91541330516338350000e-002) (25, -2.16015372425317760000e-002) (26, -4.82359118759632110000e-002) (27, 8.45549479126930240000e-002) (28, 7.71402269601821900000e-002) (29, -1.74680370837450030000e-002) (30, -4.43454645574092860000e-002) (31, 5.22784143686294560000e-002) (32, -3.76698896288871770000e-002) (33, -1.10396826639771460000e-002) (34, 6.33309036493301390000e-002) (2, 4.52887685969471930000e-003) (3, -9.13079455494880680000e-002) (4, 5.12946620583534240000e-002) (5, 3.94182726740837100000e-002) (6, -2.80800499022006990000e-002) (7, -4.49563190340995790000e-002) (8, -4.50222603976726530000e-002) (9, -7.47554823756217960000e-002) (10, -5.89271150529384610000e-002) (11, -8.97858813405036930000e-002) (12, 7.89370909333229060000e-002) (13, 7.77624621987342830000e-002) (14, 6.80011212825775150000e-002) (15, -7.39695057272911070000e-002) (16, -9.80268791317939760000e-003) (17, 3.56198614463210110000e-003) (18, 9.60276052355766300000e-002) (19, 8.33670273423194890000e-002) (20, 3.15194316208362580000e-002) (21, 2.98640225082635880000e-002) (22, 7.23465830087661740000e-002) (23, 5.13847209513187410000e-002) (24, 5.52294068038463590000e-002) (25, -6.69653788208961490000e-002) (26, -1.69256832450628280000e-002) (27, 1.84833556413650510000e-002) (28, -4.99530024826526640000e-002) (29, -3.15675809979438780000e-002) (30, 1.31902372231706980000e-004) (31, -2.58560702204704280000e-002) (32, -6.40350803732872010000e-002) (33, 1.31042068824172020000e-002) (34, -3.44926938414573670000e-002) (2, -8.88368412852287290000e-002) (3, 7.28162229061126710000e-002) (4, 8.28461870551109310000e-002) (5, -5.55658973753452300000e-002) (6, 4.25097532570362090000e-002) (7, -6.80513158440589900000e-002) (8, -8.05265754461288450000e-002) (9, 5.97788579761981960000e-002) (10, 1.12665258347988130000e-002) (11, -9.67342108488082890000e-002) (12, -8.95589664578437810000e-002) (13, -1.80412400513887410000e-002) (14, -3.35667356848716740000e-002) (15, 7.82110542058944700000e-002) (16, 4.90870289504528050000e-002) (17, 2.94765946455299850000e-003) (18, 9.89955738186836240000e-002) (19, -1.80840976536273960000e-002) (20, -1.54613349586725230000e-002) (21, 1.61107927560806270000e-002) (22, -9.44145321846008300000e-002) (23, 8.95486921072006230000e-002) (24, 8.22312012314796450000e-002) (25, 6.04201033711433410000e-002) (26, -2.29257792234420780000e-002) (27, 1.48442410863935950000e-003) (28, -7.78899639844894410000e-002) (29, -6.05318993330001830000e-002) (30, -2.38679293543100360000e-002) (31, 2.84067373722791670000e-002) (32, -1.99391748756170270000e-002) (33, -9.78069603443145750000e-002) (34, 7.53005361184477810000e-003) (35, 3.55765223503112790000e-002) (36, -8.16550105810165410000e-002) (37, -7.99009278416633610000e-002) (38, -8.77702888101339340000e-003) (39, -9.79796722531318660000e-002) (40, -5.13898907229304310000e-003) (41, -6.22768960893154140000e-002) (42, 1.42098711803555490000e-002) (43, 8.96875634789466860000e-002) (44, 7.76049494743347170000e-002) (45, 2.31254491955041890000e-002) (46, 1.60111375153064730000e-002) (47, -1.46318683400750160000e-002) (48, -8.10561627149581910000e-002) (49, -1.43187958747148510000e-003) (50, -6.46255016326904300000e-002) (51, -6.39644172042608260000e-003) (52, -1.68173573911190030000e-002) (53, -6.96409568190574650000e-002) (54, -4.69391979277133940000e-002) (55, 5.01141026616096500000e-002) (56, -5.86970336735248570000e-002) (57, -6.32191225886344910000e-002) (58, -5.57265058159828190000e-002) (59, 1.24994684010744090000e-002) (60, 4.81853485107421880000e-002) (61, 2.35171169042587280000e-002) (62, -4.45223003625869750000e-002) (63, -4.56040352582931520000e-002) (64, -5.59898354113101960000e-002) (65, -5.63976094126701350000e-002) (66, -8.29344466328620910000e-002) (67, -8.88490900397300720000e-002) (35, -5.55939972400665280000e-002) (36, -3.39104905724525450000e-002) (37, 6.28958940505981450000e-002) (38, -7.21528306603431700000e-002) (39, 1.87100451439619060000e-002) (40, 6.49096118286252020000e-003) (41, 5.36158680915832520000e-002) (42, 5.71786575019359590000e-002) (43, 2.57125613279640670000e-003) (44, 1.79855051101185380000e-004) (45, 6.79603740572929380000e-002) (46, -1.14482333883643150000e-002) (47, 3.30087728798389430000e-002) (48, -1.01717114448547360000e-001) (49, -2.30905245989561080000e-002) (50, -6.11255839467048650000e-002) (51, -1.08873113989830020000e-001) (52, 3.18143889307975770000e-002) (53, -3.91463562846183780000e-002) (54, 9.14218351244926450000e-002) (55, -9.18854027986526490000e-002) (56, 5.75780905783176420000e-002) (57, 2.21379138529300690000e-002) (58, -6.80295825004577640000e-002) (59, -6.26627057790756230000e-002) (60, -5.87252266705036160000e-002) (61, -9.18867364525794980000e-002) (62, -1.35563537478446960000e-002) (63, -5.80155774950981140000e-002) (64, 1.10016595572233200000e-002) (65, -8.11083614826202390000e-002) (66, -7.33272731304168700000e-002) (67, -9.27735641598701480000e-002) 
