FANN_FLO_2.1
num_layers=5
learning_rate=0.700000
connection_rate=1.000000
network_type=0
learning_momentum=0.000000
training_algorithm=2
train_error_function=1
train_stop_function=0
cascade_output_change_fraction=0.010000
quickprop_decay=-0.000100
quickprop_mu=1.750000
rprop_increase_factor=1.200000
rprop_decrease_factor=0.500000
rprop_delta_min=0.000000
rprop_delta_max=50.000000
rprop_delta_zero=0.100000
cascade_output_stagnation_epochs=12
cascade_candidate_change_fraction=0.010000
cascade_candidate_stagnation_epochs=12
cascade_max_out_epochs=150
cascade_min_out_epochs=50
cascade_max_cand_epochs=150
cascade_min_cand_epochs=50
cascade_num_candidate_groups=2
bit_fail_limit=3.49999994039535520000e-001
cascade_candidate_limit=1.00000000000000000000e+003
cascade_weight_multiplier=4.00000005960464480000e-001
cascade_activation_functions_count=10
cascade_activation_functions=3 5 7 8 10 11 14 15 16 17 
cascade_activation_steepnesses_count=4
cascade_activation_steepnesses=2.50000000000000000000e-001 5.00000000000000000000e-001 7.50000000000000000000e-001 1.00000000000000000000e+000 
layer_sizes=4 5 5 5 2 
scale_included=0
neurons (num_inputs, activation_function, activation_steepness)=(0, 0, 0.00000000000000000000e+000) (0, 0, 0.00000000000000000000e+000) (0, 0, 0.00000000000000000000e+000) (0, 0, 0.00000000000000000000e+000) (4, 3, 5.00000000000000000000e-001) (4, 3, 5.00000000000000000000e-001) (4, 3, 5.00000000000000000000e-001) (4, 3, 5.00000000000000000000e-001) (0, 3, 0.00000000000000000000e+000) (5, 3, 5.00000000000000000000e-001) (5, 3, 5.00000000000000000000e-001) (5, 3, 5.00000000000000000000e-001) (5, 3, 5.00000000000000000000e-001) (0, 3, 0.00000000000000000000e+000) (5, 3, 5.00000000000000000000e-001) (5, 3, 5.00000000000000000000e-001) (5, 3, 5.00000000000000000000e-001) (5, 3, 5.00000000000000000000e-001) (0, 3, 0.00000000000000000000e+000) (5, 3, 5.00000000000000000000e-001) (0, 3, 0.00000000000000000000e+000) 
connections (connected_to_neuron, weight)=(0, -1.46700000000000000000e+003) (1, -1.46700000000000000000e+003) (2, -1.46700000000000000000e+003) (3, 5.12392187118530270000e+000) (0, -3.53147792816162110000e+000) (1, -3.49743604660034180000e+000) (2, -3.49805021286010740000e+000) (3, 2.98640704154968260000e+000) (0, -1.46700000000000000000e+003) (1, -1.46700000000000000000e+003) (2, -1.46700000000000000000e+003) (3, 6.58095312118530270000e+000) (0, -1.46700000000000000000e+003) (1, -1.46700000000000000000e+003) (2, -1.46700000000000000000e+003) (3, 5.33545541763305660000e+000) (4, 1.50000000000000000000e+003) (5, 1.50000000000000000000e+003) (6, 1.50000000000000000000e+003) (7, 1.50000000000000000000e+003) (8, -1.87760086059570310000e+001) (4, 1.50000000000000000000e+003) (5, 1.95626091957092290000e+000) (6, 1.50000000000000000000e+003) (7, 1.50000000000000000000e+003) (8, -4.24017429351806640000e+000) (4, 1.50000000000000000000e+003) (5, -4.73232030868530270000e+000) (6, 1.50000000000000000000e+003) (7, 1.50000000000000000000e+003) (8, 1.20046243071556090000e-001) (4, 1.50000000000000000000e+003) (5, 1.32012403011322020000e+000) (6, 1.50000000000000000000e+003) (7, 1.50000000000000000000e+003) (8, -6.54238414764404300000e+000) (9, -1.50000000000000000000e+003) (10, -9.80220458984375000000e+002) (11, 1.40170501708984370000e+002) (12, -1.50000000000000000000e+003) (13, 9.32749710083007810000e+001) (9, -1.05618715286254880000e+000) (10, -1.48715524673461910000e+001) (11, -1.17346324920654300000e+001) (12, -1.50000000000000000000e+003) (13, 6.26388406753540040000e+000) (9, -1.50000000000000000000e+003) (10, -1.50000000000000000000e+003) (11, -4.06098556518554690000e+000) (12, -1.50000000000000000000e+003) (13, 3.23611235618591310000e+000) (9, 1.08550041198730470000e+002) (10, 2.57967834472656250000e+001) (11, 6.77555704116821290000e+000) (12, 1.50000000000000000000e+003) (13, -1.93110733032226560000e+001) (14, 2.22866106033325200000e+000) (15, 4.19759063720703130000e+001) (16, 1.50000000000000000000e+003) (17, -1.06129236221313480000e+001) (18, -4.45595122873783110000e-002) 
